<?xml version="1.0"?>
<opencv_storage>
<opencv_ml_svm>
  <format>3</format>
  <svmType>C_SVC</svmType>
  <kernel>
    <type>RBF</type>
    <gamma>1.</gamma></kernel>
  <C>1.</C>
  <term_criteria><iterations>10000000</iterations></term_criteria>
  <var_count>8</var_count>
  <class_count>2</class_count>
  <class_labels type_id="opencv-matrix">
    <rows>2</rows>
    <cols>1</cols>
    <dt>i</dt>
    <data>
      0 1</data></class_labels>
  <sv_total>532</sv_total>
  <support_vectors>
    <_>
      1.50607705e+00 1.36842322e+00 2.00704813e+00 7.61614084e-01
      2.00967860e+00 5.03669739e-01 -6.52289391e-03 -3.33990455e-01</_>
    <_>
      5.70776463e+00 5.06900549e+00 7.24474812e+00 7.76523495e+00
      7.25046539e+00 4.08956528e-01 -4.48210597e-01 -7.99073339e-01</_>
    <_>
      -1.05693877e-01 -1.53106809e-01 -3.06124866e-01 -2.87679672e-01
      -3.05578291e-01 1.15229607e+00 -1.31444550e+00 -1.21657205e+00</_>
    <_>
      2.85830331e+00 2.53542137e+00 3.16652107e+00 2.28915334e+00
      3.16980290e+00 6.88299179e-01 -9.00317669e-01 -9.66310561e-01</_>
    <_>
      4.41005707e-01 4.77240980e-01 5.69973707e-01 1.76241100e-02
      5.71345329e-01 6.24267578e-01 -4.91830111e-02 -7.59039104e-01</_>
    <_>
      -4.08878088e-01 -4.33277220e-01 -3.40234756e-01 -3.64614159e-01
      -3.39730501e-01 3.19908142e-01 1.87629104e-01 2.48243093e-01</_>
    <_>
      3.51178885e+00 3.22169018e+00 3.10302448e+00 3.48041892e+00
      3.10438800e+00 8.83634567e-01 -1.30318904e+00 -7.64927328e-01</_>
    <_>
      4.11235714e+00 3.80649233e+00 2.99492216e+00 4.66678095e+00
      2.99930453e+00 1.00771904e+00 -1.62358880e+00 -1.02862644e+00</_>
    <_>
      -5.93334496e-01 -6.47018611e-01 -6.24133706e-01 -3.98988813e-01
      -6.26083612e-01 -1.00046158e-01 -6.08897209e-01 -9.56263542e-02</_>
    <_>
      -3.18585277e-01 -3.63502383e-01 -2.61519670e-01 -3.48835766e-01
      -2.60917664e-01 4.12336349e-01 5.41043282e-03 -1.37128353e-01</_>
    <_>
      -5.30762196e-01 -5.85638106e-01 -5.60899258e-01 -3.91271681e-01
      -5.60406268e-01 4.75774765e-01 -6.31819367e-01 -5.27304411e-01</_>
    <_>
      4.09901190e+00 3.70978165e+00 5.51275444e+00 4.45971441e+00
      5.51868629e+00 2.92318344e-01 -3.62341404e-01 2.57257342e-01</_>
    <_>
      -5.54492772e-01 -6.12751603e-01 -5.26789427e-01 -3.94894570e-01
      -5.26779473e-01 -2.98223495e-01 -1.29603505e-01 5.49696326e-01</_>
    <_>
      1.26482177e+00 1.08775616e+00 1.59248221e+00 4.87831682e-01
      1.59380984e+00 -1.97860718e-01 -2.35709786e-01 -1.85661435e-01</_>
    <_>
      -4.16519254e-01 -4.89476532e-01 -2.38692284e-01 -3.75691861e-01
      -2.38324702e-01 -1.03588390e+00 3.16641855e+00 1.12425840e+00</_>
    <_>
      -1.17604315e-01 1.35574043e-01 -1.32164598e-01 -1.70580044e-01
      -1.38232470e-01 -6.44194031e+00 -1.02474880e+00 -1.14936781e+00</_>
    <_>
      -2.83184826e-01 -2.90348351e-01 -4.12127823e-01 -3.29884648e-01
      -4.12238240e-01 8.22103500e-01 -1.38908458e+00 -1.02105141e+00</_>
    <_>
      -4.65171427e-01 -5.23906827e-01 -3.47056687e-01 -3.81759733e-01
      -3.48925292e-01 -6.75519943e-01 1.06136644e+00 1.29614556e+00</_>
    <_>
      -3.98745745e-01 -4.40447152e-01 -3.79067481e-01 -3.66108418e-01
      -3.78611445e-01 6.30386353e-01 -2.31751084e-01 -5.37593722e-01</_>
    <_>
      3.62749386e+00 3.25740623e+00 3.92664623e+00 3.54835701e+00
      3.91694808e+00 -1.60512924e-01 -1.15760469e+00 -5.37146688e-01</_>
    <_>
      3.00838423e+00 3.63735437e+00 2.46097183e+00 4.30746317e+00
      2.46285200e+00 1.04883957e+00 -1.54787481e+00 -1.13445616e+00</_>
    <_>
      -3.17616403e-01 -3.41443241e-01 -2.20850229e-01 -3.43380809e-01
      -2.19935060e-01 -2.74620056e-02 5.16870856e-01 1.22671723e-01</_>
    <_>
      1.21945596e+00 9.27727282e-01 7.22418547e-01 3.47973794e-01
      7.23191261e-01 2.38161087e-01 -1.31736541e+00 -6.52368546e-01</_>
    <_>
      -3.12308550e-01 -3.81360233e-01 -1.74933136e-01 -3.53087574e-01
      -1.74749076e-01 1.43445969e-01 8.16499114e-01 7.68488288e-01</_>
    <_>
      -6.40105724e-01 -6.88571811e-01 -6.07865930e-01 -4.03227866e-01
      -6.07693911e-01 -6.81463242e-01 2.07770014e+00 2.00814247e+00</_>
    <_>
      4.51816940e+00 4.12341213e+00 3.24733543e+00 5.37553167e+00
      3.24861550e+00 7.38073349e-01 -1.66288781e+00 -1.14438903e+00</_>
    <_>
      -5.74666977e-01 -6.13547564e-01 -5.60899258e-01 -3.94995809e-01
      -5.60406268e-01 3.87491226e-01 -3.61866117e-01 -4.87227440e-02</_>
    <_>
      -2.94281244e-01 -3.68714333e-01 -1.62601113e-01 -3.50091845e-01
      -1.63715243e-01 -2.36778259e-02 1.08694708e+00 1.46363127e+00</_>
    <_>
      3.13445234e+00 2.67128992e+00 2.41164351e+00 2.50777555e+00
      2.41451359e+00 9.96105194e-01 -1.35653162e+00 -8.59136403e-01</_>
    <_>
      5.12384534e-01 8.52717817e-01 4.90471482e-01 2.86480218e-01
      4.85439420e-01 -4.57305431e+00 -1.18930244e+00 -1.11649776e+00</_>
    <_>
      5.07997274e-02 6.01274550e-01 4.88800406e-02 9.92527902e-02
      4.43505049e-02 -1.78811359e+00 -9.37646627e-01 8.59076142e-01</_>
    <_>
      1.19915307e-01 5.12243688e-01 -1.07500553e-01 3.99421751e-02
      -1.08808994e-01 -4.91714478e-02 -1.42849946e+00 -8.91606450e-01</_>
    <_>
      1.47800708e+00 1.90784073e+00 1.07427478e+00 1.38970113e+00
      1.06891668e+00 -1.46939087e+00 -1.40963101e+00 -1.07681513e+00</_>
    <_>
      1.55433130e+00 1.39780998e+00 2.08707523e+00 7.92378664e-01
      2.09033036e+00 5.29651642e-01 -3.11060548e-01 -6.11869156e-01</_>
    <_>
      -3.17350149e-01 -3.91654044e-01 -3.42071414e-01 -3.55471700e-01
      -3.42357576e-01 -3.29940796e-01 -7.92864084e-01 -5.53202271e-01</_>
    <_>
      1.27154374e+00 1.08003759e+00 1.56571925e+00 4.80815202e-01
      1.56596255e+00 7.10941315e-01 -9.13629293e-01 -5.03207445e-01</_>
    <_>
      7.06996322e-01 6.17493689e-01 9.50954556e-01 1.10450953e-01
      9.51485634e-01 4.13040161e-01 2.46235251e-01 -1.93795919e-01</_>
    <_>
      -2.19667077e-01 -2.67591894e-01 -3.28952253e-01 -3.23486656e-01
      -3.28696668e-01 -1.27787113e+00 -1.35603714e+00 -1.05490923e+00</_>
    <_>
      3.17643070e+00 2.85658979e+00 3.45514297e+00 2.81964517e+00
      3.45930839e+00 6.35835648e-01 -2.47898936e-01 -5.90153158e-01</_>
    <_>
      -5.60739279e-01 -6.08556986e-01 -5.34660935e-01 -3.94356251e-01
      -5.34398079e-01 3.55491638e-02 5.22652745e-01 9.84629512e-01</_>
    <_>
      -4.11196202e-01 -4.55326587e-01 -3.19506407e-01 -3.69133860e-01
      -3.19239140e-01 2.04881668e-01 6.72801137e-01 2.34707355e-01</_>
    <_>
      2.54973674e+00 2.32669282e+00 1.86614835e+00 1.96986330e+00
      1.86387491e+00 8.57969284e-01 -1.65674376e+00 -1.35705340e+00</_>
    <_>
      -2.71139264e-01 -3.53357911e-01 -1.78606510e-01 -3.46354991e-01
      -1.78164244e-01 -1.27092361e-01 1.04587996e+00 1.20028079e+00</_>
    <_>
      1.79594493e+00 2.48909211e+00 1.15010369e+00 2.21655107e+00
      1.15009379e+00 -6.76272392e-01 -1.62113810e+00 -1.39958072e+00</_>
    <_>
      2.39498782e+00 3.52746534e+00 1.93305600e+00 4.08107758e+00
      1.92797589e+00 1.11237144e+00 -1.61650515e+00 -1.26155925e+00</_>
    <_>
      -4.67281133e-01 -4.99562114e-01 -4.18687403e-01 -3.77525866e-01
      -4.21695769e-01 -4.06534195e-01 9.97039199e-01 3.21345329e-01</_>
    <_>
      -3.23336065e-01 -3.74527514e-01 -2.31607974e-01 -3.51478100e-01
      -2.31756985e-01 1.02863312e-02 3.65037560e-01 -6.40650988e-02</_>
    <_>
      1.25991893e+00 1.31962991e+00 1.07007670e+00 7.11411238e-01
      1.07259464e+00 9.41740036e-01 -8.20694804e-01 -9.50534225e-01</_>
    <_>
      -5.30744612e-01 -5.95332146e-01 -5.57750702e-01 -3.92605901e-01
      -5.57779193e-01 -4.87218857e-01 -5.91155410e-01 2.70193934e-01</_>
    <_>
      3.89369965e+00 3.40909052e+00 4.66341925e+00 3.84343433e+00
      4.66172886e+00 3.12614441e-03 -3.11990023e-01 -5.34074187e-01</_>
    <_>
      -3.37402582e-01 -3.97909731e-01 -2.15077817e-01 -3.56896728e-01
      -2.14680851e-01 -3.12728882e-02 1.23083889e+00 -1.64471865e-01</_>
    <_>
      -5.82412958e-01 -6.49174988e-01 -6.05766892e-01 -3.99228394e-01
      -6.05329514e-01 1.79809570e-01 -1.81886435e-01 7.39471793e-01</_>
    <_>
      -5.15551209e-01 -5.18962741e-01 -5.47255337e-01 -3.80922019e-01
      -5.48058927e-01 -1.16549015e+00 -6.31289005e-01 -7.82976449e-01</_>
    <_>
      4.21023226e+00 3.82732248e+00 3.56088352e+00 4.71194410e+00
      3.55624795e+00 -4.41745758e-01 -1.26348114e+00 -4.91452217e-01</_>
    <_>
      -4.39519107e-01 -5.07411242e-01 -3.16357851e-01 -3.78920764e-01
      -3.16612065e-01 -1.43599606e+00 9.10217643e-01 1.54323399e+00</_>
    <_>
      7.34888554e-01 1.73279929e+00 6.08019352e-01 1.17119431e+00
      6.09700799e-01 1.27780533e+00 -1.76382899e+00 -1.41989136e+00</_>
    <_>
      -3.67028505e-01 -4.16519254e-01 -2.91168988e-01 -3.61029297e-01
      -2.91129231e-01 -9.34562683e-02 3.52575660e-01 -5.27962446e-02</_>
    <_>
      -6.28832579e-01 -6.70807779e-01 -5.68246007e-01 -4.01513040e-01
      -5.68024874e-01 -1.63860321e-01 8.70310664e-01 1.37571084e+00</_>
    <_>
      2.36611915e+00 2.15146780e+00 3.17859077e+00 1.71732152e+00
      3.17926049e+00 2.27075577e-01 3.85617018e-02 4.57002044e-01</_>
    <_>
      5.00566959e+00 4.62566948e+00 5.13859558e+00 6.59354305e+00
      5.13933372e+00 8.81271362e-01 -9.83499110e-01 -9.41428304e-01</_>
    <_>
      -3.44801545e-01 -4.23234135e-01 -2.69391179e-01 -3.62481266e-01
      -2.69587100e-01 -6.75811768e-02 6.23571754e-01 7.06160069e-02</_>
    <_>
      -5.80486774e-01 -6.31531179e-01 -5.39646208e-01 -3.97205383e-01
      -5.40703058e-01 -2.50371933e-01 9.46226239e-01 1.14388502e+00</_>
    <_>
      3.33702040e+00 2.87666965e+00 2.36546421e+00 2.85439110e+00
      2.36801410e+00 9.75618362e-01 -1.25971174e+00 -8.60797763e-01</_>
    <_>
      1.91642046e+00 2.23254132e+00 2.28386259e+00 1.83240974e+00
      2.28420973e+00 -1.02668762e-01 -5.30861616e-02 -7.69058049e-01</_>
    <_>
      -2.65591383e-01 2.07020342e-01 -3.31051290e-01 -1.35671824e-01
      -3.44196558e-01 -7.18746185e+00 -1.57963884e+00 -1.43043983e+00</_>
    <_>
      3.29608631e+00 3.09579754e+00 2.12302160e+00 3.24563622e+00
      2.12264347e+00 1.02800560e+00 -1.64799714e+00 -1.25746632e+00</_>
    <_>
      4.37866116e+00 4.02113771e+00 5.81607008e+00 5.14175224e+00
      5.81975079e+00 2.14899063e-01 6.21181846e-01 -2.66444683e-03</_>
    <_>
      8.64217043e-01 1.23127866e+00 2.92371988e-01 6.23299360e-01
      2.93398857e-01 1.36693382e+00 -1.64132226e+00 -1.21245694e+00</_>
    <_>
      -3.81697863e-01 -4.45858300e-01 -2.68604040e-01 -3.67220491e-01
      -2.67748117e-01 -8.16561699e-01 1.91143119e+00 1.36159718e+00</_>
    <_>
      5.69735765e-02 2.49145329e-01 6.96083307e-02 -1.13987684e-01
      7.06214309e-02 -1.19835472e+00 -1.33006573e-01 -3.00994515e-01</_>
    <_>
      1.54081702e+00 3.17257404e+00 1.43715131e+00 3.38795114e+00
      1.42567587e+00 -1.34886551e+00 -9.68837738e-01 -3.00138474e-01</_>
    <_>
      -3.10567796e-01 -3.59543920e-01 -1.43709481e-01 -3.47873390e-01
      -1.42698526e-01 -3.56182098e-01 6.14672065e-01 1.62901032e+00</_>
    <_>
      -5.65122128e-01 -5.63011825e-01 -6.14950299e-01 -3.87989104e-01
      -6.22668386e-01 -7.80114365e+00 -1.21298814e+00 -9.99474883e-01</_>
    <_>
      3.17316484e+00 3.78539848e+00 3.36278391e+00 4.62125063e+00
      3.36447024e+00 5.28436661e-01 -5.78506112e-01 -3.46307755e-02</_>
    <_>
      1.67305779e+00 2.75717688e+00 1.27211201e+00 2.65036130e+00
      1.27304173e+00 1.19097710e+00 -1.70114458e+00 -1.34386921e+00</_>
    <_>
      2.66448259e+00 2.40434122e+00 3.34546661e+00 2.08629704e+00
      3.34555507e+00 5.80600739e-01 -8.18204284e-01 -8.23155046e-01</_>
    <_>
      -4.80289072e-01 -5.44590116e-01 -3.77230823e-01 -3.85142326e-01
      -3.77297878e-01 -5.11238098e-01 8.68536830e-01 2.36777639e+00</_>
    <_>
      3.96519613e+00 3.63256884e+00 5.45949078e+00 4.29748917e+00
      5.46561909e+00 4.14703369e-01 -3.52611542e-02 2.19781280e-01</_>
    <_>
      -4.58336383e-01 -5.13302326e-01 -3.03763449e-01 -3.79949033e-01
      -3.03739309e-01 -3.72959137e-01 1.78770912e+00 1.48644102e+00</_>
    <_>
      6.01284623e-01 7.70623505e-01 2.08933949e-01 2.22149283e-01
      2.05654025e-01 -6.29267693e-01 -1.68124318e+00 -1.14767361e+00</_>
    <_>
      1.16574526e+00 1.00528431e+00 1.16348517e+00 4.14281577e-01
      1.16533089e+00 6.55782700e-01 -7.36006975e-01 -2.63466001e-01</_>
    <_>
      5.58423901e+00 5.04526472e+00 6.20623398e+00 7.70019531e+00
      6.20724773e+00 2.18898773e-01 -4.53725934e-01 -5.21127462e-01</_>
    <_>
      -3.20451260e-01 -3.74485254e-01 -2.00646698e-01 -3.51468086e-01
      -1.99706435e-01 -6.30331039e-01 7.02802777e-01 7.08623052e-01</_>
    <_>
      -4.43924457e-01 -4.96755123e-01 -3.58601570e-01 -3.77020121e-01
      -3.58120143e-01 -1.83904648e-01 9.72947955e-01 1.12609732e+00</_>
    <_>
      1.65119290e-01 7.17036724e-02 3.94341946e-02 -1.99795827e-01
      4.06725407e-02 6.04166031e-01 -9.34839249e-01 -3.71902943e-01</_>
    <_>
      3.90040493e+00 3.46281815e+00 4.86834049e+00 3.95049477e+00
      4.87189579e+00 5.78969955e-01 -4.31546211e-01 -5.77439606e-01</_>
    <_>
      1.03349435e+00 8.89000833e-01 5.68137050e-01 3.15901786e-01
      5.51642060e-01 1.09634972e+00 -1.51861644e+00 -1.06712830e+00</_>
    <_>
      -3.15035045e-01 -3.65473330e-01 -2.14290619e-01 -3.49312246e-01
      -2.13892758e-01 -3.68579865e-01 8.95383716e-01 6.54190183e-01</_>
    <_>
      1.78259540e+00 1.71709394e+00 1.15587604e+00 1.15227914e+00
      1.15455985e+00 3.98078918e-01 -1.61523056e+00 -1.34618497e+00</_>
    <_>
      -5.44263363e-01 -6.04309201e-01 -5.21016955e-01 -3.93802822e-01
      -5.20474434e-01 5.13744354e-02 -1.58065319e-01 6.83267713e-01</_>
    <_>
      6.44767523e-01 5.10865271e-01 1.21622431e+00 3.90525758e-02
      1.21419501e+00 -5.13160706e-01 8.00298810e-01 8.91198516e-01</_>
    <_>
      -3.17145824e-01 -3.62432361e-01 -2.52073884e-01 -3.48576307e-01
      -2.53036439e-01 1.46598816e-01 -1.66561961e-01 -2.15365887e-02</_>
    <_>
      -3.98114294e-01 -4.57595497e-01 -3.99008632e-01 -3.69586229e-01
      -3.98840070e-01 5.45291901e-02 -7.15097189e-02 8.66974235e-01</_>
    <_>
      5.14032245e-02 7.88683832e-01 -1.54039264e-02 2.36035377e-01
      -1.63353682e-02 8.32462311e-01 -1.40533781e+00 -1.31909430e+00</_>
    <_>
      -5.29206991e-01 -5.74896395e-01 -5.24690330e-01 -3.89742702e-01
      -5.24415135e-01 -8.52394104e-03 -1.86737061e-01 3.33564520e-01</_>
    <_>
      1.30465150e+00 1.11572576e+00 1.10707271e+00 5.13487101e-01
      1.10595870e+00 9.43090439e-01 -1.31188166e+00 -1.11544347e+00</_>
    <_>
      3.28526974e+00 3.00371909e+00 2.57668304e+00 3.07853794e+00
      2.57108831e+00 -2.62336731e-01 -1.30109727e+00 -6.63467169e-01</_>
    <_>
      -5.58779716e-01 -6.01103485e-01 -5.79528511e-01 -3.93379658e-01
      -5.79058647e-01 2.50396729e-01 8.52934122e-02 5.19316554e-01</_>
    <_>
      -4.75818068e-01 -5.27850270e-01 -3.62012565e-01 -3.82419884e-01
      -3.61535370e-01 -8.24458122e-01 1.92897189e+00 1.80793607e+00</_>
    <_>
      2.02121925e+00 1.81207371e+00 2.62286234e+00 1.26840508e+00
      2.62336755e+00 2.69256592e-01 4.15175080e-01 1.20962501e-01</_>
    <_>
      -4.66874152e-01 -5.29740334e-01 -3.52041960e-01 -3.82733732e-01
      -3.52865934e-01 -7.07324982e-01 1.31450927e+00 2.30908394e+00</_>
    <_>
      -5.72188497e-01 -6.28900468e-01 -6.04192555e-01 -3.96891445e-01
      -6.04016006e-01 3.68000031e-01 7.31407404e-02 1.44693494e-01</_>
    <_>
      4.91819382e-01 1.38401127e+00 2.59573936e-01 7.77883172e-01
      2.60034800e-01 1.02176476e+00 -1.67324841e+00 -1.42075622e+00</_>
    <_>
      -6.48360491e-01 -6.85019076e-01 -5.75330377e-01 -4.02896553e-01
      -5.75380683e-01 -5.40740967e-01 1.57985866e+00 2.12600327e+00</_>
    <_>
      1.22172832e+00 1.10588598e+00 1.89081228e+00 5.04420161e-01
      1.89356112e+00 -5.52958488e-01 8.88161778e-01 1.51339304e+00</_>
    <_>
      -3.14041078e-01 -3.78849626e-01 -2.64143527e-01 -3.52498680e-01
      -2.64070213e-01 3.85377884e-01 6.29409552e-02 1.02685809e-01</_>
    <_>
      -3.60634923e-01 -4.19611782e-01 -2.09305346e-01 -3.61700594e-01
      -2.08638549e-01 -4.00470734e-01 7.41920352e-01 5.76155305e-01</_>
    <_>
      2.43906927e+00 2.83657551e+00 2.60239649e+00 2.78519773e+00
      2.60497785e+00 7.18425751e-01 -1.08427763e+00 -5.73013604e-01</_>
    <_>
      -3.62470865e-01 -2.40195155e-01 -4.62243050e-01 -3.15467477e-01
      -4.67407197e-01 -3.80374241e+00 -1.25694263e+00 -1.05950928e+00</_>
    <_>
      9.76660967e-01 2.09044385e+00 6.60233617e-01 1.63269198e+00
      6.61454558e-01 7.49603271e-01 -1.09925771e+00 -3.47133160e-01</_>
    <_>
      -4.38630074e-01 -4.66544420e-01 -5.25477529e-01 -3.71347338e-01
      -5.25991321e-01 -1.76550579e+00 -7.34839916e-01 -8.63393843e-01</_>
    <_>
      3.62429237e+00 3.23029518e+00 4.47476530e+00 3.49673295e+00
      4.46548462e+00 4.17222977e-01 -3.94921303e-01 -8.04233730e-01</_>
    <_>
      -5.64130425e-01 -6.23244941e-01 -6.02355838e-01 -3.96205783e-01
      -6.02177024e-01 3.23114395e-01 -6.57942414e-01 -2.70559788e-01</_>
    <_>
      -5.74036717e-01 -6.23563886e-01 -5.82414746e-01 -3.96244854e-01
      -5.82473874e-01 4.61013794e-01 -3.81504059e-01 -2.58823633e-02</_>
    <_>
      1.53337502e+00 1.34242463e+00 2.11856127e+00 7.34727859e-01
      2.12185550e+00 3.61381531e-01 -1.39895082e-01 7.73649335e-01</_>
    <_>
      -2.98195660e-01 -3.39228749e-01 -1.81755066e-01 -3.42820823e-01
      -1.81316793e-01 3.16595078e-01 3.45752597e-01 -2.09595561e-01</_>
    <_>
      -3.86422515e-01 -4.56851721e-01 -3.12159717e-01 -3.69438201e-01
      -3.11620593e-01 1.18640900e-01 7.95192599e-01 5.68878055e-01</_>
    <_>
      2.30356216e+00 2.07502007e+00 3.35071421e+00 1.61157358e+00
      3.34266543e+00 -3.01601410e-01 3.36102366e-01 5.34048676e-01</_>
    <_>
      2.53194523e+00 2.28858209e+00 3.15838718e+00 1.91373289e+00
      3.16034532e+00 4.08725739e-01 -6.16408587e-02 -2.45441675e-01</_>
    <_>
      1.24775171e-01 4.63449955e-03 1.25758410e-01 -2.28451848e-01
      1.25527620e-01 5.01356125e-01 -7.90235519e-01 -4.49784160e-01</_>
    <_>
      -5.18818796e-01 -5.73704481e-01 -5.53027749e-01 -3.89569759e-01
      -5.52787662e-01 3.74107361e-01 -5.73078394e-01 -4.62817192e-01</_>
    <_>
      2.32482147e+00 2.06371808e+00 2.67665100e+00 1.59616816e+00
      2.67958713e+00 1.65533066e-01 -3.99568081e-01 -6.40732050e-02</_>
    <_>
      -3.26314867e-01 -4.06265169e-01 -1.43971860e-01 -3.58771920e-01
      -1.43749356e-01 -5.18751144e-01 2.93877554e+00 1.57604945e+00</_>
    <_>
      -3.34856868e-01 -3.82111669e-01 -1.70735002e-01 -3.53263259e-01
      -1.71333849e-01 -5.12849808e-01 1.06953299e+00 1.45957696e+00</_>
    <_>
      1.86649585e+00 1.76209474e+00 2.07316875e+00 1.20678067e+00
      2.07167792e+00 9.86118317e-01 -8.02207828e-01 -1.07233059e+00</_>
    <_>
      1.46455550e+00 1.22074103e+00 1.86221254e+00 6.13030195e-01
      1.86466312e+00 4.99227524e-01 -3.94363999e-01 2.92871714e-01</_>
    <_>
      -2.54696250e-01 -2.76567221e-01 -3.90087605e-01 -3.26038569e-01
      -3.89907956e-01 -1.41579819e+00 -1.19682384e+00 -1.13052368e+00</_>
    <_>
      3.74211836e+00 3.43330860e+00 4.92003012e+00 3.89152861e+00
      4.92154789e+00 3.04225922e-01 8.96128416e-02 -2.70351052e-01</_>
    <_>
      -5.74228644e-01 -6.31679654e-01 -6.14687920e-01 -3.97222996e-01
      -6.14787102e-01 6.88190460e-01 -3.94105077e-01 -5.30019999e-01</_>
    <_>
      -4.25261378e-01 -4.82935727e-01 -2.18751132e-01 -3.74477386e-01
      -2.18096077e-01 -1.64554787e+00 2.73145866e+00 2.40237236e+00</_>
    <_>
      1.54527688e+00 1.33613944e+00 2.01334524e+00 7.28274822e-01
      2.00600076e+00 -3.46801758e-01 -7.33935118e-01 1.37620211e-01</_>
    <_>
      -3.52094471e-01 -4.18288529e-01 -3.24491739e-01 -3.61413896e-01
      -3.24493349e-01 -2.95555115e-01 2.35145688e-01 3.01693201e-01</_>
    <_>
      2.34372473e+00 2.16317010e+00 2.98101568e+00 1.73374641e+00
      2.98117757e+00 3.82526398e-01 9.38011408e-02 -3.46350551e-01</_>
    <_>
      -3.45822990e-01 -4.19344693e-01 -2.91431367e-01 -3.61642778e-01
      -2.90603817e-01 -2.15576172e-01 9.29831624e-01 6.05343699e-01</_>
    <_>
      -6.74069107e-01 -7.24167943e-01 -6.22297049e-01 -4.06226605e-01
      -6.21880233e-01 -1.70625591e+00 3.22784424e+00 3.40188122e+00</_>
    <_>
      1.88989282e-01 4.93259609e-01 4.62561846e-02 2.77677178e-02
      4.40877676e-02 -3.78570557e-02 -1.27905798e+00 -1.29366493e+00</_>
    <_>
      -4.78065401e-01 -5.27706385e-01 -5.14194965e-01 -3.82395923e-01
      -5.13643980e-01 3.98984909e-01 1.27984285e-02 4.70236182e-01</_>
    <_>
      1.82633567e+00 1.70964646e+00 8.04019809e-01 1.14334905e+00
      8.04893851e-01 1.33830261e+00 -1.79854262e+00 -1.43024874e+00</_>
    <_>
      3.25377989e+00 2.95917130e+00 4.05206537e+00 2.99909759e+00
      4.04830265e+00 -3.87250900e-01 -5.15685797e-01 -9.52029228e-02</_>
    <_>
      3.21749878e+00 2.88030434e+00 2.37569714e+00 2.86069989e+00
      2.37484455e+00 4.36334610e-01 -1.63543940e+00 -1.26295912e+00</_>
    <_>
      -6.26569033e-01 -6.88592672e-01 -5.72968900e-01 -4.03229803e-01
      -5.72490931e-01 -4.90934372e-01 1.09737337e+00 1.59021175e+00</_>
    <_>
      -4.94398236e-01 -5.30588865e-01 -4.24459845e-01 -3.82874101e-01
      -4.25636411e-01 4.67191696e-01 2.84379721e-02 -5.65671921e-03</_>
    <_>
      9.75335240e-01 8.09683979e-01 1.51271760e+00 2.52370745e-01
      1.51315808e+00 -1.02134705e-01 1.71467423e-01 1.03539789e+00</_>
    <_>
      -1.07705355e-01 -1.62839293e-01 -2.96941459e-01 -2.90958494e-01
      -2.97434270e-01 6.05876923e-01 -1.44411194e+00 -1.13615108e+00</_>
    <_>
      -3.06171834e-01 -3.38744164e-01 -2.60207772e-01 -3.42697948e-01
      -2.63019383e-01 -7.54592896e-01 3.42676282e-01 5.48607707e-01</_>
    <_>
      8.64539146e-01 1.41488671e+00 4.11756396e-01 8.10438871e-01
      4.12668943e-01 7.26591110e-01 -1.14821649e+00 2.89141774e-01</_>
    <_>
      -3.92832845e-01 -4.21481729e-01 -3.21080744e-01 -3.62104356e-01
      -3.21866214e-01 1.53535843e-01 5.06054997e-01 -7.34269619e-03</_>
    <_>
      1.70130563e+00 1.58103800e+00 2.21223211e+00 9.93172646e-01
      2.21485448e+00 6.58906937e-01 -1.99160218e-01 2.48419046e-02</_>
    <_>
      2.30102658e-01 1.85608327e-01 2.10673809e-02 -1.46380424e-01
      2.14948058e-02 5.05239487e-01 -8.81463528e-01 3.09789419e-01</_>
    <_>
      -5.26477098e-01 -5.85667253e-01 -5.91598153e-01 -3.91275764e-01
      -5.91668665e-01 8.47349167e-01 -7.08850384e-01 -7.47886777e-01</_>
    <_>
      -3.43752205e-01 -4.13718045e-01 -2.53910542e-01 -3.60417426e-01
      -2.53299117e-01 -5.75618744e-02 4.74818349e-01 4.13365245e-01</_>
    <_>
      4.13943768e+00 3.82010317e+00 3.87600613e+00 4.69626951e+00
      3.87911773e+00 2.35448837e-01 -1.23522210e+00 -9.26461816e-01</_>
    <_>
      -3.12744915e-01 -3.92135173e-01 -2.06681490e-01 -3.55581939e-01
      -2.06799567e-01 -2.84885406e-01 5.09993911e-01 6.92959666e-01</_>
    <_>
      1.70691395e+00 1.68764663e+00 9.44657326e-01 1.11711955e+00
      9.46494102e-01 7.79037476e-01 -1.32677889e+00 -3.02583933e-01</_>
    <_>
      -3.81235272e-01 -4.38599527e-01 -3.09273481e-01 -3.65725636e-01
      -3.08468044e-01 -5.11608124e-02 9.45104718e-01 7.01863885e-01</_>
    <_>
      2.07404280e+00 1.83266759e+00 2.33633947e+00 1.29413211e+00
      2.33465004e+00 -2.03174591e-01 -1.10704184e+00 -1.02426052e+00</_>
    <_>
      1.38144422e+00 1.17686248e+00 1.98395836e+00 5.70820212e-01
      1.98156857e+00 -9.66130257e-01 4.17764306e-01 2.62712240e-01</_>
    <_>
      2.48086929e-01 1.93528831e-01 4.73941326e-01 -1.42443836e-01
      4.73617435e-01 1.56225204e-01 1.18113756e-02 -2.88278580e-01</_>
    <_>
      -5.90809464e-01 -6.27824545e-01 -6.01831079e-01 -3.96762162e-01
      -6.01651609e-01 3.90325546e-01 -2.98693419e-01 -1.36793852e-01</_>
    <_>
      -2.89458275e-01 -3.51437509e-01 -2.76475549e-01 -3.45880032e-01
      -2.76154816e-01 4.68723297e-01 -2.88590431e-01 -4.89271402e-01</_>
    <_>
      2.22719312e+00 2.18150926e+00 2.30852699e+00 1.75961387e+00
      2.30890441e+00 9.14846420e-01 -1.35303712e+00 -1.15217710e+00</_>
    <_>
      1.24562073e+00 2.13917994e+00 9.88475442e-01 1.70014226e+00
      9.86425996e-01 7.23638535e-01 -1.06294513e+00 -3.00267100e-01</_>
    <_>
      -1.53863847e-01 7.09571242e-02 -3.42858553e-01 -2.00126231e-01
      -3.43671143e-01 1.20283318e+00 -1.63476944e+00 -1.23398840e+00</_>
    <_>
      -3.32518280e-01 -4.14203852e-01 -2.45776653e-01 -3.60523820e-01
      -2.47782230e-01 -1.48620605e+00 9.37025905e-01 6.85731530e-01</_>
    <_>
      5.90973377e+00 5.22694969e+00 7.27623367e+00 8.20454216e+00
      7.27831268e+00 4.28848267e-01 -1.97284698e-01 -4.00458097e-01</_>
    <_>
      7.82950997e-01 6.80246294e-01 1.30858338e+00 1.54918462e-01
      1.30719399e+00 1.09407425e-01 1.45512700e-01 -4.08402681e-02</_>
    <_>
      2.87380886e+00 2.46095037e+00 2.02541494e+00 2.17293262e+00
      2.02228856e+00 7.41947174e-01 -1.59024692e+00 -1.32557249e+00</_>
    <_>
      -4.84602302e-01 -5.21025896e-01 -4.80609924e-01 -3.81272942e-01
      -4.80805367e-01 2.60858536e-01 -6.74399734e-01 -3.43403101e-01</_>
    <_>
      2.43158817e-01 3.96982014e-01 4.74466085e-01 -3.14187109e-02
      4.72566605e-01 1.12623215e-01 -1.31947517e-01 -4.37627077e-01</_>
    <_>
      -3.79743397e-01 -4.23235267e-01 -2.48138130e-01 -3.62481534e-01
      -2.48307645e-01 4.12139893e-02 8.46204877e-01 -1.32937312e-01</_>
    <_>
      3.15240097e+00 2.97755885e+00 4.43357134e+00 3.03177738e+00
      4.43842602e+00 2.81612396e-01 2.97864676e-02 2.71939874e-01</_>
    <_>
      -4.66547132e-01 -4.66011494e-01 -4.91367638e-01 -3.71243507e-01
      -4.92889971e-01 4.91159439e-01 -8.13830495e-01 -8.89417171e-01</_>
    <_>
      -3.07333171e-01 -2.99936056e-01 -2.23998845e-01 -3.32508802e-01
      -2.23875701e-01 1.60398483e-01 -9.74794626e-02 -7.44510114e-01</_>
    <_>
      -5.74915171e-01 -6.28830314e-01 -6.39089584e-01 -3.96883041e-01
      -6.39481783e-01 5.96591949e-01 -7.85863161e-01 -4.10861254e-01</_>
    <_>
      1.99256730e+00 1.80783486e+00 2.38278151e+00 1.26313365e+00
      2.38587832e+00 1.43115997e-01 2.92281508e-01 6.23522639e-01</_>
    <_>
      -3.98739427e-01 -4.41629529e-01 -3.74869347e-01 -3.66352588e-01
      -3.74145389e-01 4.49153900e-01 -5.22669554e-02 1.50062203e-01</_>
    <_>
      -5.36010861e-01 -5.92417181e-01 -5.41220546e-01 -3.92209232e-01
      -5.41228533e-01 3.30493927e-01 -1.70290470e-01 3.43333602e-01</_>
    <_>
      -5.68164051e-01 -6.19438410e-01 -6.02093458e-01 -3.95736009e-01
      -6.02965176e-01 -1.68367577e+00 -5.64183235e-01 -1.54621720e-01</_>
    <_>
      1.22069502e+00 2.51194310e+00 8.74338627e-01 2.25223708e+00
      8.73461008e-01 1.20918274e+00 -1.72457767e+00 -1.39459252e+00</_>
    <_>
      -5.82571507e-01 -6.20490193e-01 -5.11571169e-01 -3.95866483e-01
      -5.11542320e-01 -6.21022224e-01 1.70530879e+00 2.62796021e+00</_>
    <_>
      -5.63231468e-01 -6.13852322e-01 -5.84776163e-01 -3.95034492e-01
      -5.84838271e-01 1.83622360e-01 -1.01102829e-01 5.37284613e-02</_>
    <_>
      2.24609017e-01 5.47399819e-01 -1.35837972e-01 6.29261434e-02
      -1.38232470e-01 -8.96013260e-01 -1.61493146e+00 -1.38913846e+00</_>
    <_>
      3.09194112e+00 2.65190959e+00 2.30669022e+00 2.47607112e+00
      2.30759096e+00 1.93704605e-01 -1.32404780e+00 -6.84069991e-01</_>
    <_>
      4.68019819e+00 4.28230715e+00 5.78563356e+00 5.74829578e+00
      5.77614117e+00 3.66020203e-03 -2.42584944e-01 -5.04956365e-01</_>
    <_>
      -2.87310719e-01 -3.52993906e-01 -2.30296016e-01 -3.46265107e-01
      -2.29392588e-01 -7.77359009e-02 7.76074290e-01 1.74542546e-01</_>
    <_>
      3.13412571e+00 3.75377846e+00 2.84536362e+00 4.55338144e+00
      2.84850931e+00 5.93091965e-01 -1.31326282e+00 -1.23076534e+00</_>
    <_>
      5.85255980e-01 1.06617212e+00 1.24971271e-01 4.68279570e-01
      1.20010734e-01 -5.03371429e+00 -1.75843298e+00 -1.46331775e+00</_>
    <_>
      -5.64949155e-01 -6.26127124e-01 -5.54864407e-01 -3.96557063e-01
      -5.54889381e-01 3.07826996e-02 -2.69678831e-02 2.66836762e-01</_>
    <_>
      1.77415085e+00 2.67115974e+00 1.96270549e+00 2.50756240e+00
      1.96317911e+00 5.39262772e-01 -7.83495307e-01 -1.52304173e-02</_>
    <_>
      7.01430082e-01 2.18297791e+00 5.62364578e-01 1.76169217e+00
      5.39557457e-01 -5.27187634e+00 -1.86461735e+00 -1.51385391e+00</_>
    <_>
      -3.16888213e-01 -3.91001433e-01 -2.41316140e-01 -3.55322003e-01
      -2.40689099e-01 -1.28343582e-01 7.77287364e-01 3.41000795e-01</_>
    <_>
      -2.20446348e-01 -2.57284880e-01 -2.63093948e-01 -3.20510328e-01
      -2.62756646e-01 8.98075104e-02 -1.64358258e-01 -4.21936512e-01</_>
    <_>
      1.14311755e-01 7.71387815e-02 -1.33048892e-02 -1.97382867e-01
      -1.23947263e-02 7.02886581e-01 -7.15391517e-01 -2.72771597e-01</_>
    <_>
      -4.65852916e-01 -5.13841987e-01 -4.28920358e-01 -3.80042434e-01
      -4.28788930e-01 2.78959274e-01 1.02925658e-01 3.74956012e-01</_>
    <_>
      -5.57588756e-01 -6.14228129e-01 -5.78216553e-01 -3.95082146e-01
      -5.77745080e-01 2.16873169e-01 -2.95498133e-01 3.09250832e-01</_>
    <_>
      -2.77796626e-01 -2.79562652e-01 -2.48138130e-01 -3.26881975e-01
      -2.47782230e-01 6.17145538e-01 -1.55720711e-01 -3.29666972e-01</_>
    <_>
      -3.67105007e-03 -4.10292149e-02 -8.25741291e-02 -2.46776342e-01
      -8.35889578e-02 6.85497284e-01 -1.02682376e+00 -4.84816909e-01</_>
    <_>
      -2.49936461e-01 -3.14527333e-01 -2.54172921e-01 -3.36421192e-01
      -2.54612684e-01 -2.85327911e-01 -3.41527581e-01 -3.50230336e-01</_>
    <_>
      4.92111349e+00 4.58304024e+00 4.17459869e+00 6.48565149e+00
      4.17256451e+00 6.91864014e-01 -1.32654810e+00 -6.01851046e-01</_>
    <_>
      1.60964489e+00 1.33997822e+00 1.98212183e+00 7.32214093e-01
      1.98078060e+00 -5.61751366e-01 -3.50161791e-02 -5.51738739e-01</_>
    <_>
      -3.52028936e-01 -3.80739868e-01 -2.52073884e-01 -3.52942348e-01
      -2.51197457e-01 1.61857605e-01 3.29958081e-01 -1.46453381e-01</_>
    <_>
      4.99532366e+00 4.41897058e+00 3.58502293e+00 6.07821035e+00
      3.58829856e+00 8.07388306e-01 -1.46477759e+00 -9.92663085e-01</_>
    <_>
      -4.46185291e-01 -5.10593653e-01 -2.71752656e-01 -3.79478216e-01
      -2.72476912e-01 -1.12233353e+00 2.11882162e+00 1.32105935e+00</_>
    <_>
      2.46495461e+00 2.25366306e+00 2.08340168e+00 1.86289060e+00
      2.07719493e+00 -1.37423229e+00 -1.53301322e+00 -1.13651633e+00</_>
    <_>
      4.76086330e+00 4.26966619e+00 3.76344347e+00 5.71821451e+00
      3.75984788e+00 1.03353500e-01 -1.57052672e+00 -1.20753145e+00</_>
    <_>
      -4.27736461e-01 -4.92375731e-01 -3.83527994e-01 -3.76223862e-01
      -3.83077502e-01 2.58708954e-01 -2.62444735e-01 -3.06065798e-01</_>
    <_>
      -5.55478692e-01 -6.19104922e-01 -5.66146970e-01 -3.95694524e-01
      -5.66711307e-01 -2.98574448e-01 -3.00341487e-01 6.41542315e-01</_>
    <_>
      1.62844086e+00 1.33448625e+00 1.22252142e+00 7.26580501e-01
      1.22496605e+00 3.82564545e-01 -1.32377434e+00 -6.61319435e-01</_>
    <_>
      -5.83475769e-01 -6.29663944e-01 -5.66409349e-01 -3.96982878e-01
      -5.66448569e-01 3.14325333e-01 9.53115225e-02 4.48603630e-02</_>
    <_>
      1.03353739e+00 2.10618758e+00 9.45706844e-01 1.65436161e+00
      9.36773896e-01 2.15606689e-01 -1.68546271e+00 -1.33324265e+00</_>
    <_>
      -7.30828047e-02 6.05056882e-02 1.34582520e-02 -2.04724431e-01
      1.41389370e-02 3.14733505e-01 -1.46028519e-01 1.19146144e+00</_>
    <_>
      -3.91938329e-01 -1.52612686e-01 -5.13932586e-01 -2.87512034e-01
      -5.14957547e-01 -3.19212723e+00 -1.71517277e+00 -1.38527989e+00</_>
    <_>
      3.42299080e+00 3.50833893e+00 3.47298527e+00 4.04224300e+00
      3.46955419e+00 1.42997742e-01 -9.54912961e-01 -1.11558461e+00</_>
    <_>
      -2.50633299e-01 -2.93611825e-01 -6.78806305e-02 -3.30782622e-01
      -7.20297098e-02 -1.66102791e+00 8.04168105e-01 1.02838075e+00</_>
    <_>
      6.34781837e-01 1.06440616e+00 1.87156200e-01 4.66689616e-01
      1.85162663e-01 7.59920120e-01 -1.59035349e+00 -1.43361783e+00</_>
    <_>
      -5.25537014e-01 -5.68084121e-01 -5.55389225e-01 -3.88745487e-01
      -5.55940211e-01 -8.62663269e-01 -8.82788301e-01 -3.30283761e-01</_>
    <_>
      -3.11112463e-01 -3.55423748e-01 -2.27934599e-01 -3.46864015e-01
      -2.27290928e-01 1.07429504e-01 1.48128867e-01 2.99663901e-01</_>
    <_>
      -4.62703705e-01 -5.31243682e-01 -4.58569705e-01 -3.82982194e-01
      -4.58737791e-01 1.70532227e-01 -1.33099318e-01 3.35706353e-01</_>
    <_>
      -4.62035716e-01 -5.26544213e-01 -3.75656486e-01 -3.82202029e-01
      -3.74933541e-01 -9.53390121e-01 8.12409997e-01 1.22703636e+00</_>
    <_>
      -6.03109777e-01 -6.49869084e-01 -5.56176364e-01 -3.99305016e-01
      -5.56991041e-01 -2.20547104e+00 3.08678746e-01 6.01467013e-01</_>
    <_>
      -3.78705591e-01 -4.16320950e-01 -2.60732532e-01 -3.60986084e-01
      -2.60392249e-01 -1.26436234e-01 2.62426019e-01 4.43723083e-01</_>
    <_>
      -4.14551467e-01 -4.77379560e-01 -2.87233233e-01 -3.73430252e-01
      -2.86663175e-01 -7.99190521e-01 1.52624929e+00 1.47630131e+00</_>
    <_>
      2.80663204e+00 3.03509402e+00 3.22109699e+00 3.13503718e+00
      3.22549701e+00 6.22739792e-01 -6.95226312e-01 -1.79356098e-01</_>
    <_>
      1.51271009e+00 1.30589414e+00 2.31324959e+00 6.97476625e-01
      2.31415868e+00 -9.67998505e-02 8.22408557e-01 2.98811436e-01</_>
    <_>
      -3.28477621e-01 -3.85961354e-01 -2.84871817e-01 -3.54159266e-01
      -2.84298837e-01 2.80836105e-01 2.48755217e-02 4.56135631e-01</_>
    <_>
      -4.33152646e-01 -1.94945157e-01 -5.72444141e-01 -3.01465392e-01
      -5.75117946e-01 4.30400848e-01 -1.73598850e+00 -1.42060959e+00</_>
    <_>
      -3.94368052e-01 -3.81704628e-01 -3.79592240e-01 -3.53168130e-01
      -3.79399598e-01 -5.09460735e+00 -8.30455780e-01 -8.44712555e-01</_>
    <_>
      -3.98629904e-01 -4.76621956e-01 -2.73326933e-01 -3.73286366e-01
      -2.74315894e-01 -7.05364227e-01 9.54719901e-01 8.82704139e-01</_>
    <_>
      1.73848557e+00 2.69782448e+00 1.54787695e+00 2.55146408e+00
      1.54967475e+00 1.00311470e+00 -1.51583755e+00 -1.21257770e+00</_>
    <_>
      -4.20544207e-01 -4.91927028e-01 -3.12946856e-01 -3.76141787e-01
      -3.14773083e-01 -6.08775139e-01 6.23757482e-01 1.11331403e+00</_>
    <_>
      3.64560032e+00 3.32484770e+00 4.71983147e+00 3.67824459e+00
      4.71847439e+00 2.21763611e-01 -3.83548856e-01 4.53309655e-01</_>
    <_>
      2.28711200e+00 2.05345392e+00 1.35581243e+00 1.58222866e+00
      1.35868502e+00 7.96392441e-01 -1.38873363e+00 -4.43087816e-01</_>
    <_>
      -4.59871769e-01 -5.04175425e-01 -4.64079738e-01 -3.78349155e-01
      -4.63466555e-01 2.29713440e-01 -4.04977798e-03 7.99955487e-01</_>
    <_>
      1.70097995e+00 1.98853111e+00 9.81915832e-01 1.49518204e+00
      9.80646372e-01 -1.13037395e+00 -1.36712861e+00 -4.62249994e-01</_>
    <_>
      -5.71644545e-01 -6.19601250e-01 -5.68246007e-01 -3.95756245e-01
      -5.68550229e-01 3.94830704e-01 -1.75697207e-01 2.30111361e-01</_>
    <_>
      9.04156327e-01 1.90488291e+00 4.87060547e-01 1.38589191e+00
      4.75456357e-01 5.83820343e-01 -1.41985142e+00 -1.07883978e+00</_>
    <_>
      9.71127748e-02 7.96673894e-02 2.39370465e-01 -1.96255624e-01
      2.40068913e-01 -7.08164215e-01 7.58182168e-01 3.35507154e+00</_>
    <_>
      9.61833239e-01 8.79950941e-01 8.25272799e-01 3.08506340e-01
      8.23020816e-01 1.14627838e-01 -1.37387443e+00 -1.15063167e+00</_>
    <_>
      -5.30546010e-01 -5.89845061e-01 -5.21279335e-01 -3.91856015e-01
      -5.20737171e-01 6.38942719e-02 4.29438472e-01 6.05367064e-01</_>
    <_>
      4.78743315e+00 4.35014343e+00 3.73143291e+00 5.91098118e+00
      3.73489022e+00 1.01141548e+00 -1.57460022e+00 -1.09815967e+00</_>
    <_>
      -4.99037951e-01 -4.90685374e-01 -4.89268571e-01 -3.75914156e-01
      -4.88686621e-01 5.73459625e-01 -9.19332504e-02 -3.33185554e-01</_>
    <_>
      -4.44633871e-01 -4.87198055e-01 -3.65685940e-01 -3.75271022e-01
      -3.65476012e-01 -3.62110138e-01 -1.22540474e-01 1.87302470e-01</_>
    <_>
      -7.22284615e-01 -7.68727422e-01 -7.01799214e-01 -4.09157693e-01
      -7.01481164e-01 -9.33805466e-01 2.04788876e+00 3.06749153e+00</_>
    <_>
      -5.39822400e-01 -5.91848850e-01 -4.77198929e-01 -3.92131448e-01
      -4.77127433e-01 -5.69804192e-01 2.52142477e+00 2.29259109e+00</_>
    <_>
      -2.52522111e-01 -3.06219816e-01 -1.34263694e-01 -3.34205687e-01
      -1.34029090e-01 1.72782898e-01 3.85316730e-01 -2.18506575e-01</_>
    <_>
      -3.55109751e-01 -4.34802741e-01 -2.96416700e-01 -3.64934087e-01
      -2.96646178e-01 -2.28670120e-01 3.19069624e-02 9.49342847e-01</_>
    <_>
      -7.10345149e-01 -7.51709521e-01 -7.32760489e-01 -4.08146232e-01
      -7.32480824e-01 2.78209686e-01 -2.94574976e-01 4.64887738e-01</_>
    <_>
      3.81515026e-02 5.09928048e-01 -1.94874287e-01 3.84482443e-02
      -1.95765793e-01 -5.69892502e+00 -1.70078397e+00 -1.46482110e+00</_>
    <_>
      -5.99477530e-01 -6.54376030e-01 -5.81627607e-01 -3.99797350e-01
      -5.81685722e-01 1.62540436e-01 -2.04680800e-01 7.26682782e-01</_>
    <_>
      -4.59758669e-01 -4.69723016e-01 -4.15276408e-01 -3.71963978e-01
      -4.14865315e-01 -2.62386322e-01 4.93396878e-01 8.40145469e-01</_>
    <_>
      -6.37318492e-01 -6.86831236e-01 -6.65590286e-01 -4.03066278e-01
      -6.65489972e-01 -8.99938583e-01 -5.06029844e-01 -7.07105696e-01</_>
    <_>
      -6.75222039e-01 -7.12168455e-01 -6.94714844e-01 -4.05280977e-01
      -6.94650710e-01 3.44669342e-01 -5.85260987e-01 -5.02804518e-01</_>
    <_>
      -4.04861987e-01 -4.68351722e-01 -3.06124866e-01 -3.71698529e-01
      -3.05578291e-01 -2.96688080e-02 8.56452584e-01 7.72754073e-01</_>
    <_>
      -7.08143353e-01 -7.58389711e-01 -6.86843336e-01 -4.08559173e-01
      -6.87294841e-01 -2.54042721e+00 1.49985373e+00 3.91432571e+00</_>
    <_>
      -3.31133366e-01 -3.87021899e-01 -2.72802174e-01 -3.54404926e-01
      -2.71951497e-01 -3.00865173e-02 -1.48560166e-01 1.13234699e+00</_>
    <_>
      -6.72438383e-01 -7.25784421e-01 -6.87105775e-01 -4.06348944e-01
      -6.87032104e-01 3.92494202e-01 3.29138041e-02 2.30681539e-01</_>
    <_>
      -1.13930762e-01 -1.76985502e-01 -1.60764396e-01 -2.95646489e-01
      -1.60562754e-01 4.25386429e-01 -6.62916303e-01 -3.54079247e-01</_>
    <_>
      -5.23616433e-01 -5.18780947e-01 -5.22591233e-01 -3.80890995e-01
      -5.22313416e-01 4.94302750e-01 7.94318914e-02 -2.55712390e-01</_>
    <_>
      -5.29244900e-01 -5.04057884e-01 -5.27314186e-01 -3.78328294e-01
      -5.27304888e-01 4.01245117e-01 -9.54580307e-02 -4.35414433e-01</_>
    <_>
      -4.62557852e-01 -5.23472607e-01 -3.86938989e-01 -3.81686628e-01
      -3.87806296e-01 -1.11389160e-02 4.27908301e-01 2.82345653e-01</_>
    <_>
      -4.59009826e-01 -4.82056856e-01 -3.58601570e-01 -3.74312699e-01
      -3.57857406e-01 -8.98859024e-01 2.36828470e+00 -1.76946402e-01</_>
    <_>
      -4.34688330e-01 -4.64380205e-01 -3.98221493e-01 -3.70924801e-01
      -3.97526503e-01 1.98596954e-01 3.17790866e-01 3.65851641e-01</_>
    <_>
      -7.11851716e-01 -7.60670185e-01 -6.88680053e-01 -4.08695459e-01
      -6.88871086e-01 -1.44355774e+00 2.52419806e+00 2.54911900e+00</_>
    <_>
      -3.95208657e-01 -4.01068509e-01 -2.79886544e-01 -3.57609421e-01
      -2.79832780e-01 -3.70298386e-01 2.94305277e+00 -4.21141624e-01</_>
    <_>
      -4.43491876e-01 -4.50719327e-01 -4.33380872e-01 -3.68207991e-01
      -4.34305817e-01 1.52633667e-01 -1.66820168e-01 -6.43169522e-01</_>
    <_>
      -7.28596687e-01 -7.74904370e-01 -7.27250397e-01 -4.09491807e-01
      -7.26963937e-01 -2.78816700e+00 1.06360424e+00 2.62972355e+00</_>
    <_>
      9.39515829e-02 8.04751337e-01 -2.93792844e-01 2.48515517e-01
      -2.93230951e-01 -3.60610962e-01 -1.78444195e+00 -1.44579434e+00</_>
    <_>
      -3.51519942e-01 -3.86371434e-01 -2.78049827e-01 -3.54254305e-01
      -2.77993798e-01 2.56660461e-01 8.02282453e-01 -3.27941656e-01</_>
    <_>
      -7.18062997e-01 -7.64156342e-01 -7.00224936e-01 -4.08899128e-01
      -7.00167596e-01 -6.48470879e-01 1.09169638e+00 3.85522699e+00</_>
    <_>
      -3.23782325e-01 -3.82625878e-01 -2.34231770e-01 -3.53383362e-01
      -2.33858645e-01 1.52988434e-02 1.38957381e-01 -5.34819365e-02</_>
    <_>
      -4.50817496e-01 -4.92078185e-01 -3.62274945e-01 -3.76169443e-01
      -3.61798048e-01 -6.81819916e-02 1.76541150e+00 -1.30226254e-01</_>
    <_>
      -6.38330698e-01 -6.71726227e-01 -5.67458868e-01 -4.01605248e-01
      -5.66973984e-01 -7.54625320e-01 2.00934362e+00 2.50576591e+00</_>
    <_>
      -5.86645305e-01 -6.37567639e-01 -6.02355838e-01 -3.97913635e-01
      -6.03753328e-01 7.83824921e-02 -2.27331638e-01 6.83608890e-01</_>
    <_>
      -4.63386178e-01 -4.86664295e-01 -3.81166577e-01 -3.75172108e-01
      -3.80450428e-01 -1.29848480e-01 1.67685592e+00 -5.06899238e-01</_>
    <_>
      -6.60747170e-01 -7.10572302e-01 -5.77691793e-01 -4.05150175e-01
      -5.77482343e-01 -1.60792637e+00 2.53100681e+00 4.30494308e+00</_>
    <_>
      -5.03374517e-01 -5.25559783e-01 -4.81397063e-01 -3.82037342e-01
      -4.80805367e-01 3.26799393e-01 2.78373599e-01 -1.80590153e-02</_>
    <_>
      -5.62805057e-01 -6.01571321e-01 -4.96615291e-01 -3.93441707e-01
      -4.96567905e-01 -9.64097023e-01 2.80156326e+00 1.14154017e+00</_>
    <_>
      -4.98904526e-01 -5.20745456e-01 -4.13177341e-01 -3.81225377e-01
      -4.12763655e-01 -4.78002548e-01 1.89192808e+00 1.06433356e+00</_>
    <_>
      -7.19225109e-01 -7.66979992e-01 -7.30661392e-01 -4.09059972e-01
      -7.30641842e-01 -4.95040894e-01 1.23260021e-02 1.32525980e+00</_>
    <_>
      -6.15374327e-01 -6.57335758e-01 -5.59062600e-01 -4.00115579e-01
      -5.59618115e-01 -8.86470795e-01 2.71500683e+00 1.16466606e+00</_>
    <_>
      -6.65784478e-01 -7.11775959e-01 -6.86580956e-01 -4.05248910e-01
      -6.86506748e-01 2.56385803e-01 -4.88341212e-01 -5.47253966e-01</_>
    <_>
      -6.64574742e-01 -7.11839855e-01 -6.92878187e-01 -4.05254126e-01
      -6.92549050e-01 4.46514130e-01 -3.06884289e-01 -3.74499917e-01</_>
    <_>
      -4.68797088e-01 -4.72532660e-01 -4.44138587e-01 -3.72505188e-01
      -4.43500638e-01 -1.64094925e-01 6.28856421e-02 -1.92217588e-01</_>
    <_>
      -3.49063635e-01 -3.82552922e-01 -1.75195515e-01 -3.53366315e-01
      -1.74749076e-01 -2.92213440e-01 1.49002993e+00 1.72313058e+00</_>
    <_>
      -4.63029653e-01 -4.71532583e-01 -4.48861510e-01 -3.72312963e-01
      -4.48229402e-01 1.84373856e-01 4.49938416e-01 4.82597232e-01</_>
    <_>
      -3.57070893e-01 -3.98157060e-01 -2.92218566e-01 -3.56952697e-01
      -2.91654706e-01 1.31786346e-01 5.09430289e-01 3.73276472e-02</_>
    <_>
      -5.79418302e-01 -6.10009134e-01 -5.12095928e-01 -3.94543529e-01
      -5.12593150e-01 -8.45717430e-01 2.06167936e+00 1.39095509e+00</_>
    <_>
      -2.34756768e-01 -7.62926936e-02 -2.82772720e-01 -2.60269910e-01
      -2.87451327e-01 -1.97786331e-01 -7.86838412e-01 -1.04858983e+00</_>
    <_>
      -4.39425796e-01 -4.94526356e-01 -3.72245491e-01 -3.76616001e-01
      -3.71780992e-01 -1.75579071e-01 1.11788166e+00 5.42880416e-01</_>
    <_>
      -4.82504189e-01 -5.32523274e-01 -4.43351448e-01 -3.83192867e-01
      -4.44026053e-01 -8.86650085e-01 -1.08738303e-01 3.21757555e-01</_>
    <_>
      -3.90693814e-01 -4.22145396e-01 -2.84609437e-01 -3.62247258e-01
      -2.84298837e-01 1.16277695e-01 1.74592793e+00 -1.41586304e-01</_>
    <_>
      -4.98480320e-01 -5.20705223e-01 -4.81134683e-01 -3.81218553e-01
      -4.81330782e-01 2.67747879e-01 2.47524381e-01 6.25822425e-01</_>
    <_>
      -4.18838799e-01 -4.69096959e-01 -3.78805101e-01 -3.71842891e-01
      -3.79136860e-01 1.81457520e-01 1.14450014e+00 -3.87511253e-02</_>
    <_>
      -4.67632890e-01 -4.87831682e-01 -3.84052753e-01 -3.75388294e-01
      -3.84128332e-01 -1.40098667e+00 1.00566781e+00 5.39590955e-01</_>
    <_>
      -4.07100976e-01 -4.67601508e-01 -3.42333794e-01 -3.71552944e-01
      -3.41569424e-01 -3.90092850e-01 2.59272933e-01 1.61350071e+00</_>
    <_>
      -6.93166614e-01 -7.41323113e-01 -7.13081717e-01 -4.07463372e-01
      -7.13303089e-01 2.22984314e-01 -7.31971264e-02 1.59466386e-01</_>
    <_>
      -3.82737726e-01 -4.30831462e-01 -2.66504943e-01 -3.64099026e-01
      -2.66434610e-01 -9.08184052e-01 7.74276376e-01 1.83462620e-01</_>
    <_>
      -4.66813773e-01 -4.93393421e-01 -3.73557448e-01 -3.76409680e-01
      -3.73357236e-01 -4.43393707e-01 1.36119878e+00 6.79185271e-01</_>
    <_>
      -4.92648602e-01 -3.58128548e-01 -5.62998295e-01 -3.47527534e-01
      -5.63296080e-01 -1.61822224e+00 -1.40170765e+00 -9.72568333e-01</_>
    <_>
      -4.27837074e-01 -4.53240871e-01 -3.78542721e-01 -3.68715912e-01
      -3.78086030e-01 4.11003113e-01 5.54322839e-01 -5.69857240e-01</_>
    <_>
      -4.68903333e-01 -4.98021543e-01 -4.13177341e-01 -3.77248764e-01
      -4.13289070e-01 -9.63055611e-01 1.27817988e-01 4.75057721e-01</_>
    <_>
      -6.53066218e-01 -7.00526714e-01 -6.77397549e-01 -4.04300094e-01
      -6.77049160e-01 -3.27224731e-01 -7.60503531e-01 -6.70268357e-01</_>
    <_>
      -4.29937422e-01 -4.94527459e-01 -3.30264151e-01 -3.76616210e-01
      -3.30010235e-01 -1.29890442e-01 7.65219331e-01 2.42581964e-01</_>
    <_>
      -6.66989446e-01 -6.75282657e-01 -6.45649135e-01 -4.01958704e-01
      -6.45261407e-01 -3.29488373e+00 6.45490527e-01 -1.89367414e-01</_>
    <_>
      -3.81237656e-01 -4.31403607e-01 -2.41316140e-01 -3.64219785e-01
      -2.40426362e-01 -5.05502701e-01 2.12362194e+00 -1.37084961e-01</_>
    <_>
      -7.39586651e-01 -7.89668143e-01 -7.44567752e-01 -4.10219193e-01
      -7.44565487e-01 -1.17576027e+00 1.05895698e+00 4.13553143e+00</_>
    <_>
      -4.52407807e-01 -4.99542803e-01 -3.65423560e-01 -3.77522409e-01
      -3.65476012e-01 -2.68827438e-01 7.01829553e-01 5.12128234e-01</_>
    <_>
      -4.24573272e-01 -4.20738488e-01 -3.57289672e-01 -3.61944050e-01
      -3.56806576e-01 -7.99369812e-02 1.28046453e+00 1.17139459e-01</_>
    <_>
      -5.90217888e-01 -6.39331698e-01 -5.04486799e-01 -3.98117453e-01
      -5.03923774e-01 -6.73542023e-01 1.87383044e+00 1.91980994e+00</_>
    <_>
      -6.34231210e-01 -5.27482808e-01 -7.14655995e-01 -3.82358670e-01
      -7.18819976e-01 -9.00495911e+00 -1.70061588e+00 -1.35789561e+00</_>
    <_>
      -6.73074961e-01 -7.19562173e-01 -6.89204812e-01 -4.05871481e-01
      -6.88871086e-01 -1.89939213e+00 -3.26542020e-01 3.52733016e-01</_>
    <_>
      -3.15419912e-01 -3.54184926e-01 -1.41348004e-01 -3.46559018e-01
      -1.45851016e-01 -1.26903248e+00 8.07271123e-01 1.57497346e+00</_>
    <_>
      -3.63418400e-01 -4.25772190e-01 -3.04025829e-01 -3.63024682e-01
      -3.04527402e-01 2.02995300e-01 2.01692462e-01 6.18450046e-01</_>
    <_>
      -4.43493575e-01 -4.04892206e-01 -4.43613827e-01 -3.58465999e-01
      -4.42975223e-01 6.80271149e-01 -2.87721038e-01 -7.66464770e-01</_>
    <_>
      -3.99612814e-01 -4.59400117e-01 -3.22917402e-01 -3.69944334e-01
      -3.22917104e-01 -3.36458206e-01 4.07658696e-01 2.16584802e-01</_>
    <_>
      -3.94493610e-01 -4.67535198e-01 -3.49942923e-01 -3.71540040e-01
      -3.51289690e-01 -1.98520660e-01 5.42463064e-02 -4.60265875e-02</_>
    <_>
      -5.80353022e-01 -6.18778467e-01 -5.26002288e-01 -3.95653874e-01
      -5.25465965e-01 -9.16344643e-01 1.77690232e+00 1.06952178e+00</_>
    <_>
      -6.68109775e-01 -7.08130360e-01 -6.84744298e-01 -4.04947817e-01
      -6.84930444e-01 -2.90465355e+00 -3.73195767e-01 -4.82640505e-01</_>
    <_>
      -3.57611269e-01 -4.14344847e-01 -3.71983111e-01 -3.60554665e-01
      -3.71518314e-01 6.44784927e-01 -7.01464057e-01 -5.94889760e-01</_>
    <_>
      -3.56855452e-01 -4.07464802e-01 -2.29246497e-01 -3.59038532e-01
      -2.29655266e-01 -3.40858459e-01 1.51157916e+00 -5.11045814e-01</_>
    <_>
      -5.74610710e-01 -6.14671350e-01 -5.27314186e-01 -3.95138264e-01
      -5.26779473e-01 -4.90119934e-01 1.18719041e+00 1.50441134e+00</_>
    <_>
      -6.39013350e-01 -6.81034327e-01 -5.87662399e-01 -4.02518004e-01
      -5.87465286e-01 -4.24386978e-01 1.57771170e+00 2.68876171e+00</_>
    <_>
      -4.24986720e-01 -4.77612257e-01 -3.63324463e-01 -3.73474389e-01
      -3.63374293e-01 -1.71685314e+00 9.76752400e-01 -4.83784437e-01</_>
    <_>
      -2.91601777e-01 -1.97527230e-01 -4.43876207e-01 -3.02289784e-01
      -4.46390450e-01 4.65078354e-01 -1.42603755e+00 -1.14735866e+00</_>
    <_>
      -2.97747374e-01 -3.28891575e-01 -2.46039033e-01 -3.40176851e-01
      -2.45680571e-01 6.03958130e-01 -4.10626411e-01 -2.88350344e-01</_>
    <_>
      -6.77767217e-01 -7.25526094e-01 -6.86580956e-01 -4.06329483e-01
      -6.86244011e-01 2.42305756e-01 -1.32023811e-01 4.75786090e-01</_>
    <_>
      -4.44075406e-01 -4.89076704e-01 -3.97171974e-01 -3.75618160e-01
      -3.96475673e-01 -6.95788383e-01 1.06417620e+00 2.32918453e+00</_>
    <_>
      -4.55129862e-01 -4.88292247e-01 -4.17637855e-01 -3.75473410e-01
      -4.17755127e-01 7.47489929e-03 3.30479980e-01 3.71296525e-01</_>
    <_>
      -4.77416873e-01 -4.70759839e-01 -4.70376939e-01 -3.72164130e-01
      -4.70034271e-01 3.66909027e-01 -7.82840252e-02 -5.87699115e-01</_>
    <_>
      -4.51431066e-01 -4.76988822e-01 -4.24197465e-01 -3.73356074e-01
      -4.23534721e-01 9.00192261e-02 3.98558021e-01 5.49283147e-01</_>
    <_>
      -5.35031199e-01 -5.65118432e-01 -4.67228353e-01 -3.88304681e-01
      -4.67932612e-01 -1.10557556e-01 1.61952376e-01 4.94692683e-01</_>
    <_>
      -5.12583017e-01 -5.49033940e-01 -4.61193532e-01 -3.85843366e-01
      -4.61102158e-01 -2.22890854e-01 8.53762507e-01 1.34684241e+00</_>
    <_>
      -4.21174526e-01 -4.28857148e-01 -4.43613827e-01 -3.63681197e-01
      -4.43237931e-01 6.83788300e-01 -3.88946176e-01 -8.16945195e-01</_>
    <_>
      -4.95671242e-01 -5.52626252e-01 -4.77198929e-01 -3.86403412e-01
      -4.76864725e-01 2.23281860e-01 -1.95478797e-01 5.12699246e-01</_>
    <_>
      -3.30428720e-01 -3.88975501e-01 -2.96941459e-01 -3.54856044e-01
      -2.97171593e-01 4.65255737e-01 -4.32419300e-01 -4.85913754e-02</_>
    <_>
      -3.71456712e-01 -4.23410803e-01 -2.61782050e-01 -3.62519205e-01
      -2.61705816e-01 -7.38105774e-02 1.28942645e+00 -8.31750631e-02</_>
    <_>
      -5.28391600e-01 -5.55956125e-01 -5.43844342e-01 -3.86917233e-01
      -5.43330193e-01 5.93954086e-01 -6.20161295e-02 -4.70152259e-01</_>
    <_>
      -6.86195850e-01 -7.22560167e-01 -7.17804611e-01 -4.06103760e-01
      -7.17506409e-01 5.00455856e-01 -5.98855972e-01 -2.73982286e-01</_>
    <_>
      3.13445234e+00 2.67128992e+00 2.41164351e+00 2.50777555e+00
      2.41451359e+00 9.96105194e-01 -1.35653162e+00 -8.59136403e-01</_>
    <_>
      -5.47024190e-01 -5.10832906e-01 -6.05504453e-01 -3.79519969e-01
      -6.06380403e-01 -1.28425407e+00 -1.05188680e+00 -1.13611805e+00</_>
    <_>
      -3.52791429e-01 -4.22651142e-01 -2.14815378e-01 -3.62356037e-01
      -2.14155436e-01 -4.12246704e-01 8.20878625e-01 9.78079438e-01</_>
    <_>
      -5.11449218e-01 -5.31192243e-01 -4.96090531e-01 -3.82973701e-01
      -4.96042490e-01 -5.50539017e-01 -3.10028076e-01 -4.10514593e-01</_>
    <_>
      -7.53059387e-01 -7.96777725e-01 -7.61885047e-01 -4.10533637e-01
      -7.61904299e-01 -1.71451759e+00 2.28237820e+00 2.05961466e+00</_>
    <_>
      -3.89907092e-01 -1.67566478e-01 -4.19999331e-01 -2.92535335e-01
      -4.25110996e-01 -2.66831589e+00 -1.20471966e+00 -1.35540867e+00</_>
    <_>
      -4.57091510e-01 -4.69310850e-01 -4.48861510e-01 -3.71884286e-01
      -4.49805647e-01 7.51972198e-02 -4.13847327e-01 -6.96468174e-01</_>
    <_>
      -2.09271729e-01 -2.57385373e-01 -2.08518207e-01 -3.20539564e-01
      -2.07850397e-01 6.44739151e-01 -7.38148332e-01 -3.75928521e-01</_>
    <_>
      -3.46346974e-01 -2.52019227e-01 -3.86676610e-01 -3.18970859e-01
      -3.86229992e-01 -5.01684189e-01 -8.98358107e-01 -5.38439751e-01</_>
    <_>
      -3.60561252e-01 -4.08033282e-01 -2.72015035e-01 -3.59164625e-01
      -2.71688759e-01 1.19039536e-01 1.08566678e+00 -8.96048546e-03</_>
    <_>
      -4.42352921e-01 -5.15172362e-01 -3.38135660e-01 -3.80272120e-01
      -3.37628782e-01 -2.82199860e-01 9.32223916e-01 9.23934102e-01</_>
    <_>
      -7.44806468e-01 -7.92180717e-01 -7.55325437e-01 -4.10332978e-01
      -7.55599260e-01 -4.89870071e-01 8.17821622e-01 2.91902876e+00</_>
    <_>
      -4.50670958e-01 -4.94236112e-01 -3.41021895e-01 -3.76563191e-01
      -3.40518594e-01 -6.46368027e-01 7.36186147e-01 1.04084051e+00</_>
    <_>
      -5.69657981e-01 -5.63220501e-01 -5.37284732e-01 -3.88020456e-01
      -5.36762476e-01 3.84531021e-01 -9.51700211e-02 -3.13799858e-01</_>
    <_>
      -4.15863574e-01 -4.61370289e-01 -3.48631024e-01 -3.70333582e-01
      -3.48137200e-01 -4.54446793e-01 8.61103415e-01 -3.45454693e-01</_>
    <_>
      -6.33362770e-01 -6.65776789e-01 -5.90286255e-01 -4.01000947e-01
      -5.90880513e-01 -1.76480007e+00 6.96031690e-01 2.07371902e+00</_>
    <_>
      -5.59954286e-01 -5.75607300e-01 -4.85332817e-01 -3.89845520e-01
      -4.86059546e-01 -3.19689178e+00 9.95735288e-01 7.69167542e-01</_>
    <_>
      -4.63665575e-01 -5.07621050e-01 -4.24984604e-01 -3.78957659e-01
      -4.24585581e-01 -1.14086151e-01 8.37079644e-01 8.81530404e-01</_>
    <_>
      -5.17727494e-01 -5.74130774e-01 -4.76936549e-01 -3.89631689e-01
      -4.76864725e-01 -8.91686440e-01 7.01388001e-01 8.50514054e-01</_>
    <_>
      -4.19928759e-01 -4.54636753e-01 -3.16095471e-01 -3.68995845e-01
      -3.15561235e-01 -6.80795670e-01 2.06352901e+00 -5.67367077e-02</_>
    <_>
      -4.57032353e-01 -4.84498382e-01 -4.16588336e-01 -3.74769330e-01
      -4.16441590e-01 2.98377991e-01 2.35226035e-01 -4.63638783e-01</_>
    <_>
      -3.99164706e-01 -4.23480392e-01 -3.30526531e-01 -3.62534136e-01
      -3.31586480e-01 -2.14410782e-01 3.52011323e-01 -5.31223536e-01</_>
    <_>
      -7.30902195e-01 -7.78601706e-01 -7.33022869e-01 -4.09683406e-01
      -7.33006239e-01 -1.32061958e+00 9.42642331e-01 1.67473543e+00</_>
    <_>
      -3.96796733e-01 -4.57271993e-01 -3.60175848e-01 -3.69521886e-01
      -3.59959066e-01 1.84778214e-01 6.60482645e-02 9.80700850e-01</_>
    <_>
      -4.48716670e-01 -4.92460608e-01 -3.89825225e-01 -3.76239359e-01
      -3.89382541e-01 -1.06199265e-01 2.31423259e-01 6.95793509e-01</_>
    <_>
      -4.53034490e-01 -4.78544056e-01 -4.41252381e-01 -3.73650908e-01
      -4.40873533e-01 3.78988266e-01 -2.56875277e-01 2.55159140e-02</_>
    <_>
      -2.38045692e-01 -9.48042870e-02 -3.26853156e-01 -2.67124057e-01
      -3.26332331e-01 1.07118988e+00 -1.18889213e+00 -1.21986485e+00</_>
    <_>
      -4.82505560e-01 -4.91264343e-01 -4.86382335e-01 -3.76020372e-01
      -4.86847669e-01 -1.69532871e+00 -3.37823272e-01 -1.79994941e-01</_>
    <_>
      -3.24397743e-01 -3.67823899e-01 -2.75688410e-01 -3.49878162e-01
      -2.74841309e-01 4.79368210e-01 1.00340486e-01 1.49800777e-01</_>
    <_>
      -2.09093034e-01 -2.43896067e-01 -1.62601113e-01 -3.16570997e-01
      -1.62401736e-01 8.47835541e-02 -2.13976264e-01 1.96271300e-01</_>
    <_>
      -6.55533314e-01 -7.04890370e-01 -5.95533848e-01 -4.04675066e-01
      -5.95083892e-01 -1.18544483e+00 1.46476257e+00 3.32742262e+00</_>
    <_>
      -3.60658467e-01 -4.22851861e-01 -2.71490276e-01 -3.62399161e-01
      -2.71426082e-01 2.41334915e-01 2.37205625e-01 1.87450767e-01</_>
    <_>
      -2.66044140e-01 -3.26040030e-01 -1.90413713e-01 -3.39438856e-01
      -1.92613304e-01 -1.57966614e-01 2.20952868e-01 1.74242175e+00</_>
    <_>
      -4.45720464e-01 -4.84317839e-01 -3.64111602e-01 -3.74735653e-01
      -3.63899708e-01 -1.78522110e-01 8.66506457e-01 1.28810370e+00</_>
    <_>
      -4.18051720e-01 -4.89829272e-01 -3.32100868e-01 -3.75756800e-01
      -3.31586480e-01 -4.42914963e-01 5.59076190e-01 1.10646975e+00</_>
    <_>
      -6.65800214e-01 -7.15519547e-01 -6.87630534e-01 -4.05551732e-01
      -6.87557578e-01 -2.24855423e-01 -3.69857192e-01 1.18926406e-01</_>
    <_>
      -4.75296944e-01 -5.28429925e-01 -4.04781103e-01 -3.82516295e-01
      -4.04094219e-01 1.33895874e-02 4.55447316e-01 8.56165290e-01</_>
    <_>
      -3.96049947e-01 -4.39817905e-01 -3.15045893e-01 -3.65978241e-01
      -3.15035820e-01 -1.97162628e-01 7.35513568e-01 1.38346088e+00</_>
    <_>
      -4.35483396e-01 -4.63418961e-01 -4.15276408e-01 -3.70736450e-01
      -4.15128022e-01 2.57915497e-01 5.23371816e-01 -2.95788527e-01</_>
    <_>
      -4.75022316e-01 -4.96453732e-01 -3.95072877e-01 -3.76965612e-01
      -3.94374013e-01 -4.29313660e-01 1.27300298e+00 1.05295455e+00</_>
    <_>
      -4.15230036e-01 -4.61315870e-01 -3.05337727e-01 -3.70322853e-01
      -3.05315554e-01 -6.56552315e-01 7.65670657e-01 3.36951017e-02</_>
    <_>
      -1.98020458e-01 -2.24972069e-01 -1.36625111e-01 -3.10862184e-01
      -1.39808714e-01 1.38149261e-01 3.33499908e-02 -7.48520732e-01</_>
    <_>
      -5.42133570e-01 -5.61646044e-01 -5.77429414e-01 -3.87783408e-01
      -5.77745080e-01 2.34401703e-01 -5.36244035e-01 -7.82530665e-01</_>
    <_>
      -4.64307636e-01 -4.55287755e-01 -4.16325957e-01 -3.69126081e-01
      -4.15653467e-01 3.70738983e-01 4.97659087e-01 -1.17230058e-01</_>
    <_>
      -5.84157228e-01 -6.34578347e-01 -5.38334250e-01 -3.97565007e-01
      -5.38864136e-01 -1.87559509e+00 1.92020071e+00 1.21611595e-01</_>
    <_>
      -4.94836956e-01 -5.43439746e-01 -3.93760979e-01 -3.84959370e-01
      -3.93060446e-01 -3.32725525e-01 2.22525597e+00 1.58059955e-01</_>
    <_>
      -4.15305406e-01 -4.21285987e-01 -3.21605504e-01 -3.62062156e-01
      -3.21340799e-01 2.03023911e-01 1.42036784e+00 -3.91541719e-02</_>
    <_>
      -7.22508430e-01 -7.69287169e-01 -7.29611874e-01 -4.09188688e-01
      -7.29591012e-01 -3.25551987e-01 8.25442910e-01 2.13172722e+00</_>
    <_>
      -3.42304647e-01 -3.93430948e-01 -2.63881147e-01 -3.55878294e-01
      -2.63807476e-01 3.89385223e-02 2.65109420e-01 2.65500069e-01</_>
    <_>
      -5.17436743e-01 -5.55350423e-01 -4.52797264e-01 -3.86824131e-01
      -4.52170044e-01 -2.80599594e-01 1.68057740e+00 1.41617548e+00</_>
    <_>
      -4.87815619e-01 -4.82251436e-01 -4.70639348e-01 -3.74349177e-01
      -4.70296979e-01 4.71530914e-01 1.52808428e-02 -1.34495974e-01</_>
    <_>
      -4.27572697e-01 -4.35137779e-01 -3.43383312e-01 -3.65004182e-01
      -3.42620254e-01 7.50198364e-02 9.85251784e-01 -2.47813344e-01</_>
    <_>
      1.51209831e-01 1.34157717e-01 3.10214043e-01 -1.71248272e-01
      3.11263084e-01 2.60448456e-02 9.82948542e-02 -4.00240421e-01</_>
    <_>
      -3.35266948e-01 -3.83123994e-01 -3.19768786e-01 -3.53499562e-01
      -3.20552707e-01 -4.02715683e-01 -1.04600668e-01 -4.11420226e-01</_>
    <_>
      -7.30778337e-01 -7.80939460e-01 -7.45092511e-01 -4.09801304e-01
      -7.45090902e-01 -4.47177887e-01 2.54982829e-01 2.25211287e+00</_>
    <_>
      -3.73758852e-01 -4.21988070e-01 -2.25048363e-01 -3.62213403e-01
      -2.24401116e-01 -7.25414276e-01 1.50832188e+00 2.07653475e+00</_>
    <_>
      -6.66127324e-01 -7.17323303e-01 -6.89467192e-01 -4.05695319e-01
      -6.89396501e-01 4.94102478e-01 -3.87121081e-01 -1.23287201e-01</_>
    <_>
      -3.53869647e-01 -4.19101864e-01 -2.26885021e-01 -3.61590207e-01
      -2.27290928e-01 -2.67507553e-01 7.55236983e-01 9.24050689e-01</_>
    <_>
      -6.32826805e-01 -6.86040163e-01 -5.95009089e-01 -4.02992368e-01
      -5.95346570e-01 -7.83548355e-01 1.58766901e+00 1.69228423e+00</_>
    <_>
      -4.10231084e-01 -4.15718585e-01 -3.01926732e-01 -3.60854775e-01
      -3.02951157e-01 -6.10145569e-01 1.09041631e+00 -1.93360448e-01</_>
    <_>
      -4.34119821e-01 -4.44221079e-01 -3.17932129e-01 -3.66885424e-01
      -3.17662895e-01 -9.53506470e-01 1.94312251e+00 -8.13205242e-02</_>
    <_>
      -4.15611446e-01 -4.57596362e-01 -3.26590776e-01 -3.69586408e-01
      -3.26332331e-01 1.55313492e-01 1.22968304e+00 -3.63502383e-01</_>
    <_>
      -6.92841530e-01 -7.40817547e-01 -7.14131236e-01 -4.07428861e-01
      -7.14091182e-01 2.86247253e-01 -2.83385515e-02 2.06140041e-01</_>
    <_>
      -4.25155759e-01 -4.74021614e-01 -4.15014029e-01 -3.72790515e-01
      -4.14865315e-01 3.36160660e-01 -4.40604091e-01 2.07149148e-01</_>
    <_>
      -3.38981450e-01 -4.00034815e-01 -2.90119469e-01 -3.57376695e-01
      -2.90341139e-01 -1.82123470e+00 -1.85527682e-01 1.12518311e-01</_>
    <_>
      -5.25787950e-01 -5.78836560e-01 -4.65916425e-01 -3.90309721e-01
      -4.66881752e-01 -2.56050110e-01 1.11306632e+00 1.52592218e+00</_>
    <_>
      -7.12198675e-01 -7.61351228e-01 -6.95502043e-01 -4.08735663e-01
      -6.95438862e-01 -1.15539169e+00 3.09693289e+00 3.54966402e+00</_>
    <_>
      -3.75299335e-01 -4.25142139e-01 -2.80673683e-01 -3.62890065e-01
      -2.81146288e-01 1.19747162e-01 1.47795320e-01 4.87877011e-01</_>
    <_>
      -4.88666117e-01 -5.14391899e-01 -4.01370108e-01 -3.80137473e-01
      -4.01204467e-01 -7.59124756e-02 1.72120726e+00 -6.32104695e-01</_>
    <_>
      -6.24042749e-01 -6.22825623e-01 -6.23346567e-01 -3.96154374e-01
      -6.22931063e-01 4.79343414e-01 -2.48150468e-01 -6.39525235e-01</_>
    <_>
      -3.67151022e-01 -4.33136672e-01 -3.09798241e-01 -3.64584625e-01
      -3.10044348e-01 -1.16470337e-01 2.80397296e-01 4.48615909e-01</_>
    <_>
      -3.72517735e-01 -3.76838565e-01 -3.40759516e-01 -3.52024883e-01
      -3.41306746e-01 2.52273560e-01 -2.60101199e-01 -1.43227458e-01</_>
    <_>
      -3.92630726e-01 -4.07791018e-01 -3.56764913e-01 -3.59110892e-01
      -3.57857406e-01 1.11743927e-01 7.67724633e-01 -9.29727376e-01</_>
    <_>
      -4.23972994e-01 -4.54755872e-01 -3.66210699e-01 -3.69019687e-01
      -3.66264105e-01 -5.18569946e-02 3.02502990e-01 -8.16595554e-03</_>
    <_>
      -4.59675103e-01 -5.03148019e-01 -4.07404900e-01 -3.78166646e-01
      -4.06984031e-01 -5.97583771e-01 9.58463311e-01 8.49879384e-01</_>
    <_>
      -5.57054877e-01 -5.92191994e-01 -4.82184201e-01 -3.92178446e-01
      -4.82381612e-01 -1.78907967e+00 2.72588921e+00 1.62310183e+00</_>
    <_>
      -4.91775453e-01 -5.18823326e-01 -4.53322023e-01 -3.80898207e-01
      -4.52695459e-01 6.60762787e-02 6.86092734e-01 7.21415401e-01</_>
    <_>
      -3.02946925e-01 -3.57561111e-01 -2.47875750e-01 -3.47388595e-01
      -2.47519493e-01 2.53187180e-01 -1.79293156e-02 -3.33961606e-01</_>
    <_>
      -4.88302797e-01 -5.45899689e-01 -4.45188135e-01 -3.85349870e-01
      -4.44814175e-01 -1.83771133e-01 1.85996413e-01 1.02260149e+00</_>
    <_>
      -4.95915681e-01 -5.17610669e-01 -4.65129286e-01 -3.80690932e-01
      -4.65305507e-01 -2.18435287e-01 -8.43383074e-02 1.41729474e-01</_>
    <_>
      -3.81058723e-01 -4.45336491e-01 -2.79361725e-01 -3.67113829e-01
      -2.80095458e-01 -1.08909225e+00 9.77513194e-01 1.69070125e-01</_>
    <_>
      -4.61762279e-01 -4.94329333e-01 -4.13439721e-01 -3.76580149e-01
      -4.13289070e-01 -3.43837738e-01 7.38092780e-01 1.59279859e+00</_>
    <_>
      -4.04078692e-01 -3.72201800e-01 -4.39678073e-01 -3.50925386e-01
      -4.40085411e-01 5.80097198e-01 -1.15189648e+00 -1.11776543e+00</_>
    <_>
      -5.52522421e-01 -5.59701562e-01 -4.98451978e-01 -3.87489080e-01
      -4.98406887e-01 -5.90801239e-02 2.22689915e+00 2.45766282e-01</_>
    <_>
      -3.00008893e-01 -3.27967882e-01 -2.49187648e-01 -3.39938223e-01
      -2.48307645e-01 6.00849152e-01 -8.31262827e-01 -4.54652071e-01</_>
    <_>
      -5.90240717e-01 -5.68428457e-01 -6.38040006e-01 -3.88796419e-01
      -6.40795290e-01 -4.07704067e+00 -1.04276681e+00 -7.81563342e-01</_>
    <_>
      -3.79408389e-01 -4.41389114e-01 -3.27377915e-01 -3.66302997e-01
      -3.27120423e-01 -2.96516418e-02 5.27249932e-01 6.52327180e-01</_>
    <_>
      -6.61782742e-01 -7.13596463e-01 -6.84481919e-01 -4.05396968e-01
      -6.84405029e-01 1.66666031e-01 -2.67008662e-01 3.80836606e-01</_>
    <_>
      -5.16806841e-01 -5.11121273e-01 -5.53027749e-01 -3.79570216e-01
      -5.55152059e-01 -9.26014900e-01 -2.95746207e-01 -7.69653916e-01</_>
    <_>
      -3.39564323e-01 -3.97255212e-01 -3.16620231e-01 -3.56748462e-01
      -3.17400157e-01 4.50145721e-01 -3.31212282e-02 -3.86386275e-01</_>
    <_>
      -3.28723609e-01 -3.90867770e-01 -2.48925269e-01 -3.55291307e-01
      -2.48833060e-01 1.94778442e-01 -1.66090012e-01 5.53513765e-02</_>
    <_>
      -4.17299658e-01 -1.10437930e-01 -4.11603034e-01 -2.72789657e-01
      -4.19331372e-01 -7.30960274e+00 -1.57022619e+00 -1.40894139e+00</_>
    <_>
      -4.44255888e-01 -4.89863753e-01 -4.55945849e-01 -3.75763118e-01
      -4.55585271e-01 1.84118271e-01 1.85177684e-01 -1.75691605e-01</_>
    <_>
      -3.44757199e-01 -3.98942351e-01 -3.01139593e-01 -3.57130229e-01
      -3.00586820e-01 3.99127960e-01 -4.83468771e-02 -1.07584953e-01</_>
    <_>
      -6.44048095e-01 -6.94243252e-01 -6.65590286e-01 -4.03744757e-01
      -6.66278124e-01 -1.21322250e+00 -3.52136850e-01 -5.04208326e-01</_>
    <_>
      -4.42373395e-01 -4.95809853e-01 -4.28920358e-01 -3.76848996e-01
      -4.32466835e-01 -1.64933395e+00 -5.69493651e-01 2.61087418e-02</_>
    <_>
      -4.49629784e-01 -4.96948659e-01 -3.90612364e-01 -3.77055109e-01
      -3.90958786e-01 -7.64459610e-01 7.05761075e-01 5.23674846e-01</_>
    <_>
      -6.36081636e-01 -6.41728878e-01 -6.15999818e-01 -3.98392111e-01
      -6.15837932e-01 -1.97792339e+00 8.29868674e-01 1.24928057e+00</_>
    <_>
      -5.03771126e-01 -5.07802486e-01 -4.85070437e-01 -3.78989547e-01
      -4.84483272e-01 6.21028900e-01 3.36087346e-01 -7.57567883e-02</_>
    <_>
      -5.01049221e-01 -4.62441146e-01 -5.00551045e-01 -3.70544404e-01
      -5.00508547e-01 5.72298050e-01 -3.44924212e-01 -5.86887062e-01</_>
    <_>
      -4.83345449e-01 -5.32103717e-01 -4.23410296e-01 -3.83123875e-01
      -4.22746599e-01 -1.16348267e-03 2.14670062e-01 1.84769988e-01</_>
    <_>
      -3.04386616e-01 -3.40632439e-01 -2.48925269e-01 -3.43176037e-01
      -2.48307645e-01 3.77382278e-01 4.19589639e-01 -9.05563831e-02</_>
    <_>
      -7.35806286e-01 -7.80660450e-01 -7.42993414e-01 -4.09787357e-01
      -7.42726505e-01 -4.46826935e-01 1.01804888e+00 2.21391582e+00</_>
    <_>
      -5.46694636e-01 -5.94970942e-01 -5.14194965e-01 -3.92556965e-01
      -5.13906717e-01 -1.96289349e+00 1.58153379e+00 3.95782351e-01</_>
    <_>
      -6.24415278e-01 -6.65713966e-01 -5.47780097e-01 -4.00994480e-01
      -5.47270775e-01 -6.45240784e-01 2.29025698e+00 1.84853399e+00</_>
    <_>
      -3.53578836e-01 -3.81329894e-01 -3.26853156e-01 -3.53080481e-01
      -3.26332331e-01 2.72327423e-01 5.80201507e-01 -8.49858522e-02</_>
    <_>
      -5.92560589e-01 -6.04695380e-01 -6.06029272e-01 -3.93853486e-01
      -6.05592251e-01 5.14022827e-01 -1.92195296e-01 -7.52059400e-01</_>
    <_>
      -2.69318223e-01 1.93695128e-01 -3.78017962e-01 -1.42360806e-01
      -3.77823293e-01 9.12651062e-01 -1.49610102e+00 -1.35994673e+00</_>
    <_>
      -7.36615837e-01 -7.83945739e-01 -7.43518174e-01 -4.09949183e-01
      -7.43251920e-01 -1.48596287e+00 4.98929858e-01 2.10732079e+00</_>
    <_>
      -5.13168573e-01 -5.63073039e-01 -4.15014029e-01 -3.87998313e-01
      -4.15128022e-01 -2.95742035e-01 1.49587142e+00 1.25031698e+00</_>
    <_>
      -7.26168990e-01 -7.75268853e-01 -7.10982621e-01 -4.09510970e-01
      -7.10675955e-01 -1.92100334e+00 2.24982071e+00 2.87184572e+00</_>
    <_>
      -5.40563345e-01 -3.21841121e-01 -6.40401483e-01 -3.38345349e-01
      -6.40269876e-01 1.25547409e+00 -1.44004726e+00 -1.19741750e+00</_>
    <_>
      -3.20076346e-01 -3.66452754e-01 -2.56534398e-01 -3.49548340e-01
      -2.55663514e-01 2.37768173e-01 -2.49983907e-01 1.67835712e-01</_>
    <_>
      -4.93275136e-01 -5.38892508e-01 -4.43876207e-01 -3.84230196e-01
      -4.43500638e-01 -4.30381775e-01 2.21500206e+00 9.42868352e-01</_>
    <_>
      -7.11421549e-01 -7.60400891e-01 -6.82382822e-01 -4.08679485e-01
      -6.82303369e-01 -1.62374401e+00 2.70725679e+00 3.66871548e+00</_>
    <_>
      -6.85712576e-01 -7.04459369e-01 -6.81070924e-01 -4.04638439e-01
      -6.80989802e-01 -3.53331280e+00 8.78984809e-01 1.17461193e+00</_>
    <_>
      -4.34743434e-01 -4.51015890e-01 -3.72245491e-01 -3.68267864e-01
      -3.71780992e-01 1.15987778e-01 9.47569013e-01 -5.00651360e-01</_>
    <_>
      -2.82510340e-01 -3.58731627e-01 -1.99334800e-01 -3.47674996e-01
      -1.99181020e-01 -5.82238197e-01 8.93726945e-01 5.22579312e-01</_>
    <_>
      -3.75455409e-01 -3.82688463e-01 -2.65980184e-01 -3.53397965e-01
      -2.65383720e-01 6.06689453e-02 1.50629032e+00 -5.65589428e-01</_>
    <_>
      -4.61302072e-01 -4.85159814e-01 -4.02419627e-01 -3.74892563e-01
      -4.01992559e-01 1.84490204e-01 2.43540883e-01 3.84025812e-01</_>
    <_>
      -2.20550060e-01 -2.86382675e-01 -1.41872764e-01 -3.28786850e-01
      -1.41384959e-01 -3.24832916e-01 -7.72356987e-02 -3.06546926e-01</_>
    <_>
      -4.68266428e-01 -4.99653965e-01 -3.83265615e-01 -3.77542347e-01
      -3.82552087e-01 -2.10538864e-01 2.31587458e+00 -2.85874605e-02</_>
    <_>
      -2.19581306e-01 -2.11216807e-01 -1.54467225e-01 -3.06609094e-01
      -1.58198357e-01 -1.58682632e+00 -4.61607218e-01 -7.62965143e-01</_>
    <_>
      -3.21955085e-01 -2.97576666e-01 -2.56796777e-01 -3.31866980e-01
      -2.56451607e-01 2.20941544e-01 1.68793201e-02 -9.05481040e-01</_>
    <_>
      -5.22347033e-01 -5.60195565e-01 -5.16556442e-01 -3.87564003e-01
      -5.16533852e-01 2.85282135e-01 3.19152474e-01 -5.60047150e-01</_>
    <_>
      -3.71718735e-01 -3.63973677e-01 -4.23147917e-01 -3.48949850e-01
      -4.24060166e-01 6.93386078e-01 -4.89367366e-01 -7.52176285e-01</_>
    <_>
      -4.92044270e-01 -5.45520306e-01 -4.28395599e-01 -3.85289818e-01
      -4.28000778e-01 -2.29232788e-01 9.61551070e-01 9.88896966e-01</_>
    <_>
      -2.07529187e-01 2.40813911e-01 -3.04288208e-01 -1.18341208e-01
      -3.03739309e-01 1.13123703e+00 -1.55697823e+00 -1.32806003e+00</_>
    <_>
      -4.03575838e-01 -4.32510227e-01 -3.70146453e-01 -3.64452899e-01
      -3.70204747e-01 1.58882141e-03 -1.36331439e-01 -4.79774356e-01</_>
    <_>
      -5.01971900e-01 -4.94399160e-01 -4.56208229e-01 -3.76592845e-01
      -4.55847979e-01 1.25812531e-01 5.66722035e-01 -2.15463400e-01</_>
    <_>
      -2.82102287e-01 -3.26587856e-01 -1.81755066e-01 -3.39580923e-01
      -1.81579471e-01 2.04086304e-04 8.78960252e-01 -4.30739522e-01</_>
    <_>
      -3.61163557e-01 -4.09719646e-01 -2.65455425e-01 -3.59537810e-01
      -2.64858305e-01 1.53141022e-02 1.39398921e+00 -5.79294682e-01</_>
    <_>
      -3.43725920e-01 -2.62706995e-01 -3.23179781e-01 -3.22082162e-01
      -3.22917104e-01 5.39752960e-01 -3.86394382e-01 -5.27676225e-01</_>
    <_>
      -2.70527780e-01 -2.30368495e-01 -2.31870353e-01 -3.12506944e-01
      -2.31231570e-01 2.59767532e-01 -1.53877378e-01 -5.02112389e-01</_>
    <_>
      -5.13768673e-01 -5.53564787e-01 -6.20197952e-01 -3.86548758e-01
      -6.20303988e-01 9.46302414e-01 -1.34668088e+00 -9.39089537e-01</_>
    <_>
      -4.17562336e-01 -4.87470180e-01 -3.22917402e-01 -3.75321418e-01
      -3.22654366e-01 -1.82176590e-01 5.85912824e-01 1.27619636e+00</_>
    <_>
      -3.66978884e-01 -3.98395389e-01 -2.84347057e-01 -3.57006580e-01
      -2.83773422e-01 4.49483871e-01 4.62473035e-01 -6.05109632e-01</_>
    <_>
      -4.20810342e-01 -3.47807467e-01 -3.95597637e-01 -3.44977617e-01
      -4.06195939e-01 -6.63822460e+00 -3.80663753e-01 -7.57759809e-01</_>
    <_>
      -4.06736284e-01 -4.24149811e-01 -3.67784977e-01 -3.62677664e-01
      -3.67577672e-01 -1.10918999e+00 2.09601784e+00 3.52078485e+00</_>
    <_>
      -4.41703707e-01 -4.58612621e-01 -3.85364711e-01 -3.69788259e-01
      -3.85441899e-01 1.90649033e-01 5.31495929e-01 -2.43647099e-01</_>
    <_>
      -4.00254339e-01 -3.96620780e-01 -3.10060620e-01 -3.56604576e-01
      -3.10832441e-01 -6.20418549e-01 6.31988168e-01 -3.46811056e-01</_>
    <_>
      -4.10976350e-01 -2.68381953e-01 -3.65423560e-01 -3.23712766e-01
      -3.64687860e-01 2.66267776e-01 1.66735768e-01 5.58340907e-01</_>
    <_>
      -3.26511919e-01 -3.35954905e-01 -3.43383312e-01 -3.41988772e-01
      -3.43145669e-01 -9.54742432e-02 5.48886180e-01 1.43149221e+00</_>
    <_>
      -3.70598733e-01 -3.39175105e-01 -3.60175848e-01 -3.42807204e-01
      -3.61272633e-01 1.39368057e-01 -6.90644383e-01 -1.01870275e+00</_>
    <_>
      -3.67107660e-01 -4.19862568e-01 -1.78081691e-01 -3.61754835e-01
      -1.77113414e-01 -5.00324249e-01 1.89672697e+00 1.81852996e+00</_>
    <_>
      -4.90181893e-01 -5.04749060e-01 -4.52272505e-01 -3.78450841e-01
      -4.51907337e-01 5.08495331e-01 -3.69005203e-02 1.39313340e-01</_>
    <_>
      -5.07739067e-01 -5.35755754e-01 -4.79297996e-01 -3.83721650e-01
      -4.79491800e-01 -6.52778625e-01 4.84623551e-01 4.83266234e-01</_>
    <_>
      -3.03933680e-01 -3.28180730e-01 -1.84116542e-01 -3.39993238e-01
      -1.83681190e-01 -2.08936691e-01 1.62238848e+00 -5.51345348e-02</_>
    <_>
      -3.67181033e-01 -3.97662729e-01 -3.10060620e-01 -3.56840789e-01
      -3.09256196e-01 6.39476776e-02 9.06265616e-01 -4.09970880e-01</_>
    <_>
      -5.50470531e-01 -4.83808041e-01 -5.12095928e-01 -3.74640495e-01
      -5.15745699e-01 -1.01524639e+01 -7.88423777e-01 -5.41774869e-01</_>
    <_>
      -4.08459485e-01 -3.84103596e-01 -4.64342117e-01 -3.53727728e-01
      -4.64780092e-01 -2.21218109e+00 -1.06226957e+00 -1.09195399e+00</_>
    <_>
      -3.92350107e-01 -3.82280588e-01 -3.56764913e-01 -3.53302717e-01
      -3.56281161e-01 5.36834717e-01 1.82870507e-01 -4.02688265e-01</_>
    <_>
      1.09241545e-01 3.41349065e-01 3.41175318e-01 -6.36721551e-02
      3.40949297e-01 -6.69325829e-01 1.37938392e+00 3.79373074e+00</_>
    <_>
      -3.73494446e-01 -3.99988502e-01 -2.70440698e-01 -3.57366264e-01
      -2.70112514e-01 -5.15079498e-02 2.07988548e+00 -4.15963888e-01</_>
    <_>
      -4.64137912e-01 -4.81623948e-01 -4.57520157e-01 -3.74231458e-01
      -4.60051328e-01 -4.35960770e-01 2.60738730e-01 -5.44893742e-02</_>
    <_>
      -2.04124093e-01 -2.51894772e-01 -7.65392780e-02 -3.18934321e-01
      -7.59703517e-02 -4.63602066e-01 -8.63394737e-02 6.26881480e-01</_>
    <_>
      -2.57437944e-01 -2.26054132e-01 -1.27179325e-01 -3.11193079e-01
      -1.26147807e-01 -4.34017181e-02 1.31899750e+00 -6.96326375e-01</_>
    <_>
      -2.63086796e-01 -1.49902165e-01 -2.13765860e-01 -2.86590487e-01
      -2.12841868e-01 5.89513779e-01 1.69619441e-01 -4.60682869e-01</_>
    <_>
      -4.41117108e-01 -4.43829149e-01 -4.12652582e-01 -3.66805047e-01
      -4.12500948e-01 7.15789795e-01 -6.23830795e-01 -6.66363418e-01</_>
    <_>
      -4.09318686e-01 -4.13279593e-01 -3.85889471e-01 -3.60321343e-01
      -3.85441899e-01 3.02234650e-01 7.89717436e-02 9.37348604e-02</_>
    <_>
      -4.58871126e-01 -4.95530933e-01 -4.99763906e-01 -3.76798421e-01
      -4.99983132e-01 1.94818497e-01 -1.06152368e+00 -7.72715628e-01</_>
    <_>
      -3.77388746e-01 -3.72910917e-01 -2.84871817e-01 -3.51094186e-01
      -2.84561515e-01 -8.45483780e-01 1.63729537e+00 -6.67904198e-01</_>
    <_>
      -3.83720577e-01 -3.49515975e-01 -3.63324463e-01 -3.45403075e-01
      -3.63374293e-01 4.55926895e-01 -2.90631652e-01 -7.18407035e-01</_>
    <_>
      -4.34212953e-01 -4.29756701e-01 -4.08192068e-01 -3.63871783e-01
      -4.07772183e-01 3.11548233e-01 2.25136638e-01 -2.01037169e-01</_>
    <_>
      -3.91223252e-01 -4.61007178e-01 -3.31576049e-01 -3.70261997e-01
      -3.31323802e-01 7.17391968e-02 4.64546680e-02 -6.48865700e-02</_>
    <_>
      -3.67978305e-01 -4.22392398e-01 -2.17701614e-01 -3.62300396e-01
      -2.17307925e-01 -6.85711861e-01 1.49971330e+00 1.05696118e+00</_>
    <_>
      -4.60785568e-01 -4.94759023e-01 -3.84315133e-01 -3.76658291e-01
      -3.83602917e-01 1.43693924e-01 1.50068319e+00 -1.21133327e-01</_>
    <_>
      -2.87434280e-01 -3.25491548e-01 -1.79656029e-01 -3.39296460e-01
      -1.79477811e-01 3.50860596e-01 7.67568469e-01 2.41082549e-01</_>
    <_>
      -5.93179464e-02 -5.74571490e-02 -2.48497128e-02 -2.53133774e-01
      -2.97335386e-02 -2.20652866e+00 -3.90098810e-01 -1.01565230e+00</_>
    <_>
      -2.66342103e-01 -2.97842205e-01 -2.01171458e-01 -3.31939340e-01
      -2.01545417e-01 -4.13202286e-01 -4.14726615e-01 -4.86687183e-01</_>
    <_>
      -4.13991660e-01 -4.33509082e-01 -4.69327420e-01 -3.64662856e-01
      -4.69246149e-01 3.98345947e-01 -1.13027930e+00 -9.89845634e-01</_>
    <_>
      -4.25850540e-01 -4.32138681e-01 -3.15833032e-01 -3.64374697e-01
      -3.15035820e-01 -2.23386765e-01 1.71022737e+00 -1.88314795e-01</_>
    <_>
      -4.81401592e-01 -5.12116194e-01 -3.84577572e-01 -3.79743278e-01
      -3.84653747e-01 -1.26003933e+00 2.99099731e+00 2.49203682e+00</_>
    <_>
      -3.01347613e-01 -3.72186542e-01 -2.64930665e-01 -3.50921750e-01
      -2.64595628e-01 -1.38563156e-01 -6.57665730e-03 1.88574195e-01</_>
    <_>
      -4.78661418e-01 -5.26241899e-01 -3.97434354e-01 -3.82151484e-01
      -3.97001088e-01 -4.30728912e-01 6.52001739e-01 8.05459857e-01</_>
    <_>
      -4.65118587e-01 -5.09798884e-01 -5.20754576e-01 -3.79339457e-01
      -5.20211756e-01 4.87054825e-01 -6.19783401e-01 -4.17844296e-01</_>
    <_>
      -4.39513147e-01 -4.86445725e-01 -3.17669749e-01 -3.75131547e-01
      -3.17400157e-01 -5.28621674e-01 1.89443195e+00 8.73211622e-02</_>
    <_>
      3.55993032e-01 6.04803860e-01 5.35076737e-01 1.01679236e-01
      5.35879493e-01 -3.35624695e-01 3.15835834e-01 3.12007523e+00</_>
    <_>
      -4.14312661e-01 -4.54167992e-01 -4.17375475e-01 -3.68901938e-01
      -4.16967005e-01 4.82418060e-01 -1.62802577e-01 -4.10386443e-01</_>
    <_>
      -3.90096098e-01 -4.18484986e-01 -3.04025829e-01 -3.61456484e-01
      -3.05052876e-01 -3.91763687e-01 1.67532837e+00 4.20356035e-01</_>
    <_>
      -5.05623579e-01 -5.32169461e-01 -4.86382335e-01 -3.83134663e-01
      -4.85796839e-01 1.01976395e-01 7.93019414e-01 3.48383427e-01</_>
    <_>
      -2.76549995e-01 -2.81025171e-01 -1.26392186e-01 -3.27292293e-01
      -1.25622392e-01 -5.76536179e-01 1.26341236e+00 -1.29094720e-01</_>
    <_>
      -2.59533167e-01 -2.94285595e-01 -1.27704084e-01 -3.30967396e-01
      -1.27461374e-01 -9.53851700e-01 1.75142705e+00 2.85772657e+00</_>
    <_>
      5.74911833e-02 2.48342454e-01 2.02899098e-01 -1.14408642e-01
      1.99611664e-01 -3.20498466e+00 -8.52624893e-01 -6.18548751e-01</_>
    <_>
      -4.58805144e-01 -4.59569424e-01 -4.72213626e-01 -3.69977862e-01
      -4.71610516e-01 6.38339996e-01 -6.60703182e-01 -6.78682745e-01</_>
    <_>
      -4.05573785e-01 -4.40668225e-01 -3.45482409e-01 -3.66154134e-01
      -3.44984651e-01 1.73456192e-01 6.64049506e-01 -4.23989534e-01</_>
    <_>
      -4.47600245e-01 -5.06351590e-01 -3.79067481e-01 -3.78734112e-01
      -3.79399598e-01 -3.84702682e-01 4.42698121e-01 5.34546018e-01</_>
    <_>
      -4.01407450e-01 -3.98285061e-01 -4.36267108e-01 -3.56981635e-01
      -4.36144769e-01 -6.53535843e-01 -5.85262060e-01 -5.88740170e-01</_>
    <_>
      -2.12442100e-01 -1.36146665e-01 -2.95629501e-01 -2.81861573e-01
      -2.95595288e-01 9.26788330e-01 -1.14427495e+00 -1.02093935e+00</_>
    <_>
      -3.46983254e-01 -1.91265404e-01 -3.04550588e-01 -3.00285280e-01
      -3.04001987e-01 2.77193069e-01 -9.54947472e-02 1.01557362e+00</_>
    <_>
      -3.93520594e-01 -3.14107001e-01 -3.82216096e-01 -3.36309850e-01
      -3.83865654e-01 -8.35771084e+00 -1.22834802e+00 -1.05409479e+00</_>
    <_>
      -4.44132388e-01 -4.07401770e-01 -4.08454448e-01 -3.59024525e-01
      -4.07772183e-01 2.40182877e-01 7.26519823e-02 -4.63954806e-01</_>
    <_>
      -2.42038429e-01 -2.51070559e-01 -8.91336799e-02 -3.18692178e-01
      -8.91058445e-02 4.15019989e-02 1.71492112e+00 -6.50969326e-01</_>
    <_>
      -3.89612317e-01 -4.28403288e-01 -3.18194509e-01 -3.63584876e-01
      -3.18976462e-01 -9.47535515e-01 -3.49430799e-01 -3.97275686e-02</_></support_vectors>
  <decision_functions>
    <_>
      <sv_count>532</sv_count>
      <rho>6.0801579039126352e-01</rho>
      <alpha>
        1. 1. 1. 1. 8.5345140897478428e-03 1. 1. 1. 1. 1. 1.
        5.0988879507690421e-01 7.8359904682934756e-01
        5.2046852867287952e-01 1. 1. 6.4720898083779677e-01 1. 1. 1. 1.
        1. 1. 1. 4.7821865760573445e-01 1. 1. 1. 1. 1.
        1.5849055120221681e-01 1. 1. 1. 1. 1. 1. 2.2499998005342930e-01
        1. 1. 1. 4.6706686423476529e-02 5.9298261427131693e-01 1. 1. 1.
        1. 1. 1. 1. 1. 1. 1. 1.6888864632001355e-01 1. 1. 1. 1. 1. 1. 1.
        4.4790539565544085e-01 1. 1. 1. 4.2335809933178303e-01 1. 1.
        3.9754417171346895e-01 1. 1. 1. 1. 1. 1. 1.
        5.2403848892075189e-01 1. 1. 1. 1. 1. 5.9689828458665795e-01 1.
        1. 1. 1. 1. 1. 1. 1. 1. 1. 2.3543912457799462e-01 1. 1. 1. 1.
        3.4740847306885431e-01 5.4278703478590862e-01 1. 1. 1. 1. 1. 1.
        1. 1. 1.6812590993857751e-01 1. 1. 6.1711868468606035e-01 1. 1.
        1. 1. 7.3001293073623175e-01 1. 1. 1. 1. 5.3976763570662245e-01
        1. 1. 1. 1. 1. 8.0551487524860732e-01 1. 1. 1. 1. 1. 1. 1.
        1.7359798608992942e-02 1. 1. 1. 1. 1. 1. 1. 1. 1. 1.
        9.4464107908252617e-03 5.6534232553936736e-01 1.
        3.7836954498318787e-01 1. 1. 1. 1. 1. 1.0726900379584992e-01
        2.9147122971741396e-01 5.9137866646261117e-01 1.
        4.7285917676747558e-01 1. 4.6090946836807545e-01 1.
        9.0626661511018114e-01 1. 1. 3.9927068334356630e-01
        1.7531765922120188e-01 7.7135518199477593e-01 1. 1. 1. 1. 1. 1.
        5.8159854283007476e-02 5.7881623372340152e-01 1.
        5.4260743915517795e-01 1. 1. 1. 1. 1. 3.5331540418025542e-01 1.
        1. 1. 1. 1. 1. 1. 1. 1. 1. 1. 4.6394429049799091e-01 1. 1. 1.
        7.5171246725916374e-01 1. 1. 1. 1. 1. 1. 1. 1. 1. 1. 1. 1.
        2.9356312774570037e-01 1. 4.8808392881258955e-01 1. 1.
        5.6153000962932353e-01 -1.4681695052634608e-01 -1.
        -3.7416683611879914e-02 -4.1763811389588718e-01 -1.
        -1.9400553476014698e-01 -8.8547262571486415e-02 -1. -1. -1. -1.
        -1. -1. -3.3538445817435009e-01 -1. -1. -1. -1.
        -5.9941063678185205e-02 -1. -6.0328646762596860e-01 -1. -1. -1.
        -1. -1. -1. -1. -1. -3.0692733971225888e-01 -1. -1. -1. -1. -1.
        -2.8853829975118828e-01 -1. -1. -1. -6.6489578225334733e-01 -1.
        -6.9226916787849324e-01 -3.1992932916227462e-01 -1. -1.
        -1.9937138185948844e-01 -1. -1. -1. -4.2283562971183708e-01 -1.
        -1. -1. -1. -1. -1. -1.9975801837130958e-01 -1. -1.
        -6.3022242468041267e-01 -1. -1. -6.2158363017424445e-01 -1. -1.
        -1. -1. -8.5245776701750331e-01 -1. -1. -1. -1.
        -4.3177903860064709e-01 -7.8668304977065923e-02
        -7.8986167534172112e-03 -9.7580558052998576e-02 -1.
        -3.5301725074330753e-01 -1. -2.4575431288090352e-01
        -2.0118071674750032e-01 -3.0462887958110113e-01 -1. -1.
        -6.7532350534219451e-02 -6.6759567059152439e-02 -1. -1.
        -3.4571459466174254e-01 -2.0684975506682840e-01 -1. -1.
        -9.9060804930471480e-02 -2.7121443632337278e-01
        -3.7411820087460168e-01 -1. -3.8400003348570361e-01 -1.
        -5.8921218985524867e-02 -2.7957216023156245e-01
        -1.8984853310143607e-01 -1. -1. -1. -2.7723310052033967e-01 -1.
        -8.8272801281438162e-02 -1.6646602872514007e-01 -1.
        -1.3532122133425487e-01 -1. -1. -1. -1. -1.
        -1.2844824853696990e-01 -1. -1.7614579619804435e-01
        -9.7570477083749607e-01 -1. -7.6994380330908996e-02 -1.
        -2.5538407867034946e-01 -4.6275287264302176e-02
        -1.5929048761580372e-01 -1.5957742459834323e-01 -1.
        -3.1937641009279510e-02 -1. -1. -2.5707851960472489e-01
        -4.4935492523053698e-02 -9.0677383731858647e-03 -1. -1.
        -1.2566987948112873e-02 -1. -9.3823432010196856e-02
        -1.6528503244244946e-01 -1. -1. -2.2182447196066150e-02
        -4.0185432920795872e-01 -1. -1. -1. -1. -1.3844910816116066e-01
        -1. -1. -2.0642233701256127e-01 -9.8266915817718278e-02
        -3.0606540436045665e-03 -1. -2.5497960876736833e-02 -1.
        -6.2448009262041802e-03 -1. -2.1600833755268986e-01 -1. -1.
        -2.1263916264610602e-01 -1.4739275471914315e-01 -1. -1.
        -3.1340024095031213e-02 -1. -5.2356193298229083e-02 -1. -1.
        -3.0188235168814420e-01 -2.6037197864544670e-01 -1.
        -2.4636715307685372e-01 -1. -1. -1. -3.4424755865725624e-02
        -6.4881377548724439e-01 -2.1531182843240657e-01
        -4.2352740139517137e-01 -4.1764393280328194e-01
        -2.1980229273788734e-01 -6.5870456566043206e-02 -1. -1.
        -1.6293641478662041e-01 -3.7019322485053363e-01
        -1.6197957006233707e-01 -1.7901781901824435e-01 -1.
        -1.8115724802298741e-01 -3.3617763494992814e-01 -1. -1.
        -8.6245209526683742e-02 -1. -1.5206016053143068e-01
        -1.0202958522578706e-01 -4.6268443042927404e-01
        -2.8877957173433283e-01 -1.4476177486967154e-01 -1.
        -2.3586138029101464e-02 -5.2464670098468957e-01
        -1.7180883178905693e-01 -1. -1. -3.0838822964320778e-01 -1.
        -2.5936681549282153e-01 -1. -3.2828892110139490e-01
        -2.7813333969147280e-01 -1. -3.1438868511362433e-01
        -3.9398997343460301e-01 -1. -1. -3.7314861985006542e-01
        -2.9681813427285958e-01 -1. -1.9675947557711840e-01
        -1.6127669932445901e-01 -2.0305222974757667e-01 -1.
        -5.6913109428409075e-02 -1. -1. -1.5055871143325791e-01
        -1.5101796243615598e-01 -5.3820631192910939e-01
        -5.0079661099373830e-03 -1. -1. -1. -1. -1.
        -3.0687309182820033e-02 -1. -1. -5.0260733685004701e-02
        -1.5715818192334738e-01 -1.2853453595993683e-01 -1. -1. -1. -1.
        -1.2739726482814434e-01 -1. -5.8378478288462821e-01
        -2.0447261091007307e-02 -1.9195379497498566e-01
        -2.2249395810755809e-01 -1. -1.8660631280572526e-01
        -3.9267024686743940e-01 -1. -1.2938967975340576e-01 -1. -1.
        -4.0982393067401611e-02 -1. -2.7395309195529211e-01 -1.
        -1.8747333353777396e-01 -9.7514861506278569e-02
        -4.6897336920214000e-01 -2.0713904164804911e-02 -1.
        -4.5300367489808525e-03 -1.3508575397927883e-02
        -2.8805648623867885e-01 -1. -1. -1. -1.2313492622928317e-01 -1.
        -1.4294115891661505e-01 -6.9427679585994695e-01
        -6.0343855747526272e-02 -3.1158537365634609e-01
        -2.1508941092115933e-02 -1. -2.2332270719141409e-01 -1. -1.
        -7.0536670905412957e-01 -1. -1. -1.7399353566822412e-01 -1. -1.
        -1.4437496944518396e-01 -9.4045872341329984e-01 -1. -1. -1.
        -3.4031886430975815e-02 -1.7578818673949320e-01
        -1.8930763238049483e-01 -1. -1.7917154908441243e-02
        -5.3654199403213720e-01 -3.9955534604980358e-01
        -1.4529198945848171e-01 -9.7158878941278393e-02
        -2.4334568948148683e-01 -9.5333152631168358e-02 -1.
        -3.3709828674825737e-01 -6.2140494299426093e-02
        -9.7502567590004807e-02</alpha>
      <index>
        346 345 344 343 342 341 347 340 339 351 355 354 353 352 338 350
        349 348 328 327 326 325 324 323 322 321 320 319 318 317 316 332
        337 336 335 334 333 331 330 329 384 383 382 381 380 379 378 387
        391 390 389 388 386 385 362 367 366 365 364 363 361 360 359 358
        357 356 372 377 376 375 374 373 315 371 370 369 368 263 264 265
        266 267 268 251 252 253 254 255 256 269 257 258 259 260 261 262
        282 277 278 279 280 281 283 284 285 286 287 273 270 271 272 250
        274 275 276 306 305 304 303 302 301 300 312 314 313 299 311 310
        309 308 307 244 288 240 241 242 243 289 245 246 247 248 249 298
        297 296 295 294 293 292 291 290 437 438 439 440 441 442 443 444
        431 432 433 434 435 436 454 451 452 453 455 456 457 458 445 446
        392 447 448 449 450 404 405 406 407 408 409 410 411 412 413 393
        394 395 396 397 398 399 400 401 402 403 426 422 423 424 425 427
        428 429 430 414 415 416 417 418 419 420 421 508 507 506 505 504
        498 496 497 499 500 501 502 503 521 522 523 524 525 526 527 528
        529 530 531 510 511 512 513 514 515 516 509 517 518 519 520 467
        468 469 470 466 471 472 473 474 475 476 461 459 460 477 462 463
        464 465 489 490 491 492 493 488 494 495 478 479 480 481 482 483
        484 485 486 487 77 80 79 78 81 76 75 74 73 83 82 58 62 61 60 59
        63 57 56 55 69 72 71 70 68 67 66 65 64 106 105 104 103 107 102
        101 114 116 115 100 113 112 111 110 109 108 89 88 87 90 86 85 84
        94 99 98 97 96 95 93 92 91 22 21 20 19 18 17 16 15 14 28 27 26
        25 24 23 1 4 3 2 0 10 13 12 11 9 8 7 6 5 50 49 48 47 46 45 44 43
        54 53 42 52 51 33 34 32 31 30 29 41 40 39 38 37 36 35 205 204
        203 202 206 201 200 199 212 211 210 209 208 207 186 185 184 187
        183 193 198 197 196 195 194 213 192 191 190 189 188 232 231 230
        233 229 228 227 238 237 236 226 235 234 216 218 217 215 214 225
        224 182 223 222 221 220 219 140 142 141 143 139 138 137 136 135
        148 152 151 150 149 147 146 145 144 124 123 122 121 120 119 118
        117 128 134 133 132 131 130 129 127 126 125 171 170 169 175 181
        180 179 178 177 176 174 173 172 159 158 157 156 155 154 153 168
        167 166 165 164 239 163 162 161 160</index></_></decision_functions></opencv_ml_svm>
</opencv_storage>
