<?xml version="1.0"?>
<opencv_storage>
<opencv_ml_svm>
  <format>3</format>
  <svmType>C_SVC</svmType>
  <kernel>
    <type>RBF</type>
    <gamma>1.</gamma></kernel>
  <C>1.</C>
  <term_criteria><iterations>10000000</iterations></term_criteria>
  <var_count>8</var_count>
  <class_count>2</class_count>
  <class_labels type_id="opencv-matrix">
    <rows>2</rows>
    <cols>1</cols>
    <dt>i</dt>
    <data>
      0 1</data></class_labels>
  <sv_total>508</sv_total>
  <support_vectors>
    <_>
      -3.14703047e-01 -3.44695568e-01 -2.71324813e-01 -3.44979584e-01
      -2.74095058e-01 -7.29493141e-01 3.13466549e-01 5.54527879e-01</_>
    <_>
      -5.31798840e-01 -5.91339767e-01 -5.94651461e-01 -3.93438458e-01
      -5.94743907e-01 8.48543167e-01 -7.22580552e-01 -7.33281374e-01</_>
    <_>
      -6.51906669e-01 -6.90579355e-01 -5.78779519e-01 -4.05030787e-01
      -5.78852415e-01 -5.18831253e-01 1.53243613e+00 2.12135649e+00</_>
    <_>
      -6.43772125e-01 -6.94128036e-01 -6.10523403e-01 -4.05361295e-01
      -6.10379100e-01 -6.57453537e-01 2.02294898e+00 2.00428534e+00</_>
    <_>
      1.21448278e+00 2.13042951e+00 9.46974039e-01 1.69285834e+00
      9.44934547e-01 7.26678848e-01 -1.07146263e+00 -2.88660169e-01</_>
    <_>
      8.38635623e-01 1.22355390e+00 2.67808914e-01 6.18652344e-01
      2.68778026e-01 1.36037445e+00 -1.64132547e+00 -1.19473946e+00</_>
    <_>
      3.07579780e+00 2.66193843e+00 2.33551216e+00 2.49851418e+00
      2.33825755e+00 9.95080948e-01 -1.36072731e+00 -8.43785763e-01</_>
    <_>
      -5.24252176e-01 -5.79390526e-01 -5.57019591e-01 -3.91736627e-01
      -5.56809425e-01 3.82364273e-01 -5.88807344e-01 -4.50121522e-01</_>
    <_>
      3.67461109e+00 3.42309666e+00 4.78286219e+00 3.87887883e+00
      4.78426266e+00 3.13526154e-01 6.41282797e-02 -2.58944631e-01</_>
    <_>
      -5.59406400e-01 -6.18393421e-01 -5.31419754e-01 -3.97048414e-01
      -5.31434357e-01 -2.79933929e-01 -1.51860952e-01 5.55609345e-01</_>
    <_>
      -4.68954504e-01 -5.36977649e-01 -4.64859992e-01 -3.85165185e-01
      -4.65048999e-01 1.81827545e-01 -1.55305266e-01 3.43052864e-01</_>
    <_>
      2.08838439e+00 1.83926582e+00 1.48789990e+00 1.30668271e+00
      1.48755121e+00 -8.59016418e-01 -1.40386820e+00 -8.05093646e-01</_>
    <_>
      -3.36683869e-01 -3.91859412e-01 -2.95388699e-01 -3.56412828e-01
      -2.94856489e-01 2.90485382e-01 3.44038010e-04 4.62675214e-01</_>
    <_>
      -4.98207867e-01 -5.44382393e-01 -3.74748409e-01 -3.86372179e-01
      -3.74313831e-01 -1.76041985e+00 1.89226604e+00 1.80522025e+00</_>
    <_>
      -4.73465264e-01 -5.05331874e-01 -4.25948173e-01 -3.79722238e-01
      -4.28908736e-01 -3.86628151e-01 9.58196402e-01 3.28788042e-01</_>
    <_>
      2.31865788e+00 2.14270377e+00 3.08379698e+00 1.70999563e+00
      3.08438778e+00 2.37525940e-01 1.38287544e-02 4.63535905e-01</_>
    <_>
      6.22382939e-01 5.03954232e-01 1.16918123e+00 3.58361602e-02
      1.16715860e+00 -4.91662979e-01 7.64352322e-01 8.94823670e-01</_>
    <_>
      1.58336830e+00 1.66050887e+00 9.66430068e-01 1.08894026e+00
      9.68515337e-01 7.50391006e-01 -1.17388213e+00 1.41438961e-01</_>
    <_>
      1.49804521e+00 1.33457422e+00 2.04956150e+00 7.29807973e-01
      2.05272365e+00 3.69827271e-01 -1.62001014e-01 7.78061986e-01</_>
    <_>
      3.09348488e+00 2.96786165e+00 4.30823994e+00 3.02123284e+00
      4.31290102e+00 2.91250229e-01 5.18262386e-03 2.79713511e-01</_>
    <_>
      -3.40665638e-01 -4.20070022e-01 -2.57244885e-01 -3.62761796e-01
      -2.59228826e-01 -1.45018768e+00 8.99066448e-01 6.90733314e-01</_>
    <_>
      -9.00921226e-02 4.04371917e-01 -9.67335701e-02 -2.60292888e-02
      -1.07490957e-01 -5.62389851e+00 -1.40609837e+00 -1.42183948e+00</_>
    <_>
      -3.87202799e-01 -4.29091245e-01 -2.59548843e-01 -3.64714712e-01
      -2.59741485e-01 5.44395447e-02 8.09582472e-01 -1.22451425e-01</_>
    <_>
      -3.19034994e-01 -3.65471840e-01 -1.57661319e-01 -3.50142360e-01
      -1.56703234e-01 -3.37026596e-01 5.81458092e-01 1.62769330e+00</_>
    <_>
      -2.30226398e-01 -2.63328314e-01 -2.74140775e-01 -3.22846293e-01
      -2.73838758e-01 1.02306366e-01 -1.86104059e-01 -4.09514666e-01</_>
    <_>
      3.11394620e+00 3.77478886e+00 3.26350832e+00 4.60681391e+00
      3.26508927e+00 5.34391403e-01 -5.94155192e-01 -2.48034000e-02</_>
    <_>
      3.57949924e+00 3.31475782e+00 4.58753490e+00 3.66611695e+00
      4.58613205e+00 2.32294083e-01 -4.02067900e-01 4.59868312e-01</_>
    <_>
      1.47768116e+00 1.29808521e+00 2.23951292e+00 6.92648053e-01
      2.24034548e+00 -8.15162659e-02 7.86136389e-01 3.06405067e-01</_>
    <_>
      4.22792959e+00 4.13717413e+00 4.69249439e+00 5.41647959e+00
      4.68276215e+00 6.27941132e-01 -9.34908032e-01 -7.03693986e-01</_>
    <_>
      -5.44505656e-01 -5.90197206e-01 -4.72795963e-01 -3.93278569e-01
      -4.72482115e-01 -4.71954346e-01 8.16034317e-01 2.08560705e+00</_>
    <_>
      9.34829652e-01 8.72622907e-01 7.87742734e-01 3.04630131e-01
      7.85507143e-01 1.26756668e-01 -1.37781489e+00 -1.13332820e+00</_>
    <_>
      1.75678968e+00 2.47994661e+00 1.10466945e+00 2.20800281e+00
      1.10461807e+00 -6.52340889e-01 -1.62143850e+00 -1.38060963e+00</_>
    <_>
      4.59902525e+00 4.27113581e+00 5.62740278e+00 5.73109913e+00
      5.61805201e+00 1.74465179e-02 -2.63179183e-01 -4.91978288e-01</_>
    <_>
      -7.30966330e-02 4.27224338e-01 -1.36413395e-01 -1.22361183e-02
      -1.35685503e-01 1.02358437e+00 -1.02286053e+00 -7.49593019e-01</_>
    <_>
      -2.70115435e-01 -3.14917266e-01 -1.40253365e-01 -3.37233216e-01
      -1.39530182e-01 -1.64249420e+00 3.32248211e-01 -1.10330105e-01</_>
    <_>
      -4.52676743e-01 -5.16350985e-01 -2.82588780e-01 -3.81669819e-01
      -2.83322334e-01 -1.09174538e+00 2.06346512e+00 1.32180488e+00</_>
    <_>
      4.03323841e+00 3.68658495e+00 4.93441343e+00 4.41889572e+00
      4.94112682e+00 4.06288147e-01 -6.03398204e-01 -5.26404142e-01</_>
    <_>
      3.19338655e+00 2.94949460e+00 3.93601751e+00 2.98863292e+00
      3.93227458e+00 -3.67632866e-01 -5.32259703e-01 -8.49697590e-02</_>
    <_>
      -4.23442900e-01 -4.95257676e-01 -2.50332892e-01 -3.77892703e-01
      -2.50001550e-01 -1.00658512e+00 3.09564018e+00 1.12632239e+00</_>
    <_>
      -5.62457323e-01 -6.19868338e-01 -5.81595540e-01 -3.97235513e-01
      -5.81159234e-01 2.27476120e-01 -3.15313339e-01 3.16774487e-01</_>
    <_>
      1.57320380e+00 1.33213067e+00 1.91644204e+00 7.27300406e-01
      1.91508317e+00 -5.39527893e-01 -5.86659908e-02 -5.38447261e-01</_>
    <_>
      2.39054513e+00 2.82703733e+00 2.52162361e+00 2.77525711e+00
      2.52408528e+00 7.21544266e-01 -1.09248126e+00 -5.59579611e-01</_>
    <_>
      -5.77703834e-01 -6.32913530e-01 -5.80059528e-01 -3.98846895e-01
      -5.79877734e-01 -1.10530853e-02 3.61733913e-01 1.46588504e+00</_>
    <_>
      2.61267447e+00 2.39529133e+00 3.24661255e+00 2.07806754e+00
      3.24663472e+00 5.85777283e-01 -8.30324650e-01 -8.08045387e-01</_>
    <_>
      -5.87967157e-01 -6.35286748e-01 -5.70075572e-01 -3.99131596e-01
      -5.70137739e-01 3.23474884e-01 6.97431564e-02 5.41552305e-02</_>
    <_>
      -2.98232973e-01 -3.57374549e-01 -2.87196755e-01 -3.48153889e-01
      -2.86910772e-01 4.75568771e-01 -3.08507442e-01 -4.76398468e-01</_>
    <_>
      -3.55790615e-01 -4.24232870e-01 -2.44444907e-01 -3.63667637e-01
      -2.45131552e-01 -3.83044243e-01 8.82128000e-01 5.00566840e-01</_>
    <_>
      3.83059216e+00 3.45257282e+00 4.73243046e+00 3.93770051e+00
      4.73581934e+00 5.84171295e-01 -4.49358702e-01 -5.63976049e-01</_>
    <_>
      -3.74673128e-01 -4.22382802e-01 -3.01532686e-01 -3.63266051e-01
      -3.01520646e-01 -7.82222748e-02 3.23220015e-01 -4.28472757e-02</_>
    <_>
      3.22441816e+00 2.99399209e+00 2.49653578e+00 3.06787896e+00
      2.49102068e+00 -2.44583130e-01 -1.30610895e+00 -6.49427295e-01</_>
    <_>
      -4.05306041e-01 -4.63412642e-01 -4.06748235e-01 -3.71802032e-01
      -4.06609416e-01 6.75544739e-02 -9.46223736e-02 8.70761752e-01</_>
    <_>
      -3.93784612e-01 -4.62669730e-01 -3.22012603e-01 -3.71654361e-01
      -3.21513176e-01 1.30710602e-01 7.59321213e-01 5.74662566e-01</_>
    <_>
      -4.32057649e-01 -4.88724262e-01 -2.30876982e-01 -3.76681209e-01
      -2.30265379e-01 -1.60715199e+00 2.66708326e+00 2.39587450e+00</_>
    <_>
      -3.26690078e-01 -3.82935524e-01 -2.37532973e-01 -3.54328156e-01
      -2.36929536e-01 1.84150696e-01 4.06997681e-01 7.80549049e-02</_>
    <_>
      2.99357820e+00 2.61157441e+00 3.58632326e+00 2.41659188e+00
      3.59112048e+00 3.38811874e-01 -1.88921452e-01 -7.64023662e-01</_>
    <_>
      3.19171476e+00 2.97645879e+00 1.88034618e+00 3.03654528e+00
      1.87586713e+00 1.19492531e+00 -1.66135800e+00 -1.37736189e+00</_>
    <_>
      -3.23437154e-01 -3.71394575e-01 -2.26525009e-01 -3.51577699e-01
      -2.26164341e-01 -3.49239349e-01 8.58037472e-01 6.59403205e-01</_>
    <_>
      -7.52958059e-02 -8.81980062e-02 -2.26992369e-03 -2.64862120e-01
      -1.63322687e-03 6.68579102e-01 -9.14245129e-01 -2.62706637e-01</_>
    <_>
      1.43022823e+00 1.21302819e+00 1.79945052e+00 6.08408332e-01
      1.80179238e+00 5.05617142e-01 -4.12723780e-01 3.00505161e-01</_>
    <_>
      -4.23723429e-01 -4.85564113e-01 -4.87131923e-01 -3.76088172e-01
      -4.87092018e-01 2.53400803e-01 -6.25072598e-01 -3.22786570e-01</_>
    <_>
      -3.37379456e-01 -4.09435362e-01 -1.98877096e-01 -3.60411465e-01
      -1.98226094e-01 -5.59334755e-01 1.54716659e+00 1.01206911e+00</_>
    <_>
      -3.25980902e-01 -3.47391605e-01 -2.32924998e-01 -3.45660776e-01
      -2.32059538e-01 -1.32141113e-02 4.85096455e-01 1.31445289e-01</_>
    <_>
      -5.21032214e-01 -5.24710596e-01 -5.51387668e-01 -3.83110046e-01
      -5.52195787e-01 -1.13425732e+00 -6.46160960e-01 -7.68135965e-01</_>
    <_>
      3.36013269e+00 3.49804211e+00 3.37102795e+00 4.02922440e+00
      3.36761451e+00 1.54705048e-01 -9.65020895e-01 -1.09851599e+00</_>
    <_>
      1.78841996e+00 1.57698464e+00 1.27977264e+00 9.92245913e-01
      1.27429795e+00 3.11584473e-01 -1.31043684e+00 -1.91937089e-01</_>
    <_>
      -4.34496701e-01 -4.98153627e-01 -3.91644299e-01 -3.78423423e-01
      -3.91230583e-01 2.68688202e-01 -2.82746553e-01 -2.94420123e-01</_>
    <_>
      -5.00187337e-01 -5.36323547e-01 -4.31580156e-01 -3.85057360e-01
      -4.32753444e-01 4.74058151e-01 3.85403633e-03 3.97658348e-03</_>
    <_>
      3.44763708e+00 3.21171713e+00 3.01006937e+00 3.46877575e+00
      3.01133823e+00 8.84288788e-01 -1.30817008e+00 -7.50207782e-01</_>
    <_>
      -6.77240729e-01 -7.29683936e-01 -6.24603331e-01 -4.08352703e-01
      -6.24220014e-01 -1.66695309e+00 3.15616131e+00 3.38868809e+00</_>
    <_>
      -3.19571674e-01 -3.61356318e-01 -2.39836931e-01 -3.49135458e-01
      -2.39236355e-01 1.19667053e-01 1.21783018e-01 3.07251930e-01</_>
    <_>
      5.79533517e-01 7.63418972e-01 1.86401248e-01 2.18484491e-01
      1.83169186e-01 -6.06037140e-01 -1.68065870e+00 -1.13039017e+00</_>
    <_>
      1.78673792e+00 1.70138121e+00 7.67006874e-01 1.13742864e+00
      7.67821491e-01 1.33217049e+00 -1.79623139e+00 -1.41107225e+00</_>
    <_>
      -4.56811339e-01 -4.83544648e-01 -4.54364061e-01 -3.75706792e-01
      -4.54540133e-01 2.69927979e-02 -7.53704548e-01 -4.18301344e-01</_>
    <_>
      1.44348383e+00 1.89935160e+00 1.03068578e+00 1.38317752e+00
      1.02541709e+00 -1.43362331e+00 -1.41304493e+00 -1.06000638e+00</_>
    <_>
      -3.31617236e-01 -3.80438507e-01 -2.43420959e-01 -3.53738248e-01
      -2.43593693e-01 2.39734650e-02 3.35498333e-01 -5.40405512e-02</_>
    <_>
      -4.50448871e-01 -5.02528071e-01 -3.67324412e-01 -3.79217744e-01
      -3.66880715e-01 -1.67320251e-01 9.34459686e-01 1.12814915e+00</_>
    <_>
      1.24002814e+00 1.07248378e+00 1.51017177e+00 4.76517051e-01
      1.51036310e+00 7.14172363e-01 -9.24344897e-01 -4.90241170e-01</_>
    <_>
      -4.73064214e-01 -5.35475969e-01 -3.60924423e-01 -3.84917349e-01
      -3.61754477e-01 -6.82929039e-01 1.27099299e+00 2.30321074e+00</_>
    <_>
      3.82398415e+00 3.39890575e+00 4.53249502e+00 3.83090234e+00
      4.53076792e+00 1.69181824e-02 -3.31562400e-01 -5.20901084e-01</_>
    <_>
      -5.78854740e-01 -6.37300134e-01 -6.17179394e-01 -3.99371117e-01
      -6.17299557e-01 6.91759109e-01 -4.12468672e-01 -5.16874075e-01</_>
    <_>
      3.56165648e+00 3.24739265e+00 3.81365013e+00 3.53654766e+00
      3.80411744e+00 -1.44277573e-01 -1.16472888e+00 -5.23952961e-01</_>
    <_>
      -3.42970192e-01 -3.88014078e-01 -1.84029162e-01 -3.55519056e-01
      -1.84641480e-01 -4.91357803e-01 1.02962303e+00 1.45939481e+00</_>
    <_>
      1.23340416e+00 1.08019352e+00 1.53628361e+00 4.83516365e-01
      1.53753257e+00 -1.81068420e-01 -2.56405234e-01 -1.74822330e-01</_>
    <_>
      1.00548935e+00 2.09747458e+00 9.05246258e-01 1.64718974e+00
      8.96491110e-01 2.26228714e-01 -1.68481612e+00 -1.31471610e+00</_>
    <_>
      1.22857285e+00 1.31180525e+00 1.02658975e+00 7.06548452e-01
      1.02900553e+00 9.41526413e-01 -8.32778573e-01 -9.34571326e-01</_>
    <_>
      -4.72057849e-01 -5.19595623e-01 -4.35932130e-01 -3.82232636e-01
      -4.35829222e-01 2.88635254e-01 7.72449970e-02 3.82039547e-01</_>
    <_>
      2.08345354e-01 5.40447533e-01 -1.49981320e-01 5.96512854e-02
      -1.52345896e-01 -8.68802071e-01 -1.61532319e+00 -1.37023735e+00</_>
    <_>
      1.95054793e+00 1.79945874e+00 2.30735254e+00 1.25691986e+00
      2.31031942e+00 1.54821396e-01 2.63813496e-01 6.28940940e-01</_>
    <_>
      1.73531342e+00 2.66180849e+00 1.89749801e+00 2.49830151e+00
      1.89791012e+00 5.45055389e-01 -7.96126604e-01 -5.53297997e-03</_>
    <_>
      1.51869631e+00 1.38989687e+00 2.01884174e+00 7.87317634e-01
      2.02196598e+00 5.35587311e-01 -3.30646634e-01 -5.98174930e-01</_>
    <_>
      -5.85021734e-01 -6.37151837e-01 -5.43963671e-01 -3.99353534e-01
      -5.45019031e-01 -2.32795715e-01 9.08131361e-01 1.14581764e+00</_>
    <_>
      -4.90534097e-01 -5.26771426e-01 -4.86363918e-01 -3.83460134e-01
      -4.86579388e-01 2.70805359e-01 -6.88637137e-01 -3.31507206e-01</_>
    <_>
      -4.71386313e-01 -5.29649019e-01 -3.56060445e-01 -3.83945733e-01
      -3.57909739e-01 -6.51598930e-01 1.02157664e+00 1.29705822e+00</_>
    <_>
      -2.59973586e-01 -2.99614251e-01 -8.36775899e-02 -3.33093464e-01
      -8.77547264e-02 -1.62240028e+00 7.68164635e-01 1.03108704e+00</_>
    <_>
      -3.42987001e-01 -3.84042799e-01 -3.36860538e-01 -3.54588807e-01
      -3.38173568e-01 -1.31323910e+00 -7.07862496e-01 -7.36109793e-01</_>
    <_>
      -5.76308250e-01 -6.25235438e-01 -5.71867585e-01 -3.97907972e-01
      -5.72188258e-01 4.02778625e-01 -1.97276115e-01 2.38165259e-01</_>
    <_>
      -3.99220079e-01 -1.58774316e-01 -5.18875778e-01 -2.89928794e-01
      -5.19900203e-01 -3.13065052e+00 -1.71408880e+00 -1.36640477e+00</_>
    <_>
      5.61162186e+00 5.05694580e+00 7.05101252e+00 7.74309969e+00
      7.05648661e+00 4.16694641e-01 -4.65777755e-01 -7.84125030e-01</_>
    <_>
      -3.26935649e-01 -3.69425833e-01 -2.72604823e-01 -3.51102382e-01
      -2.72044539e-01 4.20022964e-01 -1.88344717e-02 -1.26614332e-01</_>
    <_>
      2.95423412e+00 2.73350024e+00 2.94581366e+00 2.61692595e+00
      2.93777609e+00 5.22102356e-01 -1.12231851e+00 -9.71661925e-01</_>
    <_>
      1.97878242e+00 1.80369282e+00 2.54159164e+00 1.26217842e+00
      2.54202724e+00 2.79077530e-01 3.84897947e-01 1.29747510e-01</_>
    <_>
      -5.95193982e-01 -6.33449435e-01 -6.04635417e-01 -3.98911417e-01
      -6.04483843e-01 3.98340225e-01 -3.18461657e-01 -1.26282096e-01</_>
    <_>
      2.03083658e+00 1.82426357e+00 2.26204062e+00 1.28784251e+00
      2.26033807e+00 -1.86302185e-01 -1.11491036e+00 -1.00780368e+00</_>
    <_>
      -2.80109584e-01 -3.41155708e-01 -2.52124906e-01 -3.44080150e-01
      -2.53077328e-01 3.42086792e-01 -2.29841352e-01 -1.67691231e-01</_>
    <_>
      2.16102624e+00 1.98074722e+00 2.74613476e+00 1.48945463e+00
      2.74733472e+00 2.09978104e-01 2.81270981e-01 5.68693995e-01</_>
    <_>
      2.18175554e+00 2.17271113e+00 2.23490477e+00 1.75218427e+00
      2.23521924e+00 9.15033340e-01 -1.35728419e+00 -1.13486338e+00</_>
    <_>
      -4.05928314e-01 -4.46283668e-01 -3.87292325e-01 -3.68332744e-01
      -3.86873245e-01 6.34819031e-01 -2.52504706e-01 -5.24397135e-01</_>
    <_>
      5.92281640e-01 9.98620093e-01 1.56499743e-02 4.10848528e-01
      1.22077465e-02 2.22507477e-01 -1.80463636e+00 -1.43258655e+00</_>
    <_>
      -4.72741961e-01 -4.71819133e-01 -4.96859878e-01 -3.73455226e-01
      -4.98369843e-01 4.97669220e-01 -8.26015353e-01 -8.73863697e-01</_>
    <_>
      1.34832764e+00 1.16919923e+00 1.91823399e+00 5.66301703e-01
      1.91585207e+00 -9.37872887e-01 3.87449265e-01 2.70547748e-01</_>
    <_>
      1.05176806e-01 5.05331099e-01 -1.22333467e-01 3.67235839e-02
      -1.23638690e-01 -3.45993042e-02 -1.43163562e+00 -8.76038313e-01</_>
    <_>
      4.13590574e+00 3.81666517e+00 3.45678759e+00 4.69728565e+00
      3.45219827e+00 -4.21314240e-01 -1.26904655e+00 -4.78564739e-01</_>
    <_>
      -3.59892070e-01 -3.86643827e-01 -2.63388872e-01 -3.55198890e-01
      -2.62560904e-01 1.73282623e-01 3.00935507e-01 -1.35877013e-01</_>
    <_>
      6.78219974e-01 2.17417812e+00 5.31231880e-01 1.75425756e+00
      5.08944333e-01 -5.17936325e+00 -1.86133349e+00 -1.49411738e+00</_>
    <_>
      -4.95361388e-01 -2.45180309e-01 -6.34843290e-01 -3.17493796e-01
      -6.34728909e-01 1.37244225e+00 -1.77983880e+00 -1.40728605e+00</_>
    <_>
      -5.41193724e-01 -5.98082066e-01 -5.45499682e-01 -3.94369662e-01
      -5.45531631e-01 3.39401245e-01 -1.91948891e-01 3.50628972e-01</_>
    <_>
      -3.89128804e-01 -4.51688707e-01 -2.79516757e-01 -3.69442075e-01
      -2.78708696e-01 -7.90536880e-01 1.85912752e+00 1.36207139e+00</_>
    <_>
      -4.68296260e-01 -5.32283485e-01 -3.83964360e-01 -3.84386957e-01
      -3.83284807e-01 -9.25322533e-01 7.76285172e-01 1.22841179e+00</_>
    <_>
      -4.46107686e-01 -5.13172150e-01 -3.26108575e-01 -3.81113708e-01
      -3.26383114e-01 -1.40072727e+00 8.72653008e-01 1.54249132e+00</_>
    <_>
      1.87551022e+00 2.22368550e+00 2.21084070e+00 1.82480204e+00
      2.21112585e+00 -8.72974396e-02 -7.64700174e-02 -7.54310846e-01</_>
    <_>
      3.55850172e+00 3.22031212e+00 4.34843206e+00 3.48504996e+00
      4.33930159e+00 4.24835205e-01 -4.13272977e-01 -7.89250851e-01</_>
    <_>
      2.25651813e+00 1.97887540e+00 2.39003992e+00 1.48697615e+00
      2.39131451e+00 8.85963440e-01 -6.41784430e-01 -8.41044605e-01</_>
    <_>
      2.49960041e+00 2.31773067e+00 1.80329049e+00 1.96191895e+00
      1.80102324e+00 8.59004974e-01 -1.65652001e+00 -1.33836722e+00</_>
    <_>
      7.11191118e-01 1.72450805e+00 5.75775623e-01 1.16520572e+00
      5.77380121e-01 1.27257538e+00 -1.76202881e+00 -1.40078425e+00</_>
    <_>
      3.23507738e+00 3.08596659e+00 2.05391359e+00 3.23456812e+00
      2.05349255e+00 1.02650452e+00 -1.64790213e+00 -1.23944736e+00</_>
    <_>
      -2.59286880e-01 -3.20506096e-01 -2.65436828e-01 -3.38718176e-01
      -2.65892982e-01 -2.67229080e-01 -3.60665202e-01 -3.38288784e-01</_>
    <_>
      -5.65561950e-01 -6.14203691e-01 -5.39099693e-01 -3.96511406e-01
      -5.38867474e-01 4.88586426e-02 4.90793467e-01 9.87629056e-01</_>
    <_>
      2.73712087e+00 2.66232324e+00 1.98760974e+00 2.49914432e+00
      1.99018312e+00 8.61429214e-01 -1.30193114e+00 -4.33944583e-01</_>
    <_>
      -5.79286695e-01 -6.19188547e-01 -5.64699590e-01 -3.97149414e-01
      -5.64242542e-01 3.95547867e-01 -3.80704403e-01 -3.88010740e-02</_>
    <_>
      -3.53776515e-01 -4.25205052e-01 -3.01788688e-01 -3.63878042e-01
      -3.01008046e-01 -1.98518753e-01 8.91978025e-01 6.10883832e-01</_>
    <_>
      -3.28774452e-01 -3.80396307e-01 -2.13213086e-01 -3.53728265e-01
      -2.12323368e-01 -6.07084274e-01 6.68291330e-01 7.13471532e-01</_>
    <_>
      1.36053562e-03 -4.42036986e-02 -8.41391087e-03 -2.48075694e-01
      -8.55368376e-03 8.08839798e-01 -1.15382695e+00 -5.01657367e-01</_>
    <_>
      4.83643055e+00 4.57152939e+00 4.05556917e+00 6.46664906e+00
      4.05351114e+00 6.95379257e-01 -1.33118510e+00 -5.88223934e-01</_>
    <_>
      1.66352916e+00 1.57291818e+00 2.14095306e+00 9.87619877e-01
      2.14345884e+00 6.62914276e-01 -2.20393658e-01 3.42707634e-02</_>
    <_>
      -1.28882587e-01 1.29086912e-01 -1.46397352e-01 -1.73283145e-01
      -1.52345896e-01 -6.33196640e+00 -1.03382874e+00 -1.13207293e+00</_>
    <_>
      2.13759005e-01 1.79064572e-01 3.10605764e-03 -1.49142772e-01
      3.49307060e-03 5.11539459e-01 -8.92652750e-01 3.17309499e-01</_>
    <_>
      -4.39833969e-01 -2.01058984e-01 -5.75963497e-01 -3.03847998e-01
      -5.78596115e-01 4.37818527e-01 -1.73459816e+00 -1.40149760e+00</_>
    <_>
      -5.36004186e-01 -6.00993752e-01 -5.61627626e-01 -3.94765317e-01
      -5.61679363e-01 -4.66109276e-01 -6.06618166e-01 2.77979255e-01</_>
    <_>
      2.75275326e+00 3.02533174e+00 3.12526894e+00 3.12423968e+00
      3.12949920e+00 6.27286911e-01 -7.09157109e-01 -1.68559313e-01</_>
    <_>
      -5.97682238e-01 -6.52621806e-01 -6.26395345e-01 -4.01132643e-01
      -6.28321052e-01 -8.47129822e-02 -6.24098897e-01 -8.53904486e-02</_>
    <_>
      -3.68372709e-01 -4.25471842e-01 -2.21661031e-01 -3.63935709e-01
      -2.21038043e-01 -3.80654335e-01 7.06833124e-01 5.81890941e-01</_>
    <_>
      -5.98335505e-01 -6.48425102e-01 -5.20155787e-01 -4.00660902e-01
      -5.19900203e-01 -8.15056801e-01 2.45312262e+00 2.89562464e+00</_>
    <_>
      -3.51735890e-01 -4.19584781e-01 -2.65180826e-01 -3.62655699e-01
      -2.64611423e-01 -4.28638458e-02 4.43663120e-01 4.20191526e-01</_>
    <_>
      1.18992019e+00 2.50277162e+00 8.35614562e-01 2.24360132e+00
      8.34719479e-01 1.20497704e+00 -1.72335541e+00 -1.37565494e+00</_>
    <_>
      -5.72878480e-01 -6.25072777e-01 -6.04891419e-01 -3.97887766e-01
      -6.05765462e-01 -1.64471054e+00 -5.80043077e-01 -1.43990517e-01</_>
    <_>
      -3.02985668e-01 -3.74631882e-01 -1.76093221e-01 -3.52355391e-01
      -1.77208364e-01 -9.48333740e-03 1.04678082e+00 1.46342194e+00</_>
    <_>
      8.38952959e-01 1.40695429e+00 3.84288430e-01 8.05333614e-01
      3.85144651e-01 7.29587555e-01 -1.15547872e+00 2.96800256e-01</_>
    <_>
      3.89443922e+00 3.62213182e+00 5.30919600e+00 4.28384495e+00
      5.31508923e+00 4.22353745e-01 -5.89073896e-02 2.27904320e-01</_>
    <_>
      5.63738406e-01 1.05863357e+00 1.04481578e-01 4.64012116e-01
      9.96108651e-02 -4.94475555e+00 -1.75671220e+00 -1.44391978e+00</_>
    <_>
      -4.15913045e-01 -4.39121842e-01 -3.49404514e-01 -3.66842151e-01
      -3.48938763e-01 3.28973770e-01 1.60701752e-01 2.56175518e-01</_>
    <_>
      2.41605330e+00 2.24478340e+00 2.01525784e+00 1.85520828e+00
      2.00915027e+00 -1.33988476e+00 -1.53461087e+00 -1.11930752e+00</_>
    <_>
      -5.86919785e-01 -6.54775739e-01 -6.08475447e-01 -4.01371598e-01
      -6.08072281e-01 1.90965652e-01 -2.03374147e-01 7.44113564e-01</_>
    <_>
      -4.86283720e-01 -5.50308943e-01 -3.85500312e-01 -3.87320042e-01
      -3.85591686e-01 -4.89768982e-01 8.31585646e-01 2.36151028e+00</_>
    <_>
      -4.29287165e-01 -4.63747233e-01 -3.36604536e-01 -3.71868461e-01
      -3.37660909e-01 2.19440460e-02 1.30475521e-01 3.89550447e-01</_>
    <_>
      1.19093847e+00 1.09830260e+00 1.82735431e+00 5.00064135e-01
      1.82998681e+00 -5.30867577e-01 8.50921631e-01 1.51285040e+00</_>
    <_>
      5.48989582e+00 5.03323174e+00 6.03776884e+00 7.67821932e+00
      6.03866339e+00 2.29473114e-01 -4.71211791e-01 -5.08041143e-01</_>
    <_>
      2.81895137e+00 2.45183635e+00 1.95868194e+00 2.16449118e+00
      1.95558071e+00 7.44714737e-01 -1.59100211e+00 -1.30709720e+00</_>
    <_>
      2.51424491e-01 1.87145531e-01 2.62944937e-01 -1.45131409e-01
      2.63651788e-01 5.38984299e-01 -6.74739122e-01 8.07887316e-02</_>
    <_>
      -2.08257318e-01 -2.42003620e-01 -2.17821062e-01 -3.16541255e-01
      -2.17193365e-01 1.94789886e-01 2.79134035e-01 1.40827048e+00</_>
    <_>
      -4.64650840e-01 -5.19056559e-01 -3.13820660e-01 -3.82139474e-01
      -3.13823760e-01 -3.53553772e-01 1.73722672e+00 1.48607886e+00</_>
    <_>
      4.29257679e+00 4.14384794e+00 3.00699759e+00 5.43195677e+00
      3.01005673e+00 1.14845467e+00 -1.57486808e+00 -1.24557185e+00</_>
    <_>
      4.91975498e+00 4.61411047e+00 4.99610949e+00 6.57427645e+00
      4.99674702e+00 8.81959915e-01 -9.93186235e-01 -9.25526381e-01</_>
    <_>
      -5.63630879e-01 -6.06758535e-01 -5.82875490e-01 -3.95537198e-01
      -5.82440853e-01 2.60499954e-01 5.98725080e-02 5.25432944e-01</_>
    <_>
      2.08185291e+00 2.02497745e+00 1.39369214e+00 1.54848516e+00
      1.39604712e+00 1.15301323e+00 -1.52492142e+00 -1.30539656e+00</_>
    <_>
      3.50490665e+00 3.15564537e+00 2.61224699e+00 3.36344361e+00
      2.61456418e+00 7.46215820e-01 -1.32710147e+00 -7.72572875e-01</_>
    <_>
      1.63569307e+00 2.74772835e+00 1.22370899e+00 2.64075065e+00
      1.22457314e+00 1.18704414e+00 -1.70026720e+00 -1.32527137e+00</_>
    <_>
      2.26986814e+00 2.00821400e+00 2.90664577e+00 1.52600622e+00
      2.91111946e+00 6.28568649e-01 -2.96728373e-01 -5.42478919e-01</_>
    <_>
      -1.17145658e-01 -1.59267902e-01 -3.16124618e-01 -2.90096045e-01
      -3.15617919e-01 1.14893913e+00 -1.31926084e+00 -1.19882703e+00</_>
    <_>
      -2.96116710e-01 -3.58929217e-01 -2.42140949e-01 -3.48538011e-01
      -2.41286874e-01 -6.27365112e-02 7.40484476e-01 1.82968616e-01</_>
    <_>
      -5.30872464e-01 -5.73776484e-01 -5.59323609e-01 -3.90914381e-01
      -5.59885204e-01 -8.35949898e-01 -8.93957973e-01 -3.18475842e-01</_>
    <_>
      -4.84092444e-01 -5.33444285e-01 -5.19131780e-01 -3.84580344e-01
      -5.18618643e-01 4.06869888e-01 -1.15553141e-02 4.76681352e-01</_>
    <_>
      4.70469761e+00 4.33889532e+00 3.62318707e+00 5.89338636e+00
      3.62649179e+00 1.01016235e+00 -1.57558560e+00 -1.08120775e+00</_>
    <_>
      6.19269907e-01 7.80770838e-01 6.86623216e-01 2.31805593e-01
      6.87338889e-01 8.43158722e-01 -6.04429841e-01 -9.28294957e-01</_>
    <_>
      -5.02317429e-01 -5.66843092e-01 -5.40891647e-01 -3.89878839e-01
      -5.40661693e-01 5.27608871e-01 -6.18154526e-01 -1.48875117e-01</_>
    <_>
      1.27265382e+00 1.10813141e+00 1.06268561e+00 5.09108901e-01
      1.06155729e+00 9.42855835e-01 -1.31673467e+00 -1.09837592e+00</_>
    <_>
      6.83705151e-01 6.10462248e-01 9.10366297e-01 1.07059687e-01
      9.10844743e-01 4.20715332e-01 2.18445063e-01 -1.82902336e-01</_>
    <_>
      -4.18197393e-01 -4.61146325e-01 -3.29180598e-01 -3.71350765e-01
      -3.28946233e-01 2.15663910e-01 6.38731480e-01 2.42730498e-01</_>
    <_>
      -3.66014212e-01 -3.85600626e-01 -3.22268605e-01 -3.54954571e-01
      -3.21513176e-01 2.55617142e-01 -1.75420046e-01 9.46063876e-01</_>
    <_>
      -3.25263321e-01 -3.96893829e-01 -2.52892911e-01 -3.57572734e-01
      -2.52308369e-01 -1.12588882e-01 7.41679668e-01 3.48311901e-01</_>
    <_>
      1.18869925e+00 9.20345366e-01 6.87391162e-01 3.44000965e-01
      6.88107789e-01 2.48445511e-01 -1.32213759e+00 -6.38403058e-01</_>
    <_>
      -1.92937851e-01 -1.28208876e-01 -2.28828967e-01 -2.79354513e-01
      -2.28214860e-01 1.03407288e+00 -1.22893906e+00 -1.14841580e+00</_>
    <_>
      -4.14942443e-01 -3.59563887e-01 -5.23739755e-01 -3.48694503e-01
      -5.25282800e-01 -1.82917404e+00 -1.18869841e+00 -8.39008391e-01</_>
    <_>
      -5.76844335e-01 -6.34524107e-01 -6.06939435e-01 -3.99040401e-01
      -6.06790662e-01 3.76348495e-01 4.78986502e-02 1.53319478e-01</_>
    <_>
      -2.86741197e-01 -2.85580933e-01 -2.59548843e-01 -3.29202354e-01
      -2.59228826e-01 6.21776581e-01 -1.77593589e-01 -3.17863107e-01</_>
    <_>
      -5.49326062e-01 -6.09960675e-01 -5.25787711e-01 -3.95959318e-01
      -5.25282800e-01 6.44474030e-02 -1.79903746e-01 6.88285947e-01</_>
    <_>
      1.66320825e+00 1.97995090e+00 9.40574169e-01 1.48839998e+00
      9.39295590e-01 -1.09966564e+00 -1.37116814e+00 -4.49558020e-01</_>
    <_>
      -3.59956652e-01 -4.24150079e-01 -3.34044576e-01 -3.63649696e-01
      -3.34072530e-01 -2.77305603e-01 2.07518816e-01 3.09267521e-01</_>
    <_>
      -3.47852767e-01 -4.18613881e-01 -2.25501001e-01 -3.62443060e-01
      -2.25395381e-01 -1.25373077e+00 1.06520033e+00 1.27838624e+00</_>
    <_>
      -3.52770001e-01 -4.29090112e-01 -2.80284762e-01 -3.64714473e-01
      -2.80502915e-01 -5.27324677e-02 5.90226889e-01 7.97383785e-02</_>
    <_>
      -5.68017781e-01 -6.19493008e-01 -5.87995529e-01 -3.97188008e-01
      -5.88079751e-01 1.94721222e-01 -1.23779774e-01 6.29639626e-02</_>
    <_>
      5.63770950e-01 5.40113151e-01 6.62815332e-01 5.94303310e-02
      6.62989080e-01 2.45098114e-01 -4.62966800e-01 5.26273847e-01</_>
    <_>
      -2.44787216e-01 -2.78593242e-01 -2.01437116e-01 -3.27231020e-01
      -2.01301873e-01 -4.72836494e-01 -3.79444718e-01 9.73461866e-02</_>
    <_>
      3.11716437e+00 2.84702897e+00 3.35362005e+00 2.80962014e+00
      3.35761857e+00 6.40186310e-01 -2.68414855e-01 -5.76604366e-01</_>
    <_>
      -3.11627626e-01 -3.93357158e-01 -1.92477167e-01 -3.56759131e-01
      -1.91561937e-01 -3.86139870e-01 9.80443001e-01 1.03234828e+00</_>
    <_>
      5.12825346e+00 4.79555178e+00 3.69947481e+00 7.04225063e+00
      3.70184827e+00 1.17347145e+00 -1.68388665e+00 -1.35931361e+00</_>
    <_>
      -5.36021471e-01 -5.91310620e-01 -5.64699590e-01 -3.93434376e-01
      -5.64242542e-01 4.82513428e-01 -6.46683693e-01 -5.14176726e-01</_>
    <_>
      1.01035213e+00 9.02839959e-01 1.21833289e+00 3.29437226e-01
      1.22072840e+00 8.77552032e-02 3.17702770e-01 1.34079850e+00</_>
    <_>
      -4.09733593e-01 -4.55170542e-01 -4.04444247e-01 -3.70149553e-01
      -4.03789967e-01 3.93962860e-01 -4.46065664e-01 -3.30322862e-01</_>
    <_>
      -3.25718462e-01 -3.97545666e-01 -3.51196468e-01 -3.57722074e-01
      -3.51501882e-01 -3.11177254e-01 -8.05357575e-01 -5.39901018e-01</_>
    <_>
      -6.30432606e-01 -6.94148958e-01 -5.76475501e-01 -4.05363232e-01
      -5.76032996e-01 -4.69769478e-01 1.05705357e+00 1.58915460e+00</_>
    <_>
      -5.68903625e-01 -6.28875017e-01 -6.05147421e-01 -3.98356408e-01
      -6.04996443e-01 3.32132339e-01 -6.72422171e-01 -2.59151936e-01</_>
    <_>
      1.82631302e+00 1.75377035e+00 2.00527382e+00 1.20070493e+00
      2.00376773e+00 9.85242844e-01 -8.14563751e-01 -1.05555177e+00</_>
    <_>
      9.49441373e-01 2.08174849e+00 6.26719475e-01 1.62557328e+00
      6.27874076e-01 7.52256393e-01 -1.10724080e+00 -3.35212469e-01</_>
    <_>
      -6.07315183e-01 -6.55469060e-01 -5.60091615e-01 -4.01448071e-01
      -5.60910463e-01 -2.15871906e+00 2.79969215e-01 6.07033134e-01</_>
    <_>
      4.70421219e+00 4.22244740e+00 3.46881962e+00 5.61579466e+00
      3.47321630e+00 8.80035400e-01 -1.48223257e+00 -9.53484237e-01</_>
    <_>
      4.73871899e+00 4.34849930e+00 5.91847324e+00 5.91655922e+00
      5.91306973e+00 6.73046112e-02 -4.12250161e-01 -5.98192513e-01</_>
    <_>
      1.74363494e+00 1.70882034e+00 1.11030138e+00 1.14633679e+00
      1.10897541e+00 4.05977249e-01 -1.61561799e+00 -1.32757163e+00</_>
    <_>
      7.58553326e-01 6.73143804e-01 1.25929272e+00 1.51418358e-01
      1.25789380e+00 1.21614456e-01 1.19205236e-01 -3.09712887e-02</_>
    <_>
      4.02630568e+00 3.69925690e+00 5.36116362e+00 4.44567299e+00
      5.36686468e+00 3.01795959e-01 -3.81172657e-01 2.65129328e-01</_>
    <_>
      -5.60377955e-01 -6.24739647e-01 -5.69819570e-01 -3.97846401e-01
      -5.70394039e-01 -2.80279160e-01 -3.20085406e-01 6.46840215e-01</_>
    <_>
      -3.15847397e-01 -3.05931270e-01 -2.35996962e-01 -3.34815383e-01
      -2.35904276e-01 1.71844482e-01 -1.20209694e-01 -7.29927361e-01</_>
    <_>
      -2.80180812e-01 -3.59292805e-01 -1.91709161e-01 -3.48627687e-01
      -1.91305637e-01 -1.11356735e-01 1.00631809e+00 1.20183551e+00</_>
    <_>
      4.21589553e-01 4.70367849e-01 5.38655758e-01 1.44601762e-02
      5.39958298e-01 6.28789902e-01 -7.26243258e-02 -7.44358957e-01</_>
    <_>
      4.06614256e+00 3.80945444e+00 3.76424265e+00 4.68164921e+00
      3.76720834e+00 2.45775223e-01 -1.24120355e+00 -9.10660207e-01</_>
    <_>
      4.31520343e-02 2.42529929e-01 5.04658222e-02 -1.16829365e-01
      5.14237881e-02 -1.16663265e+00 -1.55213833e-01 -2.89382696e-01</_>
    <_>
      -4.00101542e-01 -4.27339703e-01 -3.30716550e-01 -3.64338487e-01
      -3.31509411e-01 1.65082932e-01 4.74440098e-01 2.30193138e-03</_>
    <_>
      -3.45478833e-01 -4.03794318e-01 -2.27293015e-01 -3.59143585e-01
      -2.26933300e-01 -1.69658661e-02 1.18855429e+00 -1.53774619e-01</_>
    <_>
      -7.36688375e-02 -2.08032131e-03 4.81618643e-02 -2.31167659e-01
      4.83480096e-02 -4.98524666e-01 8.64657879e-01 3.83502674e+00</_>
    <_>
      2.24080157e+00 2.04480052e+00 1.30537260e+00 1.57523358e+00
      1.30813146e+00 7.98347473e-01 -1.39245522e+00 -4.30524230e-01</_>
    <_>
      -3.70181888e-01 -2.46257842e-01 -4.68443990e-01 -3.17815810e-01
      -4.73507375e-01 -3.73313904e+00 -1.26260436e+00 -1.04281640e+00</_>
    <_>
      -4.66163844e-01 -5.09939969e-01 -4.70235974e-01 -3.80543500e-01
      -4.69662666e-01 2.40125656e-01 -2.81554461e-02 8.04192185e-01</_>
    <_>
      -5.24983168e-01 -4.58862782e-01 -5.64699590e-01 -3.70893687e-01
      -5.65011501e-01 -1.03765163e+01 -1.36839473e+00 -9.22180116e-01</_>
    <_>
      -4.01614398e-01 -3.87607515e-01 -3.87804329e-01 -3.55424136e-01
      -3.87642145e-01 -5.00474072e+00 -8.42395782e-01 -8.29458535e-01</_>
    <_>
      5.81064892e+00 5.21471167e+00 7.08173275e+00 8.18133163e+00
      7.08365583e+00 4.36288834e-01 -2.18545794e-01 -3.88180137e-01</_>
    <_>
      -5.34489036e-01 -5.80581069e-01 -5.29371738e-01 -3.91909152e-01
      -5.29127479e-01 5.44357300e-03 -2.08153367e-01 3.40925455e-01</_>
    <_>
      4.03945637e+00 3.79585838e+00 2.90459776e+00 4.65223265e+00
      2.90881252e+00 1.00651932e+00 -1.62385309e+00 -1.01214039e+00</_>
    <_>
      -3.34552646e-01 -4.12140310e-01 -1.57917261e-01 -3.61014217e-01
      -1.57728493e-01 -4.97170448e-01 2.87134790e+00 1.57508695e+00</_>
    <_>
      -5.74350715e-01 -5.68918407e-01 -5.41659713e-01 -3.90191138e-01
      -5.41174293e-01 3.92631531e-01 -1.17934346e-01 -3.02102327e-01</_>
    <_>
      -2.08127201e-01 -2.31051981e-01 -1.50749326e-01 -3.13221812e-01
      -1.53883755e-01 1.49927139e-01 8.69369507e-03 -7.33911037e-01</_>
    <_>
      -3.81305426e-01 -4.27845448e-01 -2.37020969e-01 -3.64447266e-01
      -2.36416876e-01 -7.00749397e-01 1.46195245e+00 2.07221937e+00</_>
    <_>
      -3.54292929e-01 -2.58068562e-01 -3.94716322e-01 -3.21310610e-01
      -3.94306362e-01 -4.80358124e-01 -9.09298658e-01 -5.25237441e-01</_>
    <_>
      -4.22796756e-01 -4.67183173e-01 -3.57596457e-01 -3.72547567e-01
      -3.57140779e-01 -4.33824539e-01 8.24261904e-01 -3.33545089e-01</_>
    <_>
      -3.52756560e-01 -3.89629185e-01 -3.18428636e-01 -3.55895281e-01
      -3.19206297e-01 2.51073837e-01 -2.12080836e-01 -4.18404698e-01</_>
    <_>
      -4.94538724e-01 -5.20144939e-01 -4.09052253e-01 -3.82327437e-01
      -4.08916235e-01 -6.09397888e-02 1.67170382e+00 -6.18274927e-01</_>
    <_>
      -4.47941422e-01 -4.88339275e-01 -3.97532284e-01 -3.76609206e-01
      -3.96869481e-01 1.11770630e-02 9.01530266e-01 -5.33784866e-01</_>
    <_>
      -3.86872649e-01 -4.47224587e-01 -3.36860538e-01 -3.68526846e-01
      -3.36635709e-01 -1.53694153e-02 4.95322943e-01 6.57552600e-01</_>
    <_>
      -5.78936219e-01 -6.28511548e-01 -5.09915829e-01 -3.98311913e-01
      -5.10160327e-01 -1.11620331e+00 3.06301355e+00 1.71815050e+00</_>
    <_>
      -5.47227263e-01 -5.67345679e-01 -5.80827534e-01 -3.89954656e-01
      -5.81159234e-01 2.44743347e-01 -5.52515149e-01 -7.67693162e-01</_>
    <_>
      -4.81364310e-01 -5.34167051e-01 -4.12380219e-01 -3.84700447e-01
      -4.11735684e-01 2.70290375e-02 4.24577236e-01 8.60025287e-01</_>
    <_>
      -4.46015745e-01 -5.00301838e-01 -3.80636334e-01 -3.78814578e-01
      -3.80209088e-01 -1.59118652e-01 1.07725978e+00 5.48838973e-01</_>
    <_>
      -5.13419569e-01 -5.44223070e-01 -4.52828050e-01 -3.86346459e-01
      -4.52489614e-01 -1.52085972e+00 1.84177041e+00 6.33965850e-01</_>
    <_>
      -5.37974596e-01 -5.59665740e-01 -4.88411903e-01 -3.88783544e-01
      -4.88373578e-01 -1.34977722e+00 1.20860863e+00 5.96737981e-01</_>
    <_>
      -4.59426194e-01 -4.84337568e-01 -4.47964072e-01 -3.75856757e-01
      -4.47619647e-01 3.87170792e-01 -2.77259111e-01 3.49403620e-02</_>
    <_>
      -4.17391241e-01 -4.63049859e-01 -3.52220476e-01 -3.71729970e-01
      -3.53296101e-01 1.09680176e-01 9.31828260e-01 -5.00227213e-01</_>
    <_>
      -4.63485628e-01 -4.91169900e-01 -4.03164268e-01 -3.77137005e-01
      -4.02764678e-01 -1.70366287e-01 6.66756392e-01 1.49406672e-01</_>
    <_>
      -6.42022967e-01 -6.77301526e-01 -5.71099520e-01 -4.03742671e-01
      -5.70650399e-01 -7.29523659e-01 1.95559859e+00 2.49857569e+00</_>
    <_>
      -4.45483923e-01 -4.76315171e-01 -3.68604422e-01 -3.74326050e-01
      -3.68162334e-01 1.32741928e-01 1.54519200e+00 -9.10515785e-02</_>
    <_>
      -4.69275743e-01 -4.77333993e-01 -4.55388039e-01 -3.74522090e-01
      -4.54796463e-01 1.95461273e-01 4.19149637e-01 4.88959670e-01</_>
    <_>
      -4.63514864e-01 -5.31247318e-01 -3.68092418e-01 -3.84213805e-01
      -3.67649674e-01 -2.07941055e-01 1.19156575e+00 1.39196384e+00</_>
    <_>
      -3.88675302e-01 -4.37250346e-01 -2.52892911e-01 -3.66448730e-01
      -2.52052069e-01 -4.84120369e-01 2.06819439e+00 -1.26571178e-01</_>
    <_>
      -3.97218436e-01 -1.73711240e-01 -4.27228153e-01 -2.94939816e-01
      -4.32240814e-01 -2.61465645e+00 -1.21115017e+00 -1.33673346e+00</_>
    <_>
      -1.55347407e-01 -4.87374663e-02 -5.50057292e-02 -2.49846786e-01
      -5.39212823e-02 -5.08666420e+00 -4.99436736e-01 -8.83384526e-01</_>
    <_>
      -3.52726281e-01 -4.04825777e-01 -3.11260641e-01 -3.59376520e-01
      -3.10747981e-01 4.07011032e-01 -7.18004704e-02 -9.72689390e-02</_>
    <_>
      -3.79036844e-01 -4.29266572e-01 -2.72860825e-01 -3.64752293e-01
      -2.72813499e-01 -5.88703156e-02 1.24627948e+00 -7.30224848e-02</_>
    <_>
      -3.11525106e-01 -3.63491237e-01 -2.59292841e-01 -3.49658757e-01
      -2.58972526e-01 2.63248444e-01 -4.18306589e-02 -3.22129011e-01</_>
    <_>
      -7.35716343e-01 -7.82237530e-01 -7.37242877e-01 -4.11707699e-01
      -7.37254500e-01 -3.24012756e-01 5.46507835e-01 2.06252909e+00</_>
    <_>
      -4.14161831e-01 -4.73407388e-01 -3.51452470e-01 -3.73763919e-01
      -3.50732982e-01 -3.70431900e-01 2.31290817e-01 1.61228740e+00</_>
    <_>
      -4.56071079e-01 -5.02721369e-01 -3.98556292e-01 -3.79252642e-01
      -3.98920000e-01 -7.39212036e-01 6.71206236e-01 5.29762149e-01</_>
    <_>
      -4.68026817e-01 -5.00105023e-01 -4.20828193e-01 -3.78778845e-01
      -4.20706689e-01 -3.24867249e-01 7.03062057e-01 1.59172404e+00</_>
    <_>
      -4.04007703e-01 -4.63089496e-01 -3.68860424e-01 -3.71737838e-01
      -3.68674934e-01 1.95859909e-01 4.09106016e-02 9.83726621e-01</_>
    <_>
      -4.47535664e-01 -3.12638760e-01 -4.33372140e-01 -3.36623669e-01
      -4.33009744e-01 -1.00465622e+01 -9.89222348e-01 -9.69407916e-01</_>
    <_>
      -3.47128808e-01 -4.04400259e-01 -3.81916344e-01 -3.59280497e-01
      -3.81490648e-01 -2.19684601e-01 -4.91608739e-01 -3.92097354e-01</_>
    <_>
      -6.27943158e-01 -6.28456116e-01 -6.25627339e-01 -3.98305118e-01
      -6.25245273e-01 4.86028671e-01 -2.68662691e-01 -6.25645757e-01</_>
    <_>
      -4.02442753e-01 -4.06949520e-01 -2.90524721e-01 -3.59854549e-01
      -2.90499151e-01 -3.50933075e-01 2.87556219e+00 -4.08725142e-01</_>
    <_>
      -4.48920399e-01 -5.01583815e-01 -4.35932130e-01 -3.79047036e-01
      -4.39417601e-01 -1.61088085e+00 -5.85275412e-01 3.55292559e-02</_>
    <_>
      -6.69414699e-01 -7.22847104e-01 -6.90139055e-01 -4.07822728e-01
      -6.90092742e-01 5.00568390e-01 -4.05587554e-01 -1.12865925e-01</_>
    <_>
      -4.31953609e-01 -4.79820222e-01 -4.22364175e-01 -3.74998480e-01
      -4.22244579e-01 3.44984055e-01 -4.58283186e-01 2.15356827e-01</_>
    <_>
      -5.09032845e-01 -5.31300187e-01 -4.87131923e-01 -3.84222656e-01
      -4.86579388e-01 3.35762024e-01 2.50110388e-01 -8.34262371e-03</_>
    <_>
      -6.03735805e-01 -6.59970880e-01 -5.84923506e-01 -4.01939183e-01
      -5.85003972e-01 1.73954010e-01 -2.25832939e-01 7.31410146e-01</_>
    <_>
      7.95913935e-02 7.97508299e-01 -3.04092705e-01 2.44786173e-01
      -3.03571165e-01 -3.41389656e-01 -1.78233838e+00 -1.42651367e+00</_>
    <_>
      -3.61705959e-01 -4.24962521e-01 -2.38812923e-01 -3.63825589e-01
      -2.39236355e-01 -2.49675751e-01 7.19953775e-01 9.27455783e-01</_>
    <_>
      -6.37127399e-01 -6.71358824e-01 -5.93371511e-01 -4.03139830e-01
      -5.93974948e-01 -1.72462368e+00 6.61619902e-01 2.06942272e+00</_>
    <_>
      -5.96919656e-01 -6.10346377e-01 -6.08731389e-01 -3.96009862e-01
      -6.08328581e-01 5.20191193e-01 -2.13531256e-01 -7.37426043e-01</_>
    <_>
      -6.75633788e-01 -7.31298685e-01 -6.87835097e-01 -4.08474714e-01
      -6.87785923e-01 4.00476456e-01 8.26406479e-03 2.38731503e-01</_>
    <_>
      -3.97993684e-01 -4.28002596e-01 -2.95132697e-01 -3.64481032e-01
      -2.94856489e-01 1.28383636e-01 1.69606066e+00 -1.31042361e-01</_>
    <_>
      -4.34335321e-01 -4.40980285e-01 -3.52476478e-01 -3.67231220e-01
      -3.51758182e-01 8.77399445e-02 9.46582556e-01 -2.36557841e-01</_>
    <_>
      -5.33685505e-01 -5.61662197e-01 -5.48059702e-01 -3.89090598e-01
      -5.47582150e-01 5.98930359e-01 -8.52684975e-02 -4.57407355e-01</_>
    <_>
      -7.24753857e-01 -7.74193108e-01 -7.02171028e-01 -4.11276609e-01
      -7.01883197e-01 -9.06030655e-01 1.99357629e+00 3.05653811e+00</_>
    <_>
      -4.70535100e-01 -4.61107522e-01 -4.23644185e-01 -3.71343017e-01
      -4.23013508e-01 3.79045486e-01 4.66167927e-01 -1.06849432e-01</_>
    <_>
      -3.74793857e-01 -4.38981444e-01 -3.19708586e-01 -3.66812676e-01
      -3.19975257e-01 -1.00893021e-01 2.52104282e-01 4.55206037e-01</_>
    <_>
      -7.21738935e-01 -7.72447705e-01 -7.30330884e-01 -4.11179125e-01
      -7.30334044e-01 -4.73814011e-01 -1.20208263e-02 1.32597744e+00</_>
    <_>
      3.07579780e+00 2.66193843e+00 2.33551216e+00 2.49851418e+00
      2.33825755e+00 9.95080948e-01 -1.36072731e+00 -8.43785763e-01</_>
    <_>
      -2.19214559e-01 -2.63428688e-01 -2.20893025e-01 -3.22875470e-01
      -2.20269084e-01 6.48956299e-01 -7.51447201e-01 -3.63814831e-01</_>
    <_>
      -4.88467902e-01 -4.97043461e-01 -4.91995901e-01 -3.78220409e-01
      -4.92474616e-01 -1.65618992e+00 -3.57015371e-01 -1.69193864e-01</_>
    <_>
      -6.78376913e-01 -7.17698097e-01 -6.95259035e-01 -4.07409370e-01
      -6.95219040e-01 3.53366852e-01 -6.00810528e-01 -4.89840865e-01</_>
    <_>
      -7.38876343e-01 -7.89394259e-01 -7.42874861e-01 -4.12066162e-01
      -7.42637098e-01 -1.44994736e+00 4.67419624e-01 2.10279942e+00</_>
    <_>
      -4.71042246e-01 -4.93925720e-01 -4.49500084e-01 -3.77647310e-01
      -4.49926496e-01 5.69442749e-01 -1.75182104e-01 -7.20751107e-01</_>
    <_>
      -5.22890210e-01 -5.61057210e-01 -4.59228039e-01 -3.88997734e-01
      -4.58641171e-01 -2.62571335e-01 1.63167214e+00 1.41628397e+00</_>
    <_>
      -4.98463184e-01 -3.64058077e-01 -5.66747546e-01 -3.49797368e-01
      -5.67062020e-01 -1.58023357e+00 -1.40523839e+00 -9.56457794e-01</_>
    <_>
      -6.67884707e-01 -7.17369795e-01 -6.93467021e-01 -4.07382607e-01
      -6.93168521e-01 4.53691483e-01 -3.26531887e-01 -3.62395763e-01</_>
    <_>
      -3.60643446e-01 -4.28507775e-01 -2.27037013e-01 -3.64589542e-01
      -2.26420641e-01 -3.92255783e-01 7.84629107e-01 9.81122613e-01</_>
    <_>
      -5.88638723e-01 -6.40195549e-01 -5.42683721e-01 -3.99712294e-01
      -5.43224812e-01 -1.83376503e+00 1.86776805e+00 1.30392313e-01</_>
    <_>
      -2.47569382e-01 -1.01031244e-01 -3.36348534e-01 -2.69590765e-01
      -3.35866749e-01 1.06904411e+00 -1.19555557e+00 -1.20209765e+00</_>
    <_>
      -3.80082399e-01 -3.82746935e-01 -3.49916458e-01 -3.54283690e-01
      -3.50476623e-01 2.62348175e-01 -2.80437469e-01 -1.32672548e-01</_>
    <_>
      -5.40228367e-01 -5.70814133e-01 -4.73307967e-01 -3.90474647e-01
      -4.74020004e-01 -9.50679779e-02 1.35402918e-01 5.00974298e-01</_>
    <_>
      -6.41025484e-01 -6.92389429e-01 -6.66843176e-01 -4.05200094e-01
      -6.66768193e-01 -8.72669220e-01 -5.22745848e-01 -6.92773521e-01</_>
    <_>
      -4.88466561e-01 -5.38255811e-01 -4.50012058e-01 -3.85375351e-01
      -4.50695425e-01 -8.59578133e-01 -1.31302953e-01 3.29197526e-01</_>
    <_>
      -4.55171257e-01 -4.98238385e-01 -3.97788286e-01 -3.78438890e-01
      -3.97382081e-01 -9.07745361e-02 2.03851223e-01 7.00727820e-01</_>
    <_>
      -2.61834860e-01 -3.12207997e-01 -1.48445308e-01 -3.36508155e-01
      -1.48244858e-01 1.84043884e-01 3.55479240e-01 -2.07447410e-01</_>
    <_>
      -4.68810827e-01 -5.29215336e-01 -3.94972324e-01 -3.83872807e-01
      -3.95844221e-01 2.86674500e-03 3.97443771e-01 2.90049553e-01</_>
    <_>
      -3.20176840e-01 -3.90276432e-01 -2.96412706e-01 -3.56045723e-01
      -2.95625448e-01 2.39604950e-01 -1.71990633e-01 -1.33168697e-03</_>
    <_>
      -3.39300871e-01 -3.92918766e-01 -2.83612788e-01 -3.56657892e-01
      -2.82809734e-01 -1.57966614e-02 -1.70538545e-01 1.13435686e+00</_>
    <_>
      -7.14472950e-01 -7.66145051e-01 -6.89371049e-01 -4.10815477e-01
      -6.89580083e-01 -1.40817547e+00 2.46287394e+00 2.54163837e+00</_>
    <_>
      -7.00583816e-01 -7.50090420e-01 -7.13690996e-01 -4.09806520e-01
      -7.13929951e-01 2.78749466e-01 -4.29700613e-02 4.14367795e-01</_>
    <_>
      -5.91090560e-01 -6.43181443e-01 -6.05147421e-01 -4.00060087e-01
      -6.06534362e-01 9.10530090e-02 -2.48150349e-01 6.88624740e-01</_>
    <_>
      -4.57241476e-01 -4.97856379e-01 -3.70908380e-01 -3.78369123e-01
      -3.70469153e-01 -5.33256531e-02 1.71525741e+00 -1.19758487e-01</_>
    <_>
      -4.22548324e-01 -4.63413507e-01 -3.36092532e-01 -3.71802211e-01
      -3.35866749e-01 1.66835785e-01 1.18741536e+00 -3.51471901e-01</_>
    <_>
      -4.03271794e-01 -4.45655137e-01 -3.24828565e-01 -3.68202865e-01
      -3.24845254e-01 -1.80379868e-01 7.00520754e-01 1.38378870e+00</_>
    <_>
      -6.71368241e-01 -7.13664532e-01 -6.85531080e-01 -4.07077014e-01
      -6.85735404e-01 -2.84746742e+00 -3.91867280e-01 -4.69812036e-01</_>
    <_>
      -6.64112866e-01 -7.16103733e-01 -5.81083536e-01 -4.07278895e-01
      -5.80902934e-01 -1.57009125e+00 2.46958208e+00 4.28570032e+00</_>
    <_>
      -4.29361790e-01 -4.77193177e-01 -2.92060733e-01 -3.74495029e-01
      -2.91524410e-01 -6.01838112e-01 2.48479891e+00 2.60559916e-01</_>
    <_>
      -4.36665565e-01 -5.00302911e-01 -3.39676559e-01 -3.78814787e-01
      -3.39455128e-01 -1.14110947e-01 7.29789257e-01 2.50552297e-01</_>
    <_>
      -4.53526795e-01 -5.10992885e-01 -3.71676385e-01 -3.80729765e-01
      -3.72263312e-01 -9.44042206e-02 4.58163500e-01 2.20704079e-01</_>
    <_>
      -6.62845969e-01 -7.16457188e-01 -6.88859105e-01 -4.07307923e-01
      -6.88554883e-01 5.13473511e-01 -7.82844186e-01 -5.18789411e-01</_>
    <_>
      -5.52046657e-01 -5.16589940e-01 -6.08219385e-01 -3.81711423e-01
      -6.09097481e-01 -1.25124931e+00 -1.06056726e+00 -1.11891198e+00</_>
    <_>
      -5.10664701e-01 -5.65366447e-01 -4.56412047e-01 -3.89655441e-01
      -4.55821693e-01 5.54466248e-02 2.21672297e-01 2.17119455e-01</_>
    <_>
      -6.69092298e-01 -7.21045375e-01 -6.88347101e-01 -4.07679468e-01
      -6.88298523e-01 -2.07660675e-01 -3.88577819e-01 1.27725124e-01</_>
    <_>
      -4.65314448e-01 -4.87846375e-01 -3.67324412e-01 -3.76516938e-01
      -3.66624415e-01 -8.71605873e-01 2.30925560e+00 -1.66165590e-01</_>
    <_>
      -4.73811895e-01 -4.93614703e-01 -3.92156303e-01 -3.77589881e-01
      -3.92255843e-01 -1.36623955e+00 9.66697931e-01 5.45571685e-01</_>
    <_>
      -6.95739686e-01 -7.46314764e-01 -7.14203000e-01 -4.09552008e-01
      -7.14186251e-01 2.95814514e-01 -5.20867109e-02 2.14354515e-01</_>
    <_>
      -5.45679927e-01 -3.27811658e-01 -6.42267227e-01 -3.40637624e-01
      -6.42162025e-01 1.25057793e+00 -1.44301355e+00 -1.17980075e+00</_>
    <_>
      -7.34108865e-01 -7.84535348e-01 -7.36218870e-01 -4.11825359e-01
      -7.36229300e-01 -4.66297150e-01 1.42155290e+00 2.46152353e+00</_>
    <_>
      -2.85973668e-01 -3.37514460e-01 -2.67228842e-01 -3.43148917e-01
      -2.67174602e-01 3.93321991e-01 -1.19371533e-01 -8.20259809e-01</_>
    <_>
      -7.24974394e-01 -7.74752259e-01 -7.29306936e-01 -4.11307544e-01
      -7.29308784e-01 -3.06854248e-01 7.89126158e-01 2.12704229e+00</_>
    <_>
      -4.08516258e-01 -4.42148358e-01 -3.72700393e-01 -3.67474943e-01
      -3.73288572e-01 -1.01318073e+00 -3.01309109e-01 5.41669130e-02</_>
    <_>
      -6.56543851e-01 -7.06069469e-01 -6.78363085e-01 -4.06430900e-01
      -6.78045988e-01 -3.08502197e-01 -7.73473382e-01 -6.56182945e-01</_>
    <_>
      -5.03071785e-01 -5.58647156e-01 -3.79868388e-01 -3.88626188e-01
      -3.80209088e-01 -6.84996605e-01 1.62667775e+00 1.32327878e+00</_>
    <_>
      -5.01441836e-01 -5.58336020e-01 -4.83035922e-01 -3.88578027e-01
      -4.82734680e-01 2.33789444e-01 -2.16766357e-01 5.18859982e-01</_>
    <_>
      -4.67573315e-01 -4.90945816e-01 -4.10076231e-01 -3.77095371e-01
      -4.09685194e-01 1.95575714e-01 2.15790272e-01 3.91048670e-01</_>
    <_>
      -4.63424087e-01 -4.75114793e-01 -4.55388039e-01 -3.74094486e-01
      -4.56334323e-01 8.79135132e-02 -4.31920409e-01 -6.82207227e-01</_>
    <_>
      -4.28030342e-01 -4.34706777e-01 -4.50268060e-01 -3.65911454e-01
      -4.49926496e-01 6.87423706e-01 -4.07385707e-01 -8.01877141e-01</_>
    <_>
      -4.48900223e-01 -5.20924449e-01 -3.47356498e-01 -3.82461756e-01
      -3.46888244e-01 -2.64148712e-01 8.94335270e-01 9.27340150e-01</_>
    <_>
      -4.42130774e-01 -4.69229549e-01 -4.22620177e-01 -3.72949451e-01
      -4.22500879e-01 2.67906189e-01 4.91501808e-01 -2.84211636e-01</_>
    <_>
      -4.94180709e-01 -5.51617086e-01 -4.51804072e-01 -3.87527078e-01
      -4.51464355e-01 -1.67188644e-01 1.59092903e-01 1.02534664e+00</_>
    <_>
      -4.19818819e-01 -4.29917663e-01 -3.79356384e-01 -3.64891738e-01
      -3.83284807e-01 1.09716415e-01 1.49975610e+00 -4.38548088e-01</_>
    <_>
      -3.86102289e-01 -4.40000087e-01 -2.91548729e-01 -3.67026210e-01
      -2.91268110e-01 1.38650894e-01 5.79849005e-01 3.10844779e-01</_>
    <_>
      -2.84393251e-01 -3.27884674e-01 -2.07325101e-01 -3.40656698e-01
      -2.06940770e-01 2.97410965e-01 -1.14811063e-01 -3.43416214e-01</_>
    <_>
      -3.00345242e-01 -2.03638196e-01 -4.50524062e-01 -3.04670364e-01
      -4.53002244e-01 4.71977234e-01 -1.42920995e+00 -1.13007724e+00</_>
    <_>
      -6.36599302e-01 -6.91599250e-01 -5.97979426e-01 -4.05126363e-01
      -5.98332286e-01 -7.58015633e-01 1.54013157e+00 1.69054306e+00</_>
    <_>
      -3.47034693e-01 -4.05916989e-01 -3.00508678e-01 -3.59622389e-01
      -3.00751686e-01 -1.78021622e+00 -2.06961870e-01 1.21359944e-01</_>
    <_>
      -5.44852078e-01 -5.32668829e-01 -5.38843691e-01 -3.84451210e-01
      -5.39636374e-01 -9.50122833e-01 -5.62724471e-01 -7.29141235e-01</_>
    <_>
      -3.90153497e-01 -4.36678827e-01 -2.77468801e-01 -3.66328269e-01
      -2.77427137e-01 -8.80791664e-01 7.38712788e-01 1.91829085e-01</_>
    <_>
      -4.11955446e-01 -4.74156737e-01 -3.16124618e-01 -3.73909175e-01
      -3.15617919e-01 -1.53865814e-02 8.19679260e-01 7.77172923e-01</_>
    <_>
      -5.94633579e-01 -5.74120402e-01 -6.39963269e-01 -3.90965164e-01
      -6.42674685e-01 -4.00235844e+00 -1.05158138e+00 -7.66732335e-01</_>
    <_>
      -6.26937330e-01 -6.31867170e-01 -6.09755397e-01 -3.98720533e-01
      -6.12173259e-01 -3.19700527e+00 2.00556278e-01 2.74980783e-01</_>
    <_>
      -3.99902374e-01 -4.13664430e-01 -3.65532398e-01 -3.61352354e-01
      -3.66624415e-01 1.23914719e-01 7.32257605e-01 -9.13903892e-01</_>
    <_>
      -3.23816359e-01 -3.60118866e-01 -1.55357301e-01 -3.48831207e-01
      -1.59779012e-01 -1.23625469e+00 7.71221876e-01 1.57401836e+00</_>
    <_>
      -2.19038486e-01 -2.49954641e-01 -1.76093221e-01 -3.18916619e-01
      -1.75926805e-01 9.73587036e-02 -2.34991670e-01 2.04551935e-01</_>
    <_>
      -3.12943816e-01 -3.46581697e-01 -2.60316849e-01 -3.45456511e-01
      -2.59741485e-01 3.85591507e-01 3.89247417e-01 -8.03543329e-02</_>
    <_>
      -3.68300110e-01 -4.13906425e-01 -2.82844782e-01 -3.61405939e-01
      -2.82553434e-01 1.31103516e-01 1.04551935e+00 6.94870949e-04</_>
    <_>
      -7.10818648e-01 -7.63867080e-01 -6.87579095e-01 -4.10679549e-01
      -6.88042223e-01 -2.48867607e+00 1.45360899e+00 3.89769936e+00</_>
    <_>
      -5.83968759e-01 -6.15654111e-01 -5.17083764e-01 -3.96698207e-01
      -5.17593384e-01 -8.19256783e-01 2.00716400e+00 1.39123261e+00</_>
    <_>
      -4.52218711e-01 -4.90104824e-01 -3.72700393e-01 -3.76938850e-01
      -3.72519672e-01 -1.62017822e-01 8.29585075e-01 1.28907025e+00</_>
    <_>
      -7.20593691e-01 -7.69627213e-01 -7.00635016e-01 -4.11018670e-01
      -7.00601578e-01 -6.24954224e-01 1.05146027e+00 3.83899689e+00</_>
    <_>
      -4.22172457e-01 -4.67128813e-01 -3.15356612e-01 -3.72536868e-01
      -3.15361619e-01 -6.32914543e-01 7.30233669e-01 4.30648327e-02</_>
    <_>
      -3.61153811e-01 -3.79025280e-01 -2.47772932e-01 -3.53403121e-01
      -2.46925771e-01 -1.18253517e+00 -4.44569588e-02 -3.54531169e-01</_>
    <_>
      -3.08629870e-01 -3.33931446e-01 -2.60572851e-01 -3.42226624e-01
      -2.59741485e-01 6.05722427e-01 -8.43191028e-01 -4.42010999e-01</_>
    <_>
      -3.47609043e-01 -4.03140515e-01 -3.26364577e-01 -3.58995706e-01
      -3.27152073e-01 4.57267761e-01 -5.67989349e-02 -3.74202490e-01</_>
    <_>
      -4.24953043e-01 -4.95610029e-01 -3.41468513e-01 -3.77957493e-01
      -3.40993047e-01 -4.22466278e-01 5.26680708e-01 1.10865295e+00</_>
    <_>
      -5.04209936e-01 -5.26451111e-01 -4.86875921e-01 -3.83405864e-01
      -4.87092018e-01 2.77591705e-01 2.19715118e-01 6.31225467e-01</_>
    <_>
      -4.57812160e-01 -4.94636714e-01 -3.57852459e-01 -3.77778411e-01
      -3.57397139e-01 -3.15445900e-01 1.97913289e+00 5.56331277e-01</_>
    <_>
      -7.35355794e-01 -7.87029266e-01 -7.41850853e-01 -4.11950320e-01
      -7.41868138e-01 -3.55840683e-01 8.74213696e-01 2.89414883e+00</_>
    <_>
      -5.71123123e-01 -5.94378531e-01 -4.98139858e-01 -3.93860728e-01
      -4.97857213e-01 -3.92618179e-01 2.54505634e+00 1.33159411e+00</_>
    <_>
      -7.34122157e-01 -7.86513209e-01 -7.40058839e-01 -4.11924690e-01
      -7.40073979e-01 -4.00171280e-01 5.41704178e-01 2.93148851e+00</_>
    <_>
      -5.28664708e-01 -5.55261493e-01 -4.40540105e-01 -3.88099700e-01
      -4.40186560e-01 -8.89358521e-01 2.72959518e+00 2.30838490e+00</_>
    <_>
      -4.26802754e-01 -4.60457265e-01 -3.25852573e-01 -3.71213108e-01
      -3.25357854e-01 -6.56796455e-01 2.00898647e+00 -4.67612743e-02</_>
    <_>
      -4.31445122e-01 -4.58430320e-01 -3.70396376e-01 -3.70806873e-01
      -3.69956493e-01 -3.97937775e-01 9.80825424e-02 8.16104531e-01</_>
    <_>
      -2.91386247e-01 -3.64660442e-01 -2.11933076e-01 -3.49944472e-01
      -2.11810768e-01 -5.59709549e-01 8.56405020e-01 5.28674006e-01</_>
    <_>
      -6.76261067e-01 -7.25083411e-01 -6.89883053e-01 -4.07998443e-01
      -6.89580083e-01 -1.85720730e+00 -3.45900178e-01 3.59965444e-01</_>
    <_>
      -4.66052383e-01 -4.75526482e-01 -4.22620177e-01 -3.74173969e-01
      -4.22244579e-01 -2.44630814e-01 4.61968184e-01 8.44112754e-01</_>
    <_>
      -6.46565795e-01 -6.46837175e-01 -6.51995182e-01 -4.00480300e-01
      -6.52158260e-01 -3.04047012e+00 -4.26269889e-01 -6.48507953e-01</_>
    <_>
      -5.28979897e-01 -5.24528980e-01 -5.27323723e-01 -3.83079112e-01
      -5.27077019e-01 5.00766754e-01 5.40971756e-02 -2.44404078e-01</_>
    <_>
      -5.45897305e-01 -5.89171946e-01 -4.67164010e-01 -3.93134594e-01
      -4.67612147e-01 -7.71381378e-01 2.46177387e+00 1.21073878e+00</_>
    <_>
      -3.59390497e-01 -3.92269015e-01 -2.88732767e-01 -3.56507659e-01
      -2.88704932e-01 2.66670227e-01 7.66306639e-01 -3.16149354e-01</_>
    <_>
      -2.30328560e-01 -2.92393208e-01 -1.55869305e-01 -3.31102550e-01
      -1.55421674e-01 -3.06146622e-01 -1.00264072e-01 -2.94898033e-01</_>
    <_>
      -5.84889889e-01 -6.24413610e-01 -5.30651689e-01 -3.97805870e-01
      -5.30152798e-01 -8.88830185e-01 1.72657895e+00 1.07195246e+00</_>
    <_>
      -7.14048982e-01 -7.65876055e-01 -6.83227062e-01 -4.10799563e-01
      -6.83172226e-01 -1.58567333e+00 2.64323759e+00 3.65373468e+00</_>
    <_>
      -4.51399416e-01 -4.93199140e-01 -3.41468513e-01 -3.77513111e-01
      -3.43299866e-01 -3.40606689e-01 1.13304281e+00 3.67620945e-01</_>
    <_>
      -5.16989887e-01 -5.36926270e-01 -5.01467824e-01 -3.85156721e-01
      -5.01445591e-01 -5.28483391e-01 -3.29629421e-01 -3.98169279e-01</_>
    <_>
      -3.62928033e-01 -4.40645665e-01 -3.06652665e-01 -3.67161274e-01
      -3.06903243e-01 -2.11418152e-01 7.27200508e-03 9.52578664e-01</_>
    <_>
      -3.56969953e-01 -3.88454854e-01 -1.88381135e-01 -3.55621845e-01
      -1.87973559e-01 -2.74011612e-01 1.44392991e+00 1.72118294e+00</_>
    <_>
      -7.36529231e-01 -7.88062394e-01 -7.32122898e-01 -4.12001222e-01
      -7.32128263e-01 -1.84685612e+00 1.56096745e+00 1.41420090e+00</_>
    <_>
      -7.12988377e-01 -7.57194459e-01 -7.32378900e-01 -4.10267621e-01
      -7.32128263e-01 2.87897110e-01 -3.14403772e-01 4.71368909e-01</_>
    <_>
      -7.41803825e-01 -7.95110226e-01 -7.43898869e-01 -4.12335515e-01
      -7.43918657e-01 -1.14437389e+00 1.01920271e+00 4.11742353e+00</_>
    <_>
      -4.06341165e-01 -4.29336071e-01 -3.39932501e-01 -3.64767194e-01
      -3.40993047e-01 -1.97372437e-01 3.22664022e-01 -5.18069506e-01</_>
    <_>
      -6.58974946e-01 -7.10428178e-01 -5.98491430e-01 -4.06804949e-01
      -5.98075986e-01 -1.15391445e+00 1.41903424e+00 3.31472826e+00</_>
    <_>
      -4.89295572e-01 -5.37836730e-01 -4.30556148e-01 -3.85306507e-01
      -4.29933995e-01 1.26934052e-02 1.87344551e-01 1.93127632e-01</_>
    <_>
      -7.28581667e-01 -7.80727208e-01 -7.11130977e-01 -4.11629021e-01
      -7.10854173e-01 -1.87849617e+00 2.19253540e+00 2.86220312e+00</_>
    <_>
      -4.41347301e-01 -4.70189691e-01 -4.05980259e-01 -3.73137355e-01
      -4.05327857e-01 2.09474564e-01 2.88947344e-01 3.72996211e-01</_>
    <_>
      -2.44136691e-01 -2.87103891e-01 -1.90429151e-01 -3.29629004e-01
      -1.89767718e-01 4.42289352e-01 -1.94452524e-01 -2.58622289e-01</_>
    <_>
      -4.41401601e-01 -4.56840456e-01 -3.80636334e-01 -3.70486915e-01
      -3.80209088e-01 1.28095627e-01 9.09454584e-01 -4.87702131e-01</_>
    <_>
      -4.74959135e-01 -4.78332937e-01 -4.50780064e-01 -3.74713838e-01
      -4.50182796e-01 -1.47806168e-01 3.77945900e-02 -1.81334496e-01</_>
    <_>
      -4.63365793e-01 -4.90285158e-01 -4.23900187e-01 -3.76972437e-01
      -4.23782468e-01 3.07765961e-01 2.07597971e-01 -4.50937629e-01</_>
    <_>
      -6.89190805e-01 -7.28078008e-01 -7.17786968e-01 -4.08230156e-01
      -7.17518330e-01 5.06828308e-01 -6.14205480e-01 -2.62551546e-01</_>
    <_>
      -4.66343880e-01 -3.74825418e-01 -4.85339910e-01 -3.52401733e-01
      -4.90424097e-01 -2.51189327e+00 -1.13834405e+00 -1.26456320e+00</_>
    <_>
      -4.50022578e-01 -4.56544250e-01 -4.40284103e-01 -3.70427161e-01
      -4.41211820e-01 1.64196014e-01 -1.88529611e-01 -6.29265606e-01</_>
    <_>
      -4.87771988e-01 -5.13199568e-01 -4.52572048e-01 -3.81118536e-01
      -4.52745944e-01 2.31502533e-01 1.19907379e-01 -2.70907879e-01</_>
    <_>
      -4.58888263e-01 -5.24872899e-01 -3.73980403e-01 -3.83137703e-01
      -3.73801231e-01 -6.25556946e-01 8.72984171e-01 1.50412047e+00</_>
    <_>
      -4.83453363e-01 -4.76562113e-01 -4.76379961e-01 -3.74373615e-01
      -4.76070523e-01 3.75272751e-01 -1.01296902e-01 -5.74166775e-01</_>
    <_>
      -3.50309491e-01 -3.99320573e-01 -2.74908781e-01 -3.58127683e-01
      -2.74864018e-01 5.21965027e-02 2.37041473e-01 2.73316979e-01</_>
    <_>
      -3.65393102e-01 -4.20210868e-01 -3.80380332e-01 -3.62792581e-01
      -3.79952729e-01 6.49002075e-01 -7.15302944e-01 -5.81309319e-01</_>
    <_>
      -7.42003858e-01 -7.92104721e-01 -7.39290833e-01 -4.12195742e-01
      -7.39305019e-01 -1.24391174e+00 2.14137459e+00 3.76923943e+00</_>
    <_>
      2.46042013e-02 5.03018081e-01 -2.07581103e-01 3.52332890e-02
      -2.08478689e-01 -5.60003853e+00 -1.69991183e+00 -1.44541299e+00</_>
    <_>
      -5.06741405e-01 -4.68252838e-01 -5.05819798e-01 -3.72757882e-01
      -5.05802989e-01 5.77596664e-01 -3.64011765e-01 -5.73360145e-01</_>
    <_>
      -5.18684268e-01 -5.68771064e-01 -4.22364175e-01 -3.90169024e-01
      -4.22500879e-01 -2.77490616e-01 1.44968534e+00 1.25153673e+00</_>
    <_>
      -3.61419380e-01 -3.87233198e-01 -3.36348534e-01 -3.55336696e-01
      -3.35866749e-01 2.82102585e-01 5.47494888e-01 -7.48211145e-02</_>
    <_>
      -4.31787014e-01 -4.83406812e-01 -3.71932387e-01 -3.75680685e-01
      -3.72007012e-01 -1.67739201e+00 9.38208342e-01 -4.70948219e-01</_>
    <_>
      -4.50597614e-01 -4.94858295e-01 -4.04956251e-01 -3.77819210e-01
      -4.04302597e-01 -6.71565056e-01 1.02434516e+00 2.32317686e+00</_>
    <_>
      -7.30973959e-01 -7.80363142e-01 -7.27002919e-01 -4.11609918e-01
      -7.26745665e-01 -2.73271942e+00 1.02378154e+00 2.62170315e+00</_>
    <_>
      -3.36926222e-01 -3.96760285e-01 -2.60316849e-01 -3.57542127e-01
      -2.60254085e-01 2.05711365e-01 -1.87810302e-01 6.45759106e-02</_>
    <_>
      -3.32663417e-01 -3.73742461e-01 -2.86428750e-01 -3.52142215e-01
      -2.85629213e-01 4.86053467e-01 7.46982098e-02 1.58392668e-01</_>
    <_>
      -5.31119764e-01 -5.84516764e-01 -4.72027987e-01 -3.92474771e-01
      -4.72994745e-01 -2.38389969e-01 1.07251549e+00 1.52529538e+00</_>
    <_>
      -2.84256220e-01 -1.07331336e-01 -3.55036438e-01 -2.71884382e-01
      -3.55090320e-01 1.05604362e+00 -1.09313786e+00 -1.15484118e+00</_>
    <_>
      -5.54261088e-01 -6.01763308e-01 -5.36027670e-01 -3.94869268e-01
      -5.35791695e-01 -8.43429565e-03 -1.16581917e-02 4.03382540e-01</_>
    <_>
      -6.39806628e-01 -6.47338033e-01 -6.18459344e-01 -4.00537372e-01
      -6.18324816e-01 -1.93456650e+00 7.93486834e-01 1.25050700e+00</_>
    <_>
      -4.81613934e-01 -5.03844142e-01 -4.48220074e-01 -3.79455000e-01
      -4.50182796e-01 2.10666656e-01 -7.62553215e-02 -9.39201117e-02</_>
    <_>
      -4.57846105e-01 -4.82784092e-01 -4.31324154e-01 -3.75562668e-01
      -4.30702925e-01 1.02516174e-01 3.68525505e-01 5.55198789e-01</_>
    <_>
      -5.44949770e-01 -5.97514331e-01 -4.83035922e-01 -3.94292057e-01
      -4.82991010e-01 -5.47461510e-01 2.46014118e+00 2.28682852e+00</_>
    <_>
      -5.34526348e-01 -5.09822547e-01 -5.31931758e-01 -3.80522698e-01
      -5.31947017e-01 4.09095764e-01 -1.18218184e-01 -4.22902346e-01</_>
    <_>
      -4.22246754e-01 -4.27144170e-01 -3.31228554e-01 -3.64296377e-01
      -3.30996752e-01 2.13832855e-01 1.37529302e+00 -2.92963982e-02</_>
    <_>
      -5.01682639e-01 -5.23360014e-01 -4.71259981e-01 -3.82879555e-01
      -4.71456856e-01 -2.01335907e-01 -1.07262015e-01 1.50375366e-01</_>
    <_>
      -3.38606536e-01 -3.94870192e-01 -3.07164669e-01 -3.57107908e-01
      -3.07415903e-01 4.72152710e-01 -4.50218916e-01 -3.86705399e-02</_>
    <_>
      -4.65970039e-01 -5.08913755e-01 -4.14940208e-01 -3.80361438e-01
      -4.14555162e-01 -5.74826241e-01 9.20188427e-01 8.53781581e-01</_>
    <_>
      -4.06782746e-01 -4.65215236e-01 -3.32508564e-01 -3.72159272e-01
      -3.32534671e-01 -3.17597389e-01 3.77492428e-01 2.24729300e-01</_>
    <_>
      -5.09423673e-01 -5.13562918e-01 -4.90715891e-01 -3.81182313e-01
      -4.90167797e-01 6.25600815e-01 3.06974649e-01 -6.56539202e-02</_>
    <_>
      -5.64788401e-01 -5.81291199e-01 -4.90971893e-01 -3.92011732e-01
      -4.91705686e-01 -3.13534451e+00 9.56911802e-01 7.73610473e-01</_>
    <_>
      -6.88714623e-01 -7.09997714e-01 -6.81947112e-01 -4.06768411e-01
      -6.81890666e-01 -3.46674538e+00 8.41879845e-01 1.17633879e+00</_>
    <_>
      -3.68395895e-01 -4.28708255e-01 -2.82332778e-01 -3.64632577e-01
      -2.82297134e-01 2.51573563e-01 2.09548235e-01 1.95790410e-01</_>
    <_>
      -4.17246342e-01 -4.21583056e-01 -3.12028646e-01 -3.63091946e-01
      -3.13054800e-01 -5.87201118e-01 1.05019903e+00 -1.82469726e-01</_>
    <_>
      -4.30788040e-01 -4.60576236e-01 -3.74748409e-01 -3.71236891e-01
      -3.74826491e-01 -3.72428894e-02 2.73884535e-01 1.48415565e-03</_>
    <_>
      -3.64648283e-01 -4.13338602e-01 -2.41116941e-01 -3.61280143e-01
      -2.41543174e-01 -3.21932793e-01 1.46516180e+00 -4.98026967e-01</_>
    <_>
      -5.61931133e-01 -5.97857118e-01 -4.87899899e-01 -3.94338936e-01
      -4.88117278e-01 -1.74854088e+00 2.66159582e+00 1.62182415e+00</_>
    <_>
      -4.89833653e-01 -5.07991433e-01 -4.32604134e-01 -3.80197406e-01
      -4.33009744e-01 -2.41001129e-01 7.59247065e-01 1.67990458e+00</_>
    <_>
      -5.94611049e-01 -6.44943595e-01 -5.09659827e-01 -4.00263399e-01
      -5.09135008e-01 -6.49650574e-01 1.82208037e+00 1.91654456e+00</_>
    <_>
      -4.31379586e-01 -4.26597297e-01 -3.66044402e-01 -3.64178568e-01
      -3.65599155e-01 -6.49051666e-02 1.23744941e+00 1.25950098e-01</_>
    <_>
      -1.25262558e-01 -1.83119595e-01 -1.74301207e-01 -2.98043340e-01
      -1.74132586e-01 4.32878494e-01 -6.77322745e-01 -3.42111945e-01</_>
    <_>
      -3.82977277e-01 -3.88590217e-01 -2.76956797e-01 -3.55653405e-01
      -2.76401877e-01 7.36045837e-02 1.45995069e+00 -5.52205205e-01</_>
    <_>
      -4.12656903e-01 -4.46504503e-01 -3.54524493e-01 -3.68378341e-01
      -3.54065061e-01 1.84707642e-01 6.30108595e-01 -4.11553860e-01</_>
    <_>
      -3.84882420e-01 -3.78823757e-01 -2.95388699e-01 -3.53355259e-01
      -2.95112789e-01 -8.19026947e-01 1.58902740e+00 -6.53834641e-01</_>
    <_>
      -3.28153491e-01 -3.63833725e-01 -1.83261156e-01 -3.49742532e-01
      -1.82590961e-01 -4.31808472e-01 3.76976490e-01 1.76948428e-01</_>
    <_>
      -4.14129734e-01 -4.61267740e-01 -3.61948431e-01 -3.71375024e-01
      -3.61754477e-01 -1.46163940e-01 2.80716181e-01 4.34484482e-02</_>
    <_>
      -4.20713753e-01 -3.29714537e-01 -4.83547926e-01 -3.41133535e-01
      -4.85297829e-01 -1.35254002e+00 -1.28784299e+00 -1.25355434e+00</_>
    <_>
      -3.99625838e-01 -3.88182819e-01 -3.65532398e-01 -3.55558395e-01
      -3.65086555e-01 5.42663574e-01 1.56013250e-01 -3.90395284e-01</_>
    <_>
      -2.96238422e-01 -3.31457913e-01 -1.92733169e-01 -3.41586441e-01
      -1.92587197e-01 3.59464645e-01 7.32103825e-01 2.49063015e-01</_>
    <_>
      -4.10688043e-01 -4.38355714e-01 -3.78588378e-01 -3.66681278e-01
      -3.78671169e-01 1.54037476e-02 -1.58489823e-01 -4.66964960e-01</_>
    <_>
      -4.96032417e-01 -5.10512948e-01 -4.58716035e-01 -3.80644917e-01
      -4.58384842e-01 5.14747620e-01 -6.05226755e-02 1.47975445e-01</_>
    <_>
      -2.29373932e-01 -2.17312217e-01 -1.68157220e-01 -3.08979124e-01
      -1.71825767e-01 -1.54930687e+00 -4.78977084e-01 -7.48258710e-01</_>
    <_>
      -2.51503885e-01 -2.57121027e-01 -1.04413509e-01 -3.21032614e-01
      -1.04415178e-01 5.47237396e-02 1.66551042e+00 -6.37013137e-01</_>
    <_>
      -3.08171630e-01 -3.39995921e-01 -2.10653067e-01 -3.43784213e-01
      -2.09760249e-01 -1.00889206e-01 -1.13223791e-02 5.11451364e-01</_>
    <_>
      -4.74436194e-01 -5.05423605e-01 -3.91388297e-01 -3.79738688e-01
      -3.90717924e-01 -1.93557739e-01 2.25761700e+00 -1.88004971e-02</_>
    <_>
      -4.24470782e-01 -4.93253589e-01 -3.32508564e-01 -3.77523184e-01
      -3.32278371e-01 -1.65616989e-01 5.53122282e-01 1.27724254e+00</_>
    <_>
      -2.68743813e-01 -3.00287247e-01 -1.42045379e-01 -3.33277762e-01
      -1.41837001e-01 -9.25777435e-01 1.70147896e+00 2.84817839e+00</_>
    <_>
      -7.14452863e-02 -6.37263060e-02 -4.16937470e-02 -2.55634725e-01
      -4.64881659e-02 -2.15976048e+00 -4.08521414e-01 -9.99253154e-01</_>
    <_>
      -2.75453568e-01 -3.03839862e-01 -2.13725030e-01 -3.34247351e-01
      -2.14117587e-01 -3.93196106e-01 -4.32786703e-01 -4.73831534e-01</_>
    <_>
      -3.74751151e-01 -4.25722361e-01 -1.91197157e-01 -3.63989800e-01
      -1.90280378e-01 -4.79019165e-01 1.84463978e+00 1.81594312e+00</_>
    <_>
      -4.97788817e-01 -5.25193810e-01 -4.41052109e-01 -3.83192331e-01
      -4.41468120e-01 1.75418854e-02 8.51296186e-01 -1.42600775e-01</_>
    <_>
      -3.91122043e-01 -3.55455160e-01 -3.71932387e-01 -3.47678125e-01
      -3.72007012e-01 4.62963104e-01 -3.10518622e-01 -7.03999162e-01</_>
    <_>
      -3.97404671e-01 -4.24346328e-01 -3.14076662e-01 -3.63692194e-01
      -3.15105319e-01 -3.72077942e-01 1.62650037e+00 4.27135468e-01</_>
    <_>
      -4.82412875e-01 -4.89411563e-01 -4.63068008e-01 -3.76809597e-01
      -4.62998509e-01 3.16753387e-01 -1.79025292e-01 -4.40260887e-01</_>
    <_>
      -3.51710021e-01 -2.68744290e-01 -3.32764566e-01 -3.24414283e-01
      -3.32534671e-01 5.45537949e-01 -4.04871464e-01 -5.14546037e-01</_>
    <_>
      -4.27671462e-01 -3.53748620e-01 -4.03420269e-01 -3.47253680e-01
      -4.13786203e-01 -6.52532196e+00 -3.99225235e-01 -7.43088245e-01</_>
    <_>
      3.37815464e-01 5.97786725e-01 5.04607916e-01 9.83094871e-02
      5.05355895e-01 -3.16776276e-01 2.87021160e-01 3.10876989e+00</_>
    <_>
      -3.68893623e-01 -4.15590882e-01 -2.76444793e-01 -3.61778229e-01
      -2.75889277e-01 2.89249420e-02 1.34930277e+00 -5.65818667e-01</_>
    <_>
      -4.27631795e-01 -4.60013062e-01 -3.70140374e-01 -3.71124238e-01
      -3.69700193e-01 2.70742416e-01 5.01267195e-01 5.63383102e-03</_>
    <_>
      -3.02151918e-01 -3.01360011e-01 -2.01181114e-01 -3.33571166e-01
      -2.01045573e-01 1.20464325e-01 8.05768728e-01 -8.07265759e-01</_>
    <_>
      -4.46101815e-01 -4.92230296e-01 -3.27388585e-01 -3.77333760e-01
      -3.27152073e-01 -5.06893158e-01 1.84237862e+00 9.63315964e-02</_>
    <_>
      -4.65112746e-01 -4.65384364e-01 -4.78171945e-01 -3.72192711e-01
      -4.77608413e-01 6.42652512e-01 -6.75142288e-01 -6.64540946e-01</_>
    <_>
      -3.79295051e-01 -3.69896591e-01 -4.30300146e-01 -3.51216197e-01
      -4.31215554e-01 6.96878433e-01 -5.06328583e-01 -7.37542152e-01</_>
    <_>
      -5.13333797e-01 -5.41484654e-01 -4.85083908e-01 -3.85902852e-01
      -4.85297829e-01 -6.29198074e-01 4.53324080e-01 4.89624381e-01</_>
    <_>
      -5.55442750e-01 -4.89595592e-01 -5.17083764e-01 -3.76843929e-01
      -5.20669162e-01 -9.98711777e+00 -8.00982594e-01 -5.28550267e-01</_>
    <_>
      -2.96885908e-01 -3.11389029e-01 -1.83773160e-01 -3.36288303e-01
      -1.83359861e-01 2.13165283e-02 1.39521790e+00 -7.22534120e-01</_>
    <_>
      -3.75609100e-01 -4.28249329e-01 -2.29852974e-01 -3.64534050e-01
      -2.29496419e-01 -6.61639214e-01 1.45347047e+00 1.05947626e+00</_>
    <_>
      -4.07414943e-01 -4.02506799e-01 -3.19964588e-01 -3.58852178e-01
      -3.20744216e-01 -5.97320557e-01 5.98519325e-01 -3.34892511e-01</_>
    <_>
      2.14930236e-01 3.82596433e-01 3.68672490e-01 -3.89487147e-02
      3.68996918e-01 -5.64563751e-01 1.18316197e+00 3.33309364e+00</_>
    <_>
      -2.79578209e-01 -2.36442327e-01 -2.43676901e-01 -3.14862520e-01
      -2.43081033e-01 2.69731522e-01 -1.75777435e-01 -4.89153385e-01</_>
    <_>
      -2.29900122e-01 -2.54006028e-01 -3.54524493e-01 -3.20115745e-01
      -3.54577661e-01 -2.22625732e-02 -1.50893688e+00 -1.19562936e+00</_>
    <_>
      -4.21268463e-01 -4.59989041e-01 -4.24668163e-01 -3.71119440e-01
      -4.24295068e-01 4.89059448e-01 -1.84571266e-01 -3.98041964e-01</_>
    <_>
      -4.48466539e-01 -4.59046900e-01 -3.55804443e-01 -3.70930642e-01
      -3.55346620e-01 2.76380539e-01 1.29479814e+00 -4.05639291e-01</_>
    <_>
      -4.32638258e-01 -4.37984586e-01 -3.25596571e-01 -3.66603255e-01
      -3.24845254e-01 -2.06212997e-01 1.66088557e+00 -1.77457929e-01</_>
    <_>
      -3.74571651e-01 -4.30693597e-01 -3.09724629e-01 -3.65057677e-01
      -3.09466422e-01 -2.26472855e-01 1.34895015e+00 1.28017461e+00</_>
    <_>
      -4.50653762e-01 -4.13275629e-01 -4.15964216e-01 -3.61266196e-01
      -4.15324092e-01 2.50438690e-01 4.74171638e-02 -4.51251507e-01</_>
    <_>
      -5.07650614e-01 -5.00174761e-01 -4.62556005e-01 -3.78791511e-01
      -4.62229550e-01 1.37775421e-01 5.34214020e-01 -2.04424620e-01</_>
    <_>
      1.21439755e-01 1.33928716e-01 1.04737639e-01 -1.70994729e-01
      1.05762303e-01 -2.84372330e+00 -1.08716989e+00 -9.23155606e-01</_>
    <_>
      -3.81044865e-01 -4.05870736e-01 -2.81308770e-01 -3.59611988e-01
      -2.81015515e-01 -3.68995667e-02 2.02510214e+00 -4.03582096e-01</_>
    <_>
      -4.13802445e-01 -4.30004746e-01 -3.76284361e-01 -3.64910394e-01
      -3.76108050e-01 -1.07879734e+00 2.04099679e+00 3.50679541e+00</_>
    <_>
      -3.74823451e-01 -4.03547585e-01 -3.19964588e-01 -3.59087825e-01
      -3.19206297e-01 7.68318176e-02 8.68759155e-01 -3.97629142e-01</_>
    <_>
      4.36620712e-02 2.41727889e-01 1.80513263e-01 -1.17249310e-01
      1.77273929e-01 -3.14331627e+00 -8.64238620e-01 -6.04809761e-01</_>
    <_>
      -4.54071105e-01 -5.12113690e-01 -3.87292325e-01 -3.80927503e-01
      -3.87642145e-01 -3.65121841e-01 4.12015915e-01 5.40560603e-01</_>
    <_>
      -4.87379998e-01 -5.17871737e-01 -3.92668307e-01 -3.81934226e-01
      -3.92768443e-01 -1.22739601e+00 2.92280102e+00 2.48493862e+00</_>
    <_>
      -5.27728975e-01 -5.65896809e-01 -5.21435738e-01 -3.89735788e-01
      -5.21438122e-01 2.94864655e-01 2.90288925e-01 -5.46700001e-01</_>
    <_>
      -4.16347235e-01 -4.19146806e-01 -3.93948317e-01 -3.62559825e-01
      -3.93537402e-01 3.11565399e-01 5.36439419e-02 1.02702379e-01</_>
    <_>
      -3.96927953e-01 -4.34253424e-01 -3.27900589e-01 -3.65815371e-01
      -3.28689933e-01 -9.19555664e-01 -3.68452072e-01 -2.98660994e-02</_>
    <_>
      -5.19275606e-01 -5.59273601e-01 -6.22555375e-01 -3.88723016e-01
      -6.22682154e-01 9.46020126e-01 -1.35102153e+00 -9.23203290e-01</_>
    <_>
      -3.50583136e-01 -4.16418314e-01 -2.67740846e-01 -3.61960620e-01
      -2.67430902e-01 -2.71877289e-01 4.11141872e-01 4.31379080e-02</_>
    <_>
      -2.90984154e-01 -3.32553029e-01 -1.94781125e-01 -3.41870219e-01
      -1.94637716e-01 1.40419006e-02 8.41855764e-01 -4.18258667e-01</_>
    <_>
      -4.00779277e-01 -3.20086241e-01 -3.90364289e-01 -3.38607132e-01
      -3.91999483e-01 -8.21914768e+00 -1.23443079e+00 -1.03743815e+00</_>
    <_>
      -3.78191352e-01 -3.45126033e-01 -3.68860424e-01 -3.45088601e-01
      -3.69956493e-01 1.51128769e-01 -7.04642653e-01 -1.00228310e+00</_>
    <_>
      -1.79396808e-01 2.43009865e-01 -2.36508965e-01 -1.16577893e-01
      -2.38211095e-01 1.07439995e+00 -1.44970179e+00 -1.17292047e+00</_>
    <_>
      -4.17980760e-01 -2.74412811e-01 -3.73980403e-01 -3.26040894e-01
      -3.73288572e-01 2.76134491e-01 1.40115976e-01 5.64195991e-01</_>
    <_>
      -4.15500522e-01 -3.90003741e-01 -4.70491976e-01 -3.55982363e-01
      -4.70944226e-01 -2.16532898e+00 -1.07079720e+00 -1.07504368e+00</_>
    <_>
      -2.69582570e-01 -2.08598912e-01 -2.64412820e-01 -3.06243479e-01
      -2.64611423e-01 5.09422302e-01 -2.09489942e-01 -6.74114764e-01</_>
    <_>
      -3.45646381e-01 -3.77083242e-01 -1.94013119e-01 -3.52941096e-01
      -1.93868756e-01 -7.71923065e-02 2.72870779e-01 1.19682682e+00</_>
    <_>
      -4.48260456e-01 -4.64428633e-01 -3.93436313e-01 -3.72003555e-01
      -3.93537402e-01 2.01642990e-01 4.99506474e-01 -2.32419610e-01</_>
    <_>
      -4.67064321e-01 -5.00534177e-01 -3.92412305e-01 -3.78856778e-01
      -3.91743183e-01 1.55389786e-01 1.45442629e+00 -1.10726476e-01</_>
    <_>
      -4.84679759e-01 -5.31981468e-01 -4.05212253e-01 -3.84336531e-01
      -4.04815227e-01 -4.10461426e-01 6.18238211e-01 8.09659600e-01</_>
    <_>
      -3.30256343e-01 -3.03574622e-01 -2.67996848e-01 -3.34175140e-01
      -2.67687201e-01 2.31483459e-01 -7.53450394e-03 -8.89819920e-01</_>
    <_>
      -3.74624223e-01 -4.04279411e-01 -2.94876695e-01 -3.59253198e-01
      -2.94343889e-01 4.56615448e-01 4.31499720e-01 -5.91460705e-01</_>
    <_>
      -3.12497497e-01 -3.34144115e-01 -1.97085142e-01 -3.42281520e-01
      -1.96688235e-01 -1.91978455e-01 1.57433987e+00 -4.51698303e-02</_></support_vectors>
  <decision_functions>
    <_>
      <sv_count>508</sv_count>
      <rho>6.3561521358279194e-01</rho>
      <alpha>
        1. 1. 1. 1. 1. 1. 9.0644842386964708e-01 1.
        1.6056169356749836e-01 1. 1. 6.1278067205932896e-01 1. 1. 1. 1.
        1. 1. 1. 1. 3.6153814368386279e-02 1. 3.7569080538566846e-01 1.
        2.5196409546157628e-01 1. 2.1975669519047249e-02 1. 1. 1.
        5.6395442365641646e-01 1. 1. 1. 1. 1. 9.8072594063259000e-01 1.
        1. 1. 1. 1. 1. 1. 1. 5.8731154989127110e-01 1.
        2.2763220165078019e-01 1. 8.3272430720067736e-01 1. 1.
        7.8908911388017300e-01 1. 8.2870436416653925e-02 1. 1. 1. 1.
        4.4905186839552963e-01 1. 1. 1. 1. 1. 1. 1. 1. 1. 1. 1.
        8.3204193887254985e-01 1. 1. 1. 2.2633473645268739e-02 1. 1.
        4.9244524972712445e-01 9.5037338356702539e-01
        6.6283090658701016e-01 1. 1. 1. 1. 1. 1. 1. 1. 1. 1. 1. 1.
        7.0958140369564526e-01 6.3135864274426010e-02 1. 1. 1. 1.
        5.4041856129355292e-01 1. 1.3559880162083338e-01 1. 1. 1. 1. 1.
        1. 1. 1. 2.5769161376352345e-01 1. 5.9539979287726108e-01 1.
        7.3155196224764452e-01 1. 1. 1. 1. 4.2857786498953260e-01 1. 1.
        1. 1. 1. 1. 4.2927042867272530e-01 1. 1. 1. 1. 1. 1. 1. 1.
        1.2652911702356107e-01 6.6672038335334671e-01 1. 1. 1. 1. 1. 1.
        1. 1. 1. 1. 1. 1. 1. 1. 1. 1. 1. 1. 1. 1. 1. 1. 1. 1. 1. 1. 1.
        1. 1. 1. 1. 1. 1. 1. 5.6403941037367533e-01
        9.0318323882193974e-01 1. 1. 1. 1. 1. 7.6489594696097862e-01 1.
        7.8465650358758876e-01 1.9437079177282984e-01 1.
        7.0554643826170738e-01 1. 1. 8.6969469280577760e-01
        3.2932204738663334e-01 1. 1. 1. 1. 1. 1. 3.5944364211410784e-01
        1. 1. 1. 1. 1. 1. 1. 1. 1. 7.4424821349206402e-02 1. 1. 1. 1. 1.
        -1. -1. -2.1564156356873768e-01 -1. -1. -1. -1.
        -3.2627519252036941e-02 -1. -4.1732343278182100e-02 -1. -1. -1.
        -1. -4.6526041780504829e-01 -1. -1. -8.1642368128164278e-01 -1.
        -9.6102486944660526e-01 -1. -1. -1. -1. -1. -1.
        -2.1869602669332688e-01 -1. -1. -1. -1. -1.
        -3.9424563367055171e-01 -1. -1. -3.6271713922566701e-01
        -8.6084979233353023e-02 -1. -1.8236653530172875e-01 -1. -1.
        -3.6619463711191402e-01 -1. -1. -1. -1. -1. -1. -1. -1. -1. -1.
        -8.5869619454217239e-01 -1. -7.0315045538573895e-01 -1. -1.
        -4.8583155575750453e-01 -1. -1. -1. -1. -1.
        -7.2901157603209510e-01 -1. -1. -2.2177616287593208e-01
        -2.8337698668814271e-01 -2.8819244748425049e-01 -1. -1.
        -2.6726435760805944e-01 -1.0612816512785565e-01
        -6.5357870959774012e-01 -1. -4.4778608259440147e-03
        -1.3522742446908842e-01 -6.0557236822260468e-02
        -3.2927546769101673e-02 -1. -1.3641701716713400e-01 -1. -1.
        -2.4041135519940009e-02 -2.4532958034370919e-01 -1.
        -8.7266894083943769e-01 -1. -6.2097177761392647e-02
        -5.5779494994585829e-02 -1. -1. -1.4089532785870981e-01 -1. -1.
        -1.2283567626982339e-01 -1. -1. -1.4718394880702482e-01 -1. -1.
        -1. -1.8957079242133218e-01 -1. -1.8585902366904153e-01
        -3.4945291655627919e-01 -1. -2.4299403566484812e-01
        -2.6912159493306659e-01 -1.7274022404494094e-01
        -1.5142013256420572e-01 -1.9509090503631946e-01 -1. -1. -1. -1.
        -1. -8.0414240027736117e-01 -1. -1.8819709667942941e-01
        -2.7430246330929886e-02 -8.2123578974048628e-01 -1.
        -4.7140624468038805e-01 -1. -8.2495199981645770e-02
        -7.1281227564649996e-02 -1.5885953527299271e-01 -1.
        -1.2745821202889409e-02 -1. -2.0122254381941948e-01
        -1.5128900066354584e-01 -1.0834538519868464e-01
        -2.0299204289411210e-01 -2.2436534378350201e-01 -1.
        -2.8755213738418589e-01 -1. -1. -1. -1. -9.8277524693348675e-02
        -7.6626675022209417e-03 -1. -1. -1. -1. -1. -1. -1.
        -8.6872425500345474e-01 -8.0708063953087245e-02
        -1.5123783289709911e-01 -1. -5.9858909019908473e-02 -1. -1. -1.
        -2.5319748063610797e-01 -1. -4.4102607513426408e-02 -1. -1. -1.
        -1.5545339470076330e-01 -5.8889084622698629e-01 -1.
        -2.7149978772946048e-01 -1. -3.8769154442568780e-02 -1.
        -2.1059379466076095e-01 -1.8273845162340135e-01 -1.
        -9.6472348770981387e-01 -5.8951280265100083e-02 -1.
        -1.5731624187102417e-01 -1.0745462047079933e-01 -1. -1. -1.
        -1.4811773548337737e-01 -2.4022545123805814e-01
        -9.1753523270256099e-02 -1. -2.6009437808773872e-01
        -1.4577006382183955e-01 -1. -6.9220224399354116e-02
        -1.6371066303822562e-01 -6.1828099336128584e-01
        -7.0209994383253496e-02 -1. -1. -1.8777901208604650e-01 -1.
        -1.0488305818266691e-01 -1. -1. -3.0145728462913052e-01
        -1.8239035999227091e-01 -2.8141298291145731e-02 -1. -1.
        -1.2019787734988702e-01 -1. -8.0217027521740314e-02
        -6.0912848760252589e-02 -1.0535658825169719e-01
        -8.4661574816376359e-02 -1. -4.6563186237992098e-02 -1.
        -1.6112365754179134e-01 -1. -1. -1. -1. -8.6390258652271690e-01
        -4.8813781753069818e-01 -1.4388874868772038e-02 -1.
        -1.2999826872487916e-01 -3.3683221643977396e-01 -1.
        -2.0953020419215593e-01 -1. -1. -2.2571887313592037e-01
        -9.9370652169300100e-01 -7.0242075595097808e-01 -1.
        -4.8442926096924292e-02 -1.6956438730268503e-01
        -1.0798755811295692e-01 -2.2874103293620024e-01
        -1.0295046849524302e-01 -1. -1.8128054369352545e-01
        -1.4480995491320509e-01 -1. -1. -5.9139975734037821e-02
        -1.0866720141721564e-01 -4.4737350098457959e-02 -1. -1.
        -1.4543318665411903e-01 -1. -6.9489546664358770e-01
        -2.4415030976643018e-01 -1.4396724186216109e-01
        -2.2605718714441317e-01 -1. -1. -1.4613350335028116e-01 -1. -1.
        -1. -1. -1. -1. -8.3069160684436510e-02 -1.4302137774638621e-01
        -4.2821068281039550e-02 -2.5301716308127855e-02
        -1.2794170561253548e-01 -3.1075117316660485e-02
        -2.0307718818222092e-01 -1. -1. -1. -8.9547512702691998e-02
        -2.9183133080051427e-01 -4.2115668430035641e-02
        -6.1351785789868003e-02 -1. -1.8937838314816471e-01 -1. -1. -1.
        -1. -1.7964356607239912e-01 -1. -1.3284705497739341e-01
        -2.2680119095077875e-01 -1. -2.9405134002622246e-01 -1.
        -4.2938853954094713e-01 -1.2045566814307442e-01
        -1.1198688653193617e-01 -3.2163943300407088e-01
        -2.4287602062657035e-01 -1. -1.</alpha>
      <index>
        311 316 315 314 313 312 310 309 308 307 306 323 331 330 329 328
        327 326 325 324 305 322 321 320 319 318 317 298 297 296 295 294
        293 292 304 303 302 301 300 299 358 357 356 355 354 353 352 351
        366 365 364 363 362 350 361 360 359 335 339 338 337 336 340 334
        333 332 349 348 347 346 345 344 343 342 341 241 242 243 244 245
        246 247 248 249 250 251 252 235 236 237 253 238 239 240 262 263
        264 265 266 267 254 255 256 257 258 259 260 261 282 281 280 279
        283 278 277 276 275 274 273 291 290 289 288 287 272 286 285 284
        227 228 229 230 231 232 233 234 271 270 269 268 414 412 413 415
        416 417 418 419 404 405 406 407 408 409 410 411 433 429 430 431
        432 428 434 435 436 420 421 422 423 424 367 425 426 427 384 378
        379 380 381 382 383 385 386 387 388 403 368 369 370 371 372 402
        373 374 375 376 377 394 395 396 397 398 399 400 401 389 390 391
        392 393 481 480 482 483 484 477 472 473 474 475 476 478 479 502
        497 498 499 500 501 496 503 504 505 506 507 491 486 487 488 489
        490 485 492 493 494 495 452 447 448 449 450 451 453 454 455 456
        457 437 438 439 440 458 441 442 443 444 445 446 468 464 465 466
        467 469 470 471 459 460 461 462 463 88 87 86 85 84 83 89 82 81
        80 79 94 78 93 92 91 90 64 70 69 68 67 66 65 63 62 77 76 75 74
        95 73 72 71 113 112 111 110 109 120 119 118 117 108 116 115 114
        98 97 99 96 103 107 106 105 104 102 101 100 20 19 18 17 16 15 22
        25 24 23 21 6 5 4 3 2 1 0 10 14 13 12 11 26 9 8 7 51 50 49 48 47
        46 45 44 43 57 61 60 59 58 56 55 54 53 52 33 38 37 36 35 34 39
        32 31 30 29 28 27 42 41 40 191 190 189 188 196 199 198 197 195
        194 193 192 177 176 175 178 174 173 172 171 170 187 186 185 184
        183 200 182 181 180 179 219 218 217 226 225 216 224 223 222 221
        220 206 208 207 205 204 203 202 201 211 215 214 213 212 210 209
        138 137 136 135 134 146 145 144 143 142 141 140 139 126 125 124
        123 122 121 131 133 132 130 129 128 127 161 164 163 162 160 159
        158 169 168 157 167 166 165 151 150 149 148 147 156 155 154 153
        152</index></_></decision_functions></opencv_ml_svm>
</opencv_storage>
