<?xml version="1.0"?>
<opencv_storage>
<opencv_ml_svm>
  <format>3</format>
  <svmType>C_SVC</svmType>
  <kernel>
    <type>RBF</type>
    <gamma>1.</gamma></kernel>
  <C>1.</C>
  <term_criteria><iterations>10000000</iterations></term_criteria>
  <var_count>8</var_count>
  <class_count>2</class_count>
  <class_labels type_id="opencv-matrix">
    <rows>2</rows>
    <cols>1</cols>
    <dt>i</dt>
    <data>
      0 1</data></class_labels>
  <sv_total>1692</sv_total>
  <support_vectors>
    <_>
      1.26034592e+02 2.55720413e+02 26751. 6.54747734e+04 26682.
      9.75633926e+01 1.79666066e+00 2.47364625e-01</_>
    <_>
      1.80805206e+02 2.77792267e+02 40134. 7.72651172e+04 40113.
      9.59293442e+01 3.25830841e+00 4.82446283e-01</_>
    <_>
      1.03827995e+02 1.34163635e+02 24861. 1.80224062e+04 24858.
      9.23556747e+01 8.71979618e+00 1.41208649e+00</_>
    <_>
      8.28087006e+01 1.11612671e+02 17460. 1.24729785e+04 17442.
      9.59613190e+01 5.16281843e+00 5.94365716e-01</_>
    <_>
      6.62705460e+01 9.19121246e+01 13866. 8.45841113e+03 13833.
      9.66603699e+01 3.15501785e+00 3.59452635e-01</_>
    <_>
      5.36109467e+01 6.66453400e+01 11817. 4.44716064e+03 11799.
      9.47236481e+01 4.38033724e+00 5.42324662e-01</_>
    <_>
      4.76928177e+01 6.27199135e+01 10122. 3.93871094e+03 10104.
      9.64155807e+01 3.96048450e+00 4.73386347e-01</_>
    <_>
      3.90256958e+01 5.17070084e+01 8679. 2.67696094e+03 8676.
      9.68371811e+01 3.38305831e+00 3.17529172e-01</_>
    <_>
      5.67078018e+01 1.27482948e+02 12144. 1.62722432e+04 12144.
      9.64495010e+01 3.55242538e+00 4.63149428e-01</_>
    <_>
      5.92272949e+01 1.27907806e+02 12603. 1.63808828e+04 12594.
      9.66490326e+01 3.62983561e+00 4.55582887e-01</_>
    <_>
      1.48495502e+01 1.92134113e+01 4209. 3.69617218e+02 4191.
      9.05482330e+01 1.10064621e+01 1.31670439e+00</_>
    <_>
      1.21924496e+01 1.62849846e+01 3882. 2.65532623e+02 3879.
      9.10287476e+01 1.07167778e+01 1.42935085e+00</_>
    <_>
      1.11191902e+01 1.52254019e+01 3801. 2.32102997e+02 3795.
      8.89353943e+01 1.34243259e+01 1.79392529e+00</_>
    <_>
      9.70623779e+00 1.23065014e+01 3264. 1.51639526e+02 3264.
      8.24616241e+01 1.97128353e+01 2.41388726e+00</_>
    <_>
      1.15728750e+01 1.49605160e+01 3429. 2.24097168e+02 3426.
      8.81537628e+01 1.53240280e+01 1.73665559e+00</_>
    <_>
      5.66123428e+01 1.17066719e+02 11442. 1.37217686e+04 11430.
      9.49454498e+01 1.67041910e+00 1.01120286e-01</_>
    <_>
      6.63248825e+01 1.20565025e+02 13104. 1.45541182e+04 13101.
      9.78823395e+01 1.72075677e+00 1.24212272e-01</_>
    <_>
      3.24177933e+01 4.23302269e+01 7161. 1.79409082e+03 7137.
      9.42513809e+01 4.46512651e+00 5.13800323e-01</_>
    <_>
      2.46258564e+01 3.27971153e+01 5844. 1.07699695e+03 5844.
      9.40822525e+01 5.76180506e+00 5.94595730e-01</_>
    <_>
      2.20002003e+01 3.06791763e+01 5259. 9.42389893e+02 5250.
      9.20130692e+01 4.57035351e+00 5.51557779e-01</_>
    <_>
      2.13990002e+01 3.00576420e+01 5040. 9.04592590e+02 5040.
      9.49633331e+01 3.91937327e+00 5.32598078e-01</_>
    <_>
      8.30837097e+01 1.70704254e+02 16029. 2.91764141e+04 16008.
      9.82163391e+01 2.31325078e+00 1.58584118e-01</_>
    <_>
      9.03054123e+01 1.72607208e+02 17292. 2.98305352e+04 17280.
      9.82337341e+01 2.29887176e+00 1.58270061e-01</_>
    <_>
      2.99225616e+01 4.00296135e+01 6831. 1.60437537e+03 6831.
      9.65560913e+01 4.23053312e+00 4.18762207e-01</_>
    <_>
      2.36365871e+01 3.11605206e+01 5379. 9.72193237e+02 5361.
      9.62031555e+01 4.93420172e+00 5.92307329e-01</_>
    <_>
      1.72939587e+01 2.21297150e+01 4191. 4.90337219e+02 4185.
      9.37746048e+01 6.74597168e+00 9.27708447e-01</_>
    <_>
      1.46852722e+01 1.93526306e+01 3903. 3.74993042e+02 3897.
      9.36847992e+01 7.75947618e+00 7.82677352e-01</_>
    <_>
      1.51694059e+01 2.05542526e+01 3966. 4.23006073e+02 3966.
      9.40911942e+01 6.01494217e+00 7.37204373e-01</_>
    <_>
      2.11117039e+01 3.15544071e+01 4761. 9.96926697e+02 4737.
      9.46670151e+01 4.29030180e+00 3.28702629e-01</_>
    <_>
      5.71401749e+01 1.03076782e+02 10908. 1.06381211e+04 10869.
      9.17286301e+01 2.51505113e+00 1.32274628e-01</_>
    <_>
      7.10588608e+01 1.13586510e+02 13071. 1.29180430e+04 13053.
      9.79043732e+01 2.29258609e+00 1.43441349e-01</_>
    <_>
      3.67171593e+01 5.72026443e+01 7902. 3.27623755e+03 7899.
      9.76915588e+01 2.72982216e+00 1.94395319e-01</_>
    <_>
      2.30425320e+01 3.13573322e+01 5427. 9.84513000e+02 5427.
      9.60302429e+01 4.39868498e+00 4.70023394e-01</_>
    <_>
      2.01193867e+01 2.74525852e+01 4884. 7.54587708e+02 4875.
      9.33878174e+01 4.82235241e+00 5.94016314e-01</_>
    <_>
      1.62781868e+01 2.06136017e+01 4356. 4.25452393e+02 4350.
      9.02824402e+01 6.90122795e+00 1.02798212e+00</_>
    <_>
      1.74524899e+01 2.32497425e+01 4347. 5.41227112e+02 4344.
      9.49717178e+01 5.10601234e+00 7.63898492e-01</_>
    <_>
      1.42300934e+02 2.67447113e+02 28077. 7.16174766e+04 28062.
      9.75106277e+01 1.61152911e+00 1.71675727e-01</_>
    <_>
      2.83281250e+02 3.75585327e+02 65574. 1.41240891e+05 65379.
      9.54015579e+01 3.86857224e+00 4.11947429e-01</_>
    <_>
      2.72036133e+02 3.42897705e+02 73410. 1.17725984e+05 73386.
      9.35625610e+01 6.01312876e+00 8.85883152e-01</_>
    <_>
      2.47116501e+02 3.14197388e+02 64344. 9.88435547e+04 64248.
      9.31706772e+01 5.93220377e+00 9.81146932e-01</_>
    <_>
      2.15034210e+02 2.81846497e+02 52221. 7.95368750e+04 52131.
      9.28931122e+01 6.32841873e+00 5.76831043e-01</_>
    <_>
      1.75565048e+02 2.27583786e+02 44463. 5.18592031e+04 44409.
      9.40636139e+01 7.75371313e+00 5.92584074e-01</_>
    <_>
      1.40257507e+02 1.84180542e+02 35673. 3.39649258e+04 35658.
      9.55987549e+01 6.63580799e+00 7.72950172e-01</_>
    <_>
      1.16900063e+02 1.49764572e+02 29622. 2.24575000e+04 29592.
      9.29954910e+01 7.58573580e+00 7.06086099e-01</_>
    <_>
      1.29527695e+02 1.68328186e+02 33327. 2.83698418e+04 33315.
      9.47365036e+01 7.37088871e+00 5.98590016e-01</_>
    <_>
      1.32395554e+02 1.71615845e+02 32094. 2.94888613e+04 32070.
      9.42301254e+01 5.53524065e+00 4.45585668e-01</_>
    <_>
      1.16637672e+02 1.46826416e+02 28281. 2.15849785e+04 28248.
      9.58877792e+01 3.90948200e+00 5.16365767e-01</_>
    <_>
      1.14082047e+02 1.40982910e+02 25290. 1.99010566e+04 25287.
      9.57195282e+01 4.13215971e+00 3.98656726e-01</_>
    <_>
      1.16268227e+02 1.47401901e+02 28587. 2.17545156e+04 28566.
      9.08398972e+01 6.49633932e+00 6.70664549e-01</_>
    <_>
      1.08660675e+02 1.42207474e+02 31698. 2.02482773e+04 31677.
      9.08838120e+01 8.57739353e+00 1.13842213e+00</_>
    <_>
      1.31682129e+02 1.65921127e+02 33399. 2.75642754e+04 33273.
      9.00126114e+01 4.59517288e+00 8.27750266e-01</_>
    <_>
      1.31028000e+02 1.66389755e+02 34602. 2.77201992e+04 34596.
      9.39461670e+01 6.86195660e+00 1.13680315e+00</_>
    <_>
      1.13899803e+02 1.48753632e+02 31998. 2.21553379e+04 31989.
      8.88675308e+01 1.07848949e+01 1.49625194e+00</_>
    <_>
      1.78382477e+02 3.29304382e+02 32481. 1.08577094e+05 32382.
      9.81174927e+01 1.22739363e+00 1.47875115e-01</_>
    <_>
      2.12094925e+02 3.37497589e+02 38517. 1.14047180e+05 38490.
      9.77646103e+01 1.48927879e+00 2.09635749e-01</_>
    <_>
      7.97295532e+01 1.08213661e+02 15993. 1.17248516e+04 15993.
      9.71537323e+01 2.71030951e+00 3.98770481e-01</_>
    <_>
      4.41638069e+01 6.16302795e+01 9945. 3.80304517e+03 9939.
      9.55920486e+01 5.54038286e+00 8.25631917e-01</_>
    <_>
      2.42812119e+01 3.39950447e+01 6489. 1.15710938e+03 6486.
      9.37158051e+01 8.11174870e+00 8.81503046e-01</_>
    <_>
      1.71092434e+01 2.27182655e+01 5043. 5.16765564e+02 5040.
      8.91997147e+01 1.06497803e+01 1.77643716e+00</_>
    <_>
      1.47349691e+01 2.00366192e+01 4530. 4.01968567e+02 4524.
      8.84894791e+01 1.39030285e+01 2.03783131e+00</_>
    <_>
      1.41070032e+01 1.83719387e+01 4488. 3.37950562e+02 4485.
      8.72651062e+01 1.69900436e+01 2.17268705e+00</_>
    <_>
      7.01304626e+01 1.53894730e+02 12159. 2.37132285e+04 12147.
      9.84743805e+01 1.18255603e+00 1.26828820e-01</_>
    <_>
      9.20130463e+01 1.65159470e+02 16431. 2.73117891e+04 16431.
      9.83770523e+01 1.32444179e+00 1.43240765e-01</_>
    <_>
      5.30860672e+01 7.88033295e+01 11481. 6.21773730e+03 11475.
      9.67232819e+01 2.88658667e+00 3.07546437e-01</_>
    <_>
      4.12329750e+01 5.84767456e+01 8946. 3.42380981e+03 8937.
      9.47872467e+01 3.85523534e+00 3.76597136e-01</_>
    <_>
      3.08445568e+01 4.00969391e+01 7218. 1.60977673e+03 7212.
      9.45423965e+01 6.29455328e+00 5.23137450e-01</_>
    <_>
      3.01177502e+01 4.60468140e+01 7116. 2.12296289e+03 7113.
      9.45326080e+01 7.29170179e+00 8.69023561e-01</_>
    <_>
      3.04412251e+01 4.63180237e+01 7206. 2.14804443e+03 7194.
      9.49155655e+01 6.60859728e+00 7.32657909e-01</_>
    <_>
      1.00430832e+02 2.22161377e+02 17928. 4.94174492e+04 17919.
      9.61025162e+01 3.20114636e+00 5.92203796e-01</_>
    <_>
      1.15212936e+02 2.25795090e+02 21681. 5.10472305e+04 21630.
      9.59582977e+01 3.33971095e+00 6.14976525e-01</_>
    <_>
      3.70127983e+01 5.11262512e+01 9255. 2.61716479e+03 9243.
      9.30382462e+01 5.88707399e+00 9.63891566e-01</_>
    <_>
      3.12833996e+01 4.15076408e+01 6720. 1.72504065e+03 6681.
      9.42831192e+01 3.81499958e+00 5.05050838e-01</_>
    <_>
      2.87485695e+01 3.83695679e+01 6000. 1.47406641e+03 5997.
      9.61878967e+01 4.35315466e+00 4.44036394e-01</_>
    <_>
      2.59128742e+01 3.53444557e+01 5319. 1.25079407e+03 5316.
      9.51657410e+01 4.51413155e+00 3.80912930e-01</_>
    <_>
      9.64459534e+01 2.08326126e+02 15948. 4.34540898e+04 15795.
      9.51816864e+01 1.97780025e+00 2.36660346e-01</_>
    <_>
      1.22617905e+02 2.19897461e+02 20691. 4.84154102e+04 20685.
      9.80340118e+01 2.03885198e+00 2.37661675e-01</_>
    <_>
      4.49439392e+01 7.44765625e+01 9453. 5.55370068e+03 9450.
      9.78901596e+01 3.01575398e+00 3.28116953e-01</_>
    <_>
      2.06021709e+01 2.69437637e+01 6240. 7.26875000e+02 6237.
      8.73595047e+01 1.47564993e+01 1.63937330e+00</_>
    <_>
      2.10937309e+01 2.68028431e+01 6354. 7.19291504e+02 6336.
      8.80101166e+01 1.24117851e+01 1.88288605e+00</_>
    <_>
      2.03564434e+01 2.56956596e+01 6066. 6.61093323e+02 6057.
      8.90992661e+01 1.07100086e+01 1.91140532e+00</_>
    <_>
      1.96914005e+01 2.61380405e+01 6192. 6.84052246e+02 6189.
      8.19346085e+01 1.48179073e+01 1.63927555e+00</_>
    <_>
      1.13843010e+02 2.53587967e+02 20376. 6.43873398e+04 20340.
      9.86552200e+01 8.15002143e-01 8.32329169e-02</_>
    <_>
      1.46842957e+02 2.63502594e+02 26847. 6.95205156e+04 26841.
      9.86565475e+01 9.81186569e-01 1.04681619e-01</_>
    <_>
      6.74821854e+01 8.84061050e+01 15159. 7.82542139e+03 15156.
      9.63463287e+01 4.44443083e+00 4.46269006e-01</_>
    <_>
      4.78179932e+01 6.49167862e+01 12201. 4.21946338e+03 12165.
      9.17367630e+01 5.99197435e+00 5.45609951e-01</_>
    <_>
      4.07002220e+01 5.33508530e+01 9711. 2.84987573e+03 9684.
      9.42515564e+01 5.70366240e+00 6.02124453e-01</_>
    <_>
      1.27984962e+02 2.08546646e+02 22662. 4.35461328e+04 22572.
      8.37772751e+01 2.01680040e+00 2.37644076e-01</_>
    <_>
      2.74257935e+02 3.51123199e+02 54696. 1.23441805e+05 54663.
      9.32466888e+01 2.68232346e+00 3.10702264e-01</_>
    <_>
      3.03978302e+02 3.85584686e+02 76530. 1.48861609e+05 76326.
      9.19592361e+01 6.47010469e+00 5.15515983e-01</_>
    <_>
      2.87405731e+02 3.66112152e+02 76878. 1.34205875e+05 76824.
      9.31325455e+01 9.76613235e+00 7.59584606e-01</_>
    <_>
      2.72422791e+02 3.41951813e+02 68409. 1.17077383e+05 68403.
      9.41517563e+01 5.15247345e+00 4.98675287e-01</_>
    <_>
      2.48684998e+02 3.12159851e+02 63819. 9.75657188e+04 63750.
      9.33930893e+01 5.12418127e+00 5.41427433e-01</_>
    <_>
      2.25581924e+02 2.86932892e+02 56709. 8.24335156e+04 56595.
      8.97879410e+01 5.42798519e+00 7.14619219e-01</_>
    <_>
      1.85909698e+02 2.36934387e+02 46491. 5.62081641e+04 46455.
      9.42091446e+01 7.16056490e+00 6.41616702e-01</_>
    <_>
      1.74526123e+02 2.20168732e+02 40983. 4.85349375e+04 40965.
      9.28583450e+01 5.87107611e+00 7.29745448e-01</_>
    <_>
      1.65303970e+02 2.10202209e+02 38289. 4.42402734e+04 38220.
      9.59189072e+01 4.02821445e+00 5.06479502e-01</_>
    <_>
      1.46252472e+02 1.87350403e+02 36597. 3.51441055e+04 36507.
      9.42222519e+01 5.52305412e+00 5.88798821e-01</_>
    <_>
      1.47623199e+02 1.83883133e+02 36087. 3.38553281e+04 36042.
      9.41807785e+01 6.62121868e+00 4.67266262e-01</_>
    <_>
      1.35219803e+02 1.66207352e+02 33042. 2.76594609e+04 32985.
      8.88186951e+01 7.26216173e+00 4.92783964e-01</_>
    <_>
      1.44261108e+02 2.65459015e+02 32820. 7.05566953e+04 32784.
      9.49341965e+01 4.40605736e+00 7.53478646e-01</_>
    <_>
      2.01006561e+02 2.92593628e+02 47208. 8.57181875e+04 47199.
      9.53978653e+01 4.74288082e+00 6.73728347e-01</_>
    <_>
      1.29078140e+02 1.64536972e+02 29367. 2.71062969e+04 29349.
      9.56845932e+01 5.28654766e+00 4.68846351e-01</_>
    <_>
      1.10822960e+02 1.41252869e+02 23682. 1.99773457e+04 23673.
      9.55814056e+01 4.58726692e+00 6.32858515e-01</_>
    <_>
      8.94713898e+01 1.24702553e+02 18501. 1.55701895e+04 18498.
      9.65120010e+01 3.97701669e+00 4.01808053e-01</_>
    <_>
      6.22978134e+01 9.32009201e+01 13731. 8.69728320e+03 13719.
      9.72838058e+01 2.71530175e+00 1.82526857e-01</_>
    <_>
      4.83591080e+01 6.62804565e+01 10743. 4.39859766e+03 10740.
      9.70070419e+01 4.09202433e+00 2.40297452e-01</_>
    <_>
      3.82669678e+01 5.35314026e+01 8445. 2.86919751e+03 8442.
      9.64983826e+01 3.93938088e+00 2.53397793e-01</_>
    <_>
      9.87610474e+01 2.15667953e+02 18099. 4.65708789e+04 18093.
      9.54688416e+01 9.96569812e-01 4.56618369e-02</_>
    <_>
      1.22557350e+02 2.25594131e+02 22635. 5.09564102e+04 22614.
      9.86235046e+01 1.02651787e+00 6.75438643e-02</_>
    <_>
      6.30813293e+01 8.94919510e+01 12732. 8.01883350e+03 12726.
      9.50511780e+01 3.49001026e+00 4.05255944e-01</_>
    <_>
      5.31730499e+01 7.06025467e+01 10341. 4.99095850e+03 10332.
      9.58993378e+01 3.44650602e+00 2.07574904e-01</_>
    <_>
      4.08064957e+01 5.30095100e+01 8661. 2.81352490e+03 8655.
      9.30243912e+01 5.15835762e+00 5.31179786e-01</_>
    <_>
      3.28554764e+01 4.25399017e+01 7494. 1.81190820e+03 7485.
      9.48795013e+01 6.26582766e+00 7.57200241e-01</_>
    <_>
      2.87000446e+01 3.75228729e+01 7122. 1.40972827e+03 7119.
      9.34987869e+01 7.49070120e+00 9.82520044e-01</_>
    <_>
      5.99092865e+01 1.22199425e+02 13305. 1.49513887e+04 13296.
      9.59454956e+01 3.04179835e+00 3.11915159e-01</_>
    <_>
      8.12537994e+01 1.34388977e+02 17127. 1.80830020e+04 17094.
      9.61863632e+01 3.12795949e+00 3.04485291e-01</_>
    <_>
      5.58514137e+01 7.53380432e+01 12423. 5.68292480e+03 12408.
      9.31050949e+01 5.38876057e+00 7.17509270e-01</_>
    <_>
      4.34917221e+01 5.80558472e+01 10260. 3.37469971e+03 10233.
      8.99065094e+01 9.87865448e+00 8.92690778e-01</_>
    <_>
      3.54385490e+01 4.64782791e+01 7896. 2.16293408e+03 7869.
      9.64205704e+01 4.30669546e+00 3.72074991e-01</_>
    <_>
      2.59787540e+01 3.61625862e+01 6144. 1.30936926e+03 6141.
      9.56559372e+01 7.54238176e+00 6.62764788e-01</_>
    <_>
      2.10713634e+01 2.90529041e+01 5592. 8.45127625e+02 5550.
      8.96808319e+01 1.12003584e+01 9.17024136e-01</_>
    <_>
      9.82577515e+01 2.12540680e+02 19245. 4.52300781e+04 19209.
      9.81046371e+01 2.10524201e+00 1.66782349e-01</_>
    <_>
      1.22584198e+02 2.19661850e+02 23943. 4.83117227e+04 23940.
      9.78141022e+01 2.33307004e+00 1.80550158e-01</_>
    <_>
      6.26597328e+01 7.91522141e+01 13131. 6.27291357e+03 13113.
      9.33384476e+01 5.09031105e+00 4.49616790e-01</_>
    <_>
      5.47292824e+01 6.93510666e+01 11649. 4.81559033e+03 11643.
      9.59874802e+01 4.26325655e+00 4.39090014e-01</_>
    <_>
      4.40015068e+01 5.86869087e+01 10170. 3.44846387e+03 10164.
      9.58183517e+01 4.55253744e+00 3.46941918e-01</_>
    <_>
      3.63464890e+01 4.96133118e+01 8328. 2.46456152e+03 8328.
      9.53035812e+01 4.33456182e+00 5.10829568e-01</_>
    <_>
      3.49295616e+01 4.62689362e+01 7974. 2.14349390e+03 7968.
      9.40702133e+01 5.75094223e+00 9.58862901e-01</_>
    <_>
      4.95452347e+01 1.11130272e+02 10938. 1.23653945e+04 10872.
      8.20069504e+01 3.81783485e+00 1.17831290e+00</_>
    <_>
      9.35097198e+01 1.65104446e+02 16866. 2.72935938e+04 16860.
      9.69250717e+01 2.37334967e+00 6.45527899e-01</_>
    <_>
      7.26787720e+01 1.28802139e+02 13269. 1.66107539e+04 13266.
      9.81220856e+01 2.13722706e+00 2.33423844e-01</_>
    <_>
      3.09453087e+01 4.03490715e+01 7602. 1.63008533e+03 7596.
      9.44838181e+01 5.28531885e+00 7.78524935e-01</_>
    <_>
      2.83325634e+01 3.59877892e+01 6393. 1.29674207e+03 6381.
      9.37070160e+01 5.49201536e+00 7.42536724e-01</_>
    <_>
      3.07365837e+01 4.03418159e+01 6597. 1.62949890e+03 6594.
      9.53199615e+01 4.61330080e+00 3.97404790e-01</_>
    <_>
      2.48380871e+01 3.34604607e+01 6045. 1.12100378e+03 6042.
      9.54403381e+01 6.51144552e+00 4.99657124e-01</_>
    <_>
      8.53040619e+01 2.29060638e+02 16809. 5.25344453e+04 16527.
      6.26566353e+01 2.80628204e-01 2.52826512e-02</_>
    <_>
      1.38705002e+02 2.71872375e+02 24924. 7.40071016e+04 24903.
      9.85541000e+01 9.04420078e-01 1.07879907e-01</_>
    <_>
      9.63560333e+01 1.73378906e+02 17346. 3.00978672e+04 17343.
      9.78865280e+01 1.85718679e+00 4.30293798e-01</_>
    <_>
      1.52080276e+02 2.32756027e+02 36492. 5.42431719e+04 36450.
      9.13686371e+01 7.19320869e+00 3.87186319e-01</_>
    <_>
      2.52421158e+02 3.22284149e+02 66633. 1.03997078e+05 66567.
      9.36287079e+01 7.73773050e+00 6.29513025e-01</_>
    <_>
      2.64681580e+02 3.37140808e+02 72801. 1.13806180e+05 72780.
      9.42423401e+01 7.26122665e+00 8.67673159e-01</_>
    <_>
      2.20010117e+02 2.88303864e+02 61071. 8.32231484e+04 61050.
      9.35030975e+01 7.50944042e+00 8.93017530e-01</_>
    <_>
      1.73357697e+02 2.21011398e+02 48690. 4.89071758e+04 48537.
      9.02636795e+01 8.67830467e+00 1.02037883e+00</_>
    <_>
      1.76795853e+02 2.26711273e+02 46722. 5.14623320e+04 46671.
      9.32001724e+01 7.54292583e+00 9.82941091e-01</_>
    <_>
      1.68004303e+02 2.14622299e+02 42765. 4.61203789e+04 42726.
      9.30448456e+01 8.57870007e+00 1.03438306e+00</_>
    <_>
      1.29892242e+02 1.63666077e+02 36828. 2.68201094e+04 36792.
      9.14012299e+01 1.05339890e+01 9.06074703e-01</_>
    <_>
      1.22677841e+02 1.54045593e+02 33063. 2.37597441e+04 32994.
      8.65726013e+01 8.98991680e+00 8.88533771e-01</_>
    <_>
      1.27245659e+02 1.57317139e+02 31671. 2.47796543e+04 31659.
      9.47118301e+01 5.89093447e+00 9.03188527e-01</_>
    <_>
      1.00357971e+02 1.26669090e+02 27675. 1.60651406e+04 27645.
      9.13716049e+01 8.05007744e+00 1.26398933e+00</_>
    <_>
      8.21898727e+01 1.04389442e+02 24285. 1.09107939e+04 24231.
      8.90885849e+01 1.04496212e+01 1.19392145e+00</_>
    <_>
      8.97844772e+01 1.17018333e+02 25341. 1.37104287e+04 25293.
      9.25466003e+01 7.95103788e+00 7.41034567e-01</_>
    <_>
      1.03453888e+02 2.19472504e+02 18774. 4.82284688e+04 18768.
      9.78612289e+01 1.50517046e+00 1.48646623e-01</_>
    <_>
      1.32605759e+02 2.30961639e+02 24303. 5.34100430e+04 24294.
      9.80450897e+01 1.64961421e+00 1.57068536e-01</_>
    <_>
      6.07173271e+01 8.63362732e+01 13071. 7.46328076e+03 13059.
      9.62832870e+01 3.29697156e+00 3.90191257e-01</_>
    <_>
      4.75537224e+01 6.34730759e+01 10485. 4.03387354e+03 10470.
      9.64215698e+01 3.02072358e+00 5.10781109e-01</_>
    <_>
      4.04826546e+01 5.61904564e+01 9168. 3.16131909e+03 9150.
      9.57857895e+01 3.28297544e+00 4.27189440e-01</_>
    <_>
      3.01774311e+01 4.22153625e+01 7434. 1.78436719e+03 7428.
      9.41672974e+01 5.40400791e+00 7.36884356e-01</_>
    <_>
      2.99259758e+01 4.10433426e+01 7404. 1.68666443e+03 7362.
      8.77475662e+01 8.70339012e+00 1.02745318e+00</_>
    <_>
      8.71429520e+01 1.95495728e+02 17331. 3.82664141e+04 17328.
      9.90363770e+01 6.65224254e-01 7.09399804e-02</_>
    <_>
      1.04710915e+02 2.01134384e+02 20085. 4.05056719e+04 20076.
      9.90340271e+01 7.07674205e-01 6.90772310e-02</_>
    <_>
      4.51747513e+01 6.26362610e+01 8769. 3.92821143e+03 8760.
      9.78221741e+01 1.91789973e+00 1.50376081e-01</_>
    <_>
      3.25868988e+01 4.43659210e+01 6681. 1.97079858e+03 6681.
      9.65604019e+01 2.77967978e+00 3.27152282e-01</_>
    <_>
      2.53662090e+01 3.23624229e+01 5985. 1.04863733e+03 5964.
      9.39143448e+01 4.32039595e+00 5.11614799e-01</_>
    <_>
      2.32901821e+01 2.95063648e+01 5721. 8.71715210e+02 5718.
      9.46290359e+01 4.08849096e+00 6.03697896e-01</_>
    <_>
      4.85440979e+01 8.86921310e+01 10971. 7.87613965e+03 10956.
      9.74908752e+01 2.30451965e+00 2.28021353e-01</_>
    <_>
      5.84140511e+01 9.23466797e+01 13530. 8.53858203e+03 13524.
      9.71194763e+01 2.49118447e+00 2.61779994e-01</_>
    <_>
      3.25574989e+01 4.08696327e+01 7818. 1.67241736e+03 7818.
      9.49641571e+01 5.96998835e+00 6.54159665e-01</_>
    <_>
      2.89080009e+01 3.63828506e+01 6777. 1.32536865e+03 6774.
      9.40761490e+01 5.50227833e+00 5.08926332e-01</_>
    <_>
      2.32447491e+01 2.95887127e+01 5994. 8.76587585e+02 5991.
      9.33758850e+01 6.39432240e+00 6.12158835e-01</_>
    <_>
      1.95809994e+01 2.67395782e+01 5526. 7.15899902e+02 5505.
      9.45338821e+01 7.50429487e+00 7.58130610e-01</_>
    <_>
      2.50786877e+01 3.78402481e+01 6039. 1.43367651e+03 6033.
      6.36412621e+01 4.22686195e+00 3.50425065e-01</_>
    <_>
      1.03864784e+02 2.22279648e+02 19983. 4.94700820e+04 19959.
      9.75804520e+01 9.34948862e-01 1.76015452e-01</_>
    <_>
      1.27509438e+02 2.28544418e+02 25899. 5.22979219e+04 25872.
      9.77090454e+01 1.19546640e+00 2.03255773e-01</_>
    <_>
      5.63531265e+01 7.40229797e+01 12918. 5.48625879e+03 12915.
      9.50411377e+01 5.14163637e+00 5.23160040e-01</_>
    <_>
      4.86318855e+01 6.45312729e+01 10167. 4.16949707e+03 10143.
      9.57183380e+01 5.56127548e+00 3.45235974e-01</_>
    <_>
      3.94422188e+01 5.11954193e+01 9384. 2.62425122e+03 9372.
      9.48001633e+01 5.77670097e+00 5.47402620e-01</_>
    <_>
      3.53833122e+01 4.48717537e+01 8700. 2.01599438e+03 8691.
      9.40260315e+01 5.33068752e+00 5.96007884e-01</_>
    <_>
      3.26702614e+01 4.21304512e+01 7590. 1.77719629e+03 7587.
      9.50805359e+01 4.43863106e+00 3.55206728e-01</_>
    <_>
      1.03556778e+02 2.23335220e+02 21192. 4.99410469e+04 21063.
      9.31364746e+01 9.64260519e-01 1.13043413e-01</_>
    <_>
      1.16191910e+02 2.29597824e+02 24600. 5.27811406e+04 24597.
      9.82040100e+01 1.25481975e+00 1.42628059e-01</_>
    <_>
      4.33691254e+01 6.66173096e+01 11148. 4.44342041e+03 11136.
      8.90498962e+01 1.08380938e+01 2.63223028e+00</_>
    <_>
      3.44560318e+01 4.33912277e+01 8490. 1.88515503e+03 8472.
      9.32910156e+01 6.00025558e+00 8.25903773e-01</_>
    <_>
      3.18553505e+01 4.13075714e+01 7629. 1.70845093e+03 7608.
      9.37897491e+01 6.59921837e+00 6.74152970e-01</_>
    <_>
      2.92437286e+01 3.91973915e+01 7389. 1.53835840e+03 7386.
      9.42291946e+01 7.41642475e+00 6.94247246e-01</_>
    <_>
      2.96544380e+01 3.97997284e+01 7773. 1.58600098e+03 7770.
      9.25356140e+01 7.96102095e+00 9.06488955e-01</_>
    <_>
      3.88764572e+01 5.42981415e+01 9195. 2.95197803e+03 9195.
      8.26603622e+01 4.14020300e+00 3.79537135e-01</_>
    <_>
      7.37837982e+01 1.69490402e+02 13347. 2.87629492e+04 13335.
      9.76142273e+01 1.01086867e+00 7.05197230e-02</_>
    <_>
      1.28431046e+02 2.05475800e+02 24516. 4.22731445e+04 24444.
      9.45413971e+01 1.62584615e+00 1.41149506e-01</_>
    <_>
      2.34881805e+02 3.27878326e+02 50088. 1.07638750e+05 49986.
      9.27331772e+01 3.75194836e+00 2.18805641e-01</_>
    <_>
      3.53664642e+02 4.42470093e+02 81339. 1.96024812e+05 81249.
      9.31547623e+01 5.66441679e+00 5.07658243e-01</_>
    <_>
      3.71553925e+02 4.56016388e+02 93573. 2.08211203e+05 93480.
      9.43209076e+01 6.64296484e+00 5.66292703e-01</_>
    <_>
      3.60453644e+02 4.44240204e+02 93213. 1.97596344e+05 93162.
      9.42104263e+01 5.68546247e+00 3.72601599e-01</_>
    <_>
      3.11769409e+02 3.91359344e+02 79941. 1.53353828e+05 79779.
      9.22403641e+01 5.89276886e+00 4.63557363e-01</_>
    <_>
      2.61120636e+02 3.24484344e+02 66042. 1.05421859e+05 66000.
      9.51547546e+01 5.74905157e+00 4.80295628e-01</_>
    <_>
      2.60752106e+02 3.20478455e+02 63699. 1.02834984e+05 63600.
      9.19562607e+01 6.20526361e+00 5.01367331e-01</_>
    <_>
      2.52986893e+02 3.09871521e+02 58890. 9.61405391e+04 58614.
      9.33058090e+01 5.61538267e+00 5.60028493e-01</_>
    <_>
      2.46121353e+02 3.09169006e+02 55275. 9.57051172e+04 55095.
      9.10473404e+01 2.97850132e+00 4.99874383e-01</_>
    <_>
      2.29718552e+02 2.93521637e+02 54342. 8.62627812e+04 54303.
      9.50774918e+01 4.32887602e+00 4.98032212e-01</_>
    <_>
      2.00283295e+02 2.47335968e+02 48447. 6.12516445e+04 48345.
      9.46407242e+01 6.47075033e+00 5.66461980e-01</_>
    <_>
      2.03846436e+02 2.55338486e+02 46584. 6.52793398e+04 46563.
      9.57620163e+01 3.96027756e+00 2.91339368e-01</_>
    <_>
      1.93193985e+02 2.45565277e+02 48630. 6.03777773e+04 48570.
      9.51638107e+01 4.27361202e+00 3.60900074e-01</_>
    <_>
      1.74074722e+02 2.16672516e+02 44646. 4.70057344e+04 44643.
      9.54050980e+01 6.34017229e+00 4.90811706e-01</_>
    <_>
      1.73330154e+02 2.14482574e+02 38592. 4.60603477e+04 38559.
      9.68564377e+01 5.00380802e+00 3.44757289e-01</_>
    <_>
      1.69479492e+02 2.15194183e+02 36498. 4.63664922e+04 36381.
      9.35671158e+01 3.89421463e+00 3.06686372e-01</_>
    <_>
      1.44825546e+02 1.93243958e+02 33897. 3.73899609e+04 33870.
      9.41730042e+01 5.10627270e+00 4.62972015e-01</_>
    <_>
      1.45119247e+02 1.91924683e+02 33135. 3.68811875e+04 33117.
      9.54335327e+01 5.55024195e+00 4.54622567e-01</_>
    <_>
      1.62383865e+02 2.02978302e+02 32649. 4.12517578e+04 32628.
      9.64796448e+01 5.06628799e+00 4.18651164e-01</_>
    <_>
      1.15998772e+02 1.64690201e+02 22614. 2.71568066e+04 22614.
      9.71697311e+01 4.26410866e+00 2.99005240e-01</_>
    <_>
      1.31437012e+02 3.02843994e+02 26811. 9.18292734e+04 26646.
      8.44467239e+01 3.69881320e+00 6.15038991e-01</_>
    <_>
      2.21151306e+02 3.48535645e+02 48828. 1.21629141e+05 48786.
      9.48740692e+01 5.18827057e+00 7.44051814e-01</_>
    <_>
      1.56265335e+02 2.01090302e+02 37623. 4.04879180e+04 37611.
      9.27338333e+01 8.51108932e+00 1.06385505e+00</_>
    <_>
      8.56099854e+01 1.12339561e+02 21252. 1.26359727e+04 21231.
      9.42331009e+01 8.33538246e+00 6.66711926e-01</_>
    <_>
      5.53725014e+01 7.28509979e+01 14406. 5.31391064e+03 14391.
      9.49849396e+01 8.13579845e+00 6.36469603e-01</_>
    <_>
      5.23112831e+01 7.56137390e+01 12168. 5.72459375e+03 12159.
      9.63274155e+01 4.70448112e+00 4.99814332e-01</_>
    <_>
      3.79473000e+01 5.77847366e+01 8643. 3.34325464e+03 8634.
      9.58839645e+01 4.42287636e+00 4.72483218e-01</_>
    <_>
      2.23550529e+01 2.92621899e+01 6279. 8.57347412e+02 6276.
      9.09174194e+01 1.11084290e+01 1.30806112e+00</_>
    <_>
      2.98621502e+01 4.39368401e+01 7818. 1.93286206e+03 7809.
      9.28298264e+01 7.02380943e+00 3.99114400e-01</_>
    <_>
      1.02788773e+02 1.90767395e+02 18597. 3.64377461e+04 18564.
      9.65691833e+01 1.64573455e+00 2.20976144e-01</_>
    <_>
      1.25387398e+02 1.97716843e+02 21735. 3.91408750e+04 21720.
      9.79855957e+01 1.59579897e+00 2.21783847e-01</_>
    <_>
      4.91317863e+01 6.53613052e+01 9414. 4.27744678e+03 9402.
      9.71541214e+01 2.67862296e+00 3.44695240e-01</_>
    <_>
      3.50059586e+01 4.66886673e+01 8298. 2.18255957e+03 8289.
      9.27683945e+01 4.54326582e+00 6.00273073e-01</_>
    <_>
      3.20463562e+01 4.12262115e+01 6972. 1.70172766e+03 6969.
      9.59559860e+01 3.52566767e+00 4.73209590e-01</_>
    <_>
      2.89595165e+01 3.77136803e+01 6228. 1.42410181e+03 6210.
      9.42404480e+01 3.47220325e+00 4.79155242e-01</_>
    <_>
      2.83484993e+01 3.81063309e+01 6636. 1.45390979e+03 6612.
      8.44560699e+01 4.74789476e+00 3.96090031e-01</_>
    <_>
      4.95784035e+01 1.25103340e+02 10203. 1.56704336e+04 10179.
      9.65627518e+01 2.03318238e+00 1.19918242e-01</_>
    <_>
      6.36241302e+01 1.33342224e+02 12972. 1.78024004e+04 12963.
      9.78522034e+01 2.20937705e+00 2.76735753e-01</_>
    <_>
      3.72723083e+01 5.61260567e+01 8373. 3.15407690e+03 8364.
      9.31264496e+01 4.21391344e+00 1.27420318e+00</_>
    <_>
      2.48384342e+01 3.33723030e+01 6093. 1.11510437e+03 6093.
      9.44336929e+01 7.19633484e+00 8.33795965e-01</_>
    <_>
      2.11498585e+01 2.79882107e+01 5475. 7.84320374e+02 5469.
      9.34883575e+01 7.78853035e+00 9.43074107e-01</_>
    <_>
      1.76679001e+01 2.34360485e+01 4380. 5.49935791e+02 4377.
      9.18915558e+01 6.68321323e+00 9.22961593e-01</_>
    <_>
      1.84184246e+01 2.76064091e+01 4122. 7.63067627e+02 4107.
      8.54652710e+01 4.98685789e+00 3.80423248e-01</_>
    <_>
      3.21562881e+01 8.17350388e+01 6594. 6.68897803e+03 6435.
      5.20166512e+01 1.36807132e+00 6.58143684e-02</_>
    <_>
      7.25212479e+01 1.56268234e+02 12846. 2.44503242e+04 12846.
      9.87464294e+01 1.09811080e+00 7.59790242e-02</_>
    <_>
      5.74908371e+01 1.34678955e+02 10740. 1.81611211e+04 10731.
      9.88843765e+01 1.36436152e+00 1.28973112e-01</_>
    <_>
      1.75943069e+01 2.23214912e+01 4419. 4.98872528e+02 4419.
      9.22937927e+01 9.03446388e+00 1.05503309e+00</_>
    <_>
      1.57034998e+01 1.96163292e+01 4035. 3.85282013e+02 4029.
      9.21098785e+01 7.29287291e+00 8.90537918e-01</_>
    <_>
      1.23168564e+01 1.49589558e+01 3828. 2.24050430e+02 3828.
      8.92120361e+01 1.15832214e+01 1.53357899e+00</_>
    <_>
      1.36061811e+01 1.78461533e+01 4020. 3.18883789e+02 4005.
      7.96887665e+01 8.57365894e+00 1.05313802e+00</_>
    <_>
      4.34010391e+01 9.86620636e+01 8985. 9.74638574e+03 8982.
      9.76324234e+01 3.52794194e+00 3.89494210e-01</_>
    <_>
      4.45797005e+01 9.88115005e+01 9288. 9.77593164e+03 9288.
      9.76366043e+01 3.85189462e+00 4.18148905e-01</_>
    <_>
      1.59348745e+01 2.09263439e+01 4266. 4.38459961e+02 4263.
      9.21363602e+01 9.39015770e+00 1.23932052e+00</_>
    <_>
      1.52576904e+01 1.95297756e+01 3786. 3.81889465e+02 3783.
      9.17985458e+01 8.89032459e+00 1.47327721e+00</_>
    <_>
      1.60425758e+01 2.14820728e+01 3753. 4.62057007e+02 3753.
      9.33297119e+01 7.72124815e+00 1.01322031e+00</_>
    <_>
      1.42822123e+01 1.94897728e+01 3498. 3.80326660e+02 3495.
      9.41069336e+01 6.25600147e+00 6.94409788e-01</_>
    <_>
      4.24531517e+01 9.69562836e+01 9450. 9.41228711e+03 9312.
      6.01500931e+01 2.04370356e+00 6.06400333e-02</_>
    <_>
      2.19005707e+02 3.46178070e+02 42912. 1.19989234e+05 42894.
      9.52331848e+01 2.38452935e+00 1.62838206e-01</_>
    <_>
      3.21866302e+02 4.11185455e+02 69132. 1.69285078e+05 69054.
      9.68338623e+01 3.64286709e+00 3.03429902e-01</_>
    <_>
      2.45945404e+02 3.07147644e+02 61542. 9.44577422e+04 61359.
      9.42563324e+01 5.88880777e+00 3.70094121e-01</_>
    <_>
      2.14438049e+02 2.61709381e+02 52611. 6.85775234e+04 52602.
      9.37712784e+01 6.75769663e+00 3.82434934e-01</_>
    <_>
      2.21330795e+02 2.79284515e+02 49884. 7.80974609e+04 49869.
      9.54706039e+01 6.44982719e+00 4.74117994e-01</_>
    <_>
      2.26393051e+02 2.89981567e+02 51459. 8.41945547e+04 51447.
      9.34239044e+01 5.91448736e+00 5.17882049e-01</_>
    <_>
      2.21386856e+02 2.82624451e+02 49497. 7.99765625e+04 49452.
      9.57061539e+01 4.34192991e+00 4.16031837e-01</_>
    <_>
      2.12243713e+02 2.70810333e+02 45105. 7.34300156e+04 44955.
      9.48047791e+01 3.14275193e+00 2.80861020e-01</_>
    <_>
      1.77260818e+02 2.27183533e+02 43416. 5.16769531e+04 43374.
      9.48183746e+01 6.00837946e+00 5.91621876e-01</_>
    <_>
      1.57840057e+02 2.01406357e+02 40368. 4.06152891e+04 40323.
      9.34344635e+01 8.98003578e+00 8.19656134e-01</_>
    <_>
      1.65646027e+02 2.09790359e+02 35928. 4.40670781e+04 35889.
      9.54217224e+01 3.79197645e+00 3.79524142e-01</_>
    <_>
      1.64847015e+02 2.11846634e+02 35412. 4.49351680e+04 35412.
      9.60709305e+01 3.53569913e+00 2.61642784e-01</_>
    <_>
      1.49799545e+02 1.95512238e+02 36048. 3.82728750e+04 36000.
      9.47156219e+01 4.56296778e+00 3.02791208e-01</_>
    <_>
      1.32179764e+02 1.70519226e+02 34242. 2.91131992e+04 34236.
      9.48808136e+01 6.20881033e+00 4.63565975e-01</_>
    <_>
      1.44586456e+02 1.85858322e+02 35652. 3.45865469e+04 35631.
      9.54132004e+01 4.65602446e+00 3.92725319e-01</_>
    <_>
      1.60743256e+02 2.02941818e+02 37092. 4.12369258e+04 37026.
      9.08103867e+01 3.17144322e+00 2.63180912e-01</_>
    <_>
      1.42954132e+02 1.78764938e+02 33153. 3.19968984e+04 33069.
      9.31939850e+01 4.01923990e+00 3.49021941e-01</_>
    <_>
      1.61630630e+02 2.17119766e+02 34515. 4.71999961e+04 34422.
      9.41275406e+01 2.41090488e+00 2.22754687e-01</_>
    <_>
      1.69160431e+02 2.28951126e+02 36774. 5.24842266e+04 36732.
      9.70203476e+01 2.23275566e+00 2.01025009e-01</_>
    <_>
      1.49336411e+02 1.97679962e+02 34083. 3.91262773e+04 34023.
      9.74162292e+01 4.33465242e+00 2.39823177e-01</_>
    <_>
      1.67660187e+02 2.18899368e+02 34125. 4.79769062e+04 34044.
      9.49748535e+01 2.96889043e+00 1.65220305e-01</_>
    <_>
      1.58780594e+02 2.08494614e+02 35664. 4.35244102e+04 35592.
      9.35274353e+01 7.10191154e+00 6.51847303e-01</_>
    <_>
      7.80428619e+01 1.72278870e+02 14577. 2.97171543e+04 14577.
      9.74799500e+01 1.95871186e+00 3.94815713e-01</_>
    <_>
      9.53303146e+01 1.77714844e+02 18840. 3.16220918e+04 18837.
      9.77932968e+01 2.40649581e+00 4.35302526e-01</_>
    <_>
      4.13223763e+01 5.53497925e+01 10962. 3.06743384e+03 10950.
      9.15989151e+01 9.24545193e+00 1.16596711e+00</_>
    <_>
      3.75787697e+01 4.71608200e+01 9579. 2.22692651e+03 9579.
      9.27644501e+01 8.87186813e+00 9.65158224e-01</_>
    <_>
      3.88319817e+01 5.01732140e+01 9489. 2.52050195e+03 9477.
      9.34919739e+01 7.12730551e+00 8.30757856e-01</_>
    <_>
      3.35844460e+01 4.45854263e+01 8919. 1.99034827e+03 8913.
      9.35544357e+01 7.19749260e+00 1.06351578e+00</_>
    <_>
      2.96843719e+01 3.94925308e+01 8736. 1.56161194e+03 8736.
      8.99605179e+01 9.74129200e+00 1.55243158e+00</_>
    <_>
      4.84688721e+01 1.03769524e+02 12849. 1.07815908e+04 12804.
      9.42929001e+01 2.19274497e+00 1.97284058e-01</_>
    <_>
      7.64323883e+01 1.34510925e+02 19743. 1.81158340e+04 19725.
      9.55726242e+01 4.19216490e+00 2.98779726e-01</_>
    <_>
      6.01173477e+01 9.58984146e+01 15804. 9.20801660e+03 15762.
      9.25644608e+01 6.89228344e+00 5.48231900e-01</_>
    <_>
      3.67063484e+01 4.86575851e+01 10167. 2.37052368e+03 10125.
      9.18972244e+01 9.98265743e+00 9.33910489e-01</_>
    <_>
      2.83494377e+01 3.78099022e+01 8427. 1.43137781e+03 8409.
      8.90903091e+01 1.14769859e+01 1.47010219e+00</_>
    <_>
      2.33807812e+01 3.02925510e+01 7878. 9.18787048e+02 7875.
      8.27988205e+01 1.78186893e+01 1.92821586e+00</_>
    <_>
      2.22307968e+01 2.82304020e+01 7272. 7.97953064e+02 7254.
      8.57049789e+01 1.54809427e+01 1.40279508e+00</_>
    <_>
      2.39694004e+01 3.07068138e+01 7095. 9.44088501e+02 7092.
      8.74998550e+01 1.32197590e+01 1.47822869e+00</_>
    <_>
      5.05001259e+01 9.94101410e+01 11907. 9.89474512e+03 11892.
      9.35285339e+01 1.52171957e+00 3.41471791e-01</_>
    <_>
      7.28015213e+01 1.14977348e+02 15570. 1.32363369e+04 15558.
      9.75236969e+01 1.73516035e+00 3.58047038e-01</_>
    <_>
      4.78143005e+01 6.66181946e+01 11169. 4.44353809e+03 11166.
      9.52921677e+01 5.54394484e+00 7.01756895e-01</_>
    <_>
      4.00761375e+01 6.24002838e+01 9285. 3.89866870e+03 9267.
      9.64632416e+01 5.36644077e+00 4.80729967e-01</_>
    <_>
      4.04000435e+01 6.17412605e+01 8925. 3.81675415e+03 8916.
      9.65910721e+01 4.24419212e+00 4.79813099e-01</_>
    <_>
      2.93369999e+01 3.71470871e+01 7620. 1.38163318e+03 7617.
      9.12260284e+01 1.03618126e+01 9.26574945e-01</_>
    <_>
      2.74056568e+01 3.79121819e+01 7497. 1.43913232e+03 7497.
      9.28379288e+01 8.65485859e+00 6.89716101e-01</_>
    <_>
      4.02896996e+01 7.64080734e+01 8868. 5.84550049e+03 8787.
      5.61575966e+01 3.48546338e+00 2.02390030e-01</_>
    <_>
      6.28168488e+01 9.72813568e+01 14262. 9.47550684e+03 14250.
      9.27263107e+01 7.08826208e+00 1.24954975e+00</_>
    <_>
      5.20906143e+01 7.22397232e+01 13116. 5.22510889e+03 13107.
      8.80054550e+01 1.02889090e+01 2.39114189e+00</_>
    <_>
      3.73064079e+01 4.99570045e+01 8370. 2.49882593e+03 8361.
      9.50927429e+01 5.39910746e+00 6.22802258e-01</_>
    <_>
      4.12712631e+01 5.52408943e+01 7782. 3.05537549e+03 7773.
      9.64019241e+01 3.64229202e+00 2.84866631e-01</_>
    <_>
      3.83585625e+01 5.04198494e+01 7809. 2.54534277e+03 7803.
      9.53124237e+01 5.18680382e+00 4.37361419e-01</_>
    <_>
      2.74020557e+01 3.51125870e+01 6669. 1.23443677e+03 6660.
      9.02972565e+01 8.29306602e+00 9.07474995e-01</_>
    <_>
      4.72849770e+01 7.33242035e+01 11769. 5.38316748e+03 11760.
      9.26985703e+01 7.17193794e+00 8.21091175e-01</_>
    <_>
      5.85566826e+01 8.11194382e+01 13806. 6.58859863e+03 13803.
      9.37450180e+01 6.85926008e+00 8.37698340e-01</_>
    <_>
      3.38253746e+01 4.59774437e+01 8223. 2.11657104e+03 8214.
      8.91947403e+01 6.01982069e+00 8.03805828e-01</_>
    <_>
      2.94388504e+01 3.90504379e+01 7929. 1.52684521e+03 7923.
      8.98916550e+01 1.08124533e+01 1.07875681e+00</_>
    <_>
      2.51630630e+01 3.48745041e+01 6708. 1.21775317e+03 6690.
      9.27917023e+01 9.32682323e+00 7.57311404e-01</_>
    <_>
      2.13596535e+01 2.70411434e+01 6084. 7.32138611e+02 6084.
      8.66433640e+01 1.04958363e+01 1.35710835e+00</_>
    <_>
      2.25971718e+01 2.84676800e+01 6762. 8.11423096e+02 6750.
      8.39627609e+01 1.08690577e+01 1.51075196e+00</_>
    <_>
      6.86500092e+01 1.23191994e+02 14655. 1.51952607e+04 14640.
      9.27725601e+01 2.73275161e+00 4.61949080e-01</_>
    <_>
      8.53044815e+01 1.32078217e+02 18996. 1.74664883e+04 18987.
      9.54119186e+01 3.75733685e+00 6.55281842e-01</_>
    <_>
      4.88078995e+01 6.39203339e+01 12912. 4.09092261e+03 12879.
      9.18349152e+01 9.38307476e+00 6.76631570e-01</_>
    <_>
      4.76930618e+01 6.13096199e+01 12702. 3.76357373e+03 12687.
      9.08327255e+01 1.17451591e+01 1.08765209e+00</_>
    <_>
      5.04348946e+01 6.63957214e+01 13749. 4.41390967e+03 13740.
      9.20180283e+01 1.12467604e+01 9.13717985e-01</_>
    <_>
      4.68801384e+01 6.03941689e+01 13536. 3.65202075e+03 13533.
      9.18694992e+01 1.15568113e+01 1.07853830e+00</_>
    <_>
      4.75452003e+01 5.88177986e+01 13017. 3.46386328e+03 13005.
      9.06895447e+01 9.81585217e+00 9.42846596e-01</_>
    <_>
      5.05559044e+01 6.44540253e+01 12438. 4.15952051e+03 12426.
      9.37397079e+01 8.00202084e+00 7.41189241e-01</_>
    <_>
      5.05039330e+01 6.81834717e+01 12642. 4.65480371e+03 12633.
      9.38920135e+01 1.00351582e+01 6.19417071e-01</_>
    <_>
      5.26860008e+01 6.88186188e+01 12777. 4.74192969e+03 12768.
      9.44116440e+01 9.68146801e+00 6.63355947e-01</_>
    <_>
      5.03533134e+01 6.29365234e+01 12912. 3.96596338e+03 12879.
      9.26789169e+01 9.18299389e+00 9.07841563e-01</_>
    <_>
      4.54383659e+01 5.76561279e+01 12903. 3.32838965e+03 12879.
      9.01623611e+01 1.18598576e+01 1.14837265e+00</_>
    <_>
      4.74230423e+01 6.01695824e+01 11838. 3.62490991e+03 11832.
      9.43184128e+01 7.17098904e+00 6.62330866e-01</_>
    <_>
      4.58242302e+01 5.86759262e+01 11604. 3.44717334e+03 11586.
      9.31155243e+01 9.10031605e+00 8.16688478e-01</_>
    <_>
      4.48903122e+01 6.15551949e+01 11427. 3.79378418e+03 11415.
      9.42032166e+01 7.70362806e+00 7.91070580e-01</_>
    <_>
      4.47309380e+01 6.07601089e+01 10701. 3.69641138e+03 10677.
      9.34545059e+01 7.40122652e+00 5.70866823e-01</_>
    <_>
      4.36752014e+01 5.56224289e+01 10497. 3.09772656e+03 10473.
      9.35344162e+01 9.11047077e+00 8.59319508e-01</_>
    <_>
      5.50638008e+01 7.63024750e+01 13926. 5.82935449e+03 13920.
      9.20835648e+01 7.77085972e+00 5.66398501e-01</_>
    <_>
      3.42389908e+01 6.74265060e+01 8181. 4.55202393e+03 8148.
      7.97870941e+01 4.58186579e+00 2.59601504e-01</_>
    <_>
      6.82687149e+01 1.09908829e+02 16047. 1.20950703e+04 16026.
      9.58521194e+01 4.26956415e+00 3.95572454e-01</_>
    <_>
      6.25671082e+01 9.60499649e+01 15294. 9.23714258e+03 15288.
      9.63453674e+01 4.58038330e+00 4.48550999e-01</_>
    <_>
      3.57616882e+01 4.70298691e+01 9498. 2.21457690e+03 9489.
      9.19061127e+01 8.75829506e+00 9.71098125e-01</_>
    <_>
      3.00974998e+01 3.74110756e+01 8328. 1.40134021e+03 8328.
      8.96835861e+01 1.12865171e+01 1.26119661e+00</_>
    <_>
      2.82095242e+01 3.66320114e+01 7920. 1.34358374e+03 7914.
      9.17651978e+01 1.20925093e+01 6.80960774e-01</_>
    <_>
      2.58824615e+01 3.47437630e+01 7542. 1.20863977e+03 7530.
      9.21678238e+01 1.06247931e+01 6.96283698e-01</_>
    <_>
      4.96952362e+01 8.79033203e+01 11349. 7.73666406e+03 11319.
      9.52744751e+01 4.11633301e+00 3.05937082e-01</_>
    <_>
      8.52257843e+01 1.23605019e+02 16725. 1.52973213e+04 16689.
      9.59857483e+01 3.78212571e+00 2.66685635e-01</_>
    <_>
      7.35694504e+01 1.01552910e+02 14793. 1.03259004e+04 14781.
      9.64204865e+01 4.36886311e+00 4.88411427e-01</_>
    <_>
      4.49264908e+01 5.76543198e+01 11523. 3.32818091e+03 11523.
      9.22354736e+01 8.68081570e+00 1.28462279e+00</_>
    <_>
      3.91849861e+01 4.98750725e+01 10371. 2.49063599e+03 10347.
      8.73688583e+01 8.51876259e+00 1.11210978e+00</_>
    <_>
      4.31072998e+01 5.41689339e+01 10725. 2.93794604e+03 10716.
      8.93820877e+01 7.69433832e+00 1.00289214e+00</_>
    <_>
      3.61870308e+01 4.63602982e+01 9663. 2.15196729e+03 9657.
      9.04260559e+01 1.00048962e+01 8.26634169e-01</_>
    <_>
      7.85107498e+01 1.53944000e+02 15894. 2.37284180e+04 15858.
      9.72575226e+01 1.76998830e+00 1.34565398e-01</_>
    <_>
      1.06535477e+02 1.73139145e+02 22137. 3.00146816e+04 22095.
      9.68106079e+01 2.45490003e+00 2.05936745e-01</_>
    <_>
      7.11585388e+01 9.80033112e+01 16695. 9.61666992e+03 16674.
      9.41607208e+01 4.96202564e+00 5.22781491e-01</_>
    <_>
      4.70893784e+01 6.02258224e+01 11739. 3.63168921e+03 11697.
      9.14282227e+01 8.92041302e+00 1.11932480e+00</_>
    <_>
      3.95883102e+01 4.96967735e+01 10332. 2.47286035e+03 10323.
      9.02814865e+01 1.08303223e+01 1.00782776e+00</_>
    <_>
      3.74070930e+01 4.66131744e+01 9363. 2.17550757e+03 9357.
      9.23530045e+01 9.99686813e+00 1.14195263e+00</_>
    <_>
      3.48311729e+01 4.39702759e+01 8796. 1.93580481e+03 8763.
      9.20750656e+01 1.11827183e+01 8.95590067e-01</_>
    <_>
      3.70146751e+01 4.86476326e+01 10020. 2.36955420e+03 9999.
      9.18152618e+01 1.27817497e+01 5.37476420e-01</_>
    <_>
      6.11755142e+01 9.03441772e+01 14427. 8.17228564e+03 14403.
      9.47484283e+01 5.01340723e+00 3.22825342e-01</_>
    <_>
      7.09910660e+01 1.01882446e+02 16896. 1.03930244e+04 16890.
      9.54063492e+01 7.20810270e+00 3.92054647e-01</_>
    <_>
      5.68408127e+01 7.72089844e+01 12555. 5.96868799e+03 12552.
      9.49568100e+01 7.10017967e+00 6.35701716e-01</_>
    <_>
      5.30358734e+01 7.20511932e+01 10227. 5.19787158e+03 10224.
      9.58430328e+01 4.66593266e+00 6.28336847e-01</_>
    <_>
      4.25858612e+01 6.12565155e+01 8808. 3.75705688e+03 8796.
      9.30971756e+01 5.37450314e+00 5.53468883e-01</_>
    <_>
      3.74957924e+01 5.01904793e+01 8631. 2.52223682e+03 8622.
      9.51633453e+01 7.14511395e+00 4.81982887e-01</_>
    <_>
      3.32484474e+01 4.47895699e+01 8475. 2.00861621e+03 8460.
      9.36406021e+01 8.12262821e+00 6.67631626e-01</_>
    <_>
      5.86029091e+01 8.88458786e+01 14028. 7.90346924e+03 14025.
      9.27848892e+01 5.20353556e+00 8.38630855e-01</_>
    <_>
      6.53743668e+01 9.27917480e+01 15630. 8.62108496e+03 15630.
      9.48247528e+01 5.78500986e+00 8.10908020e-01</_>
    <_>
      4.62076874e+01 6.51978683e+01 8907. 4.25608203e+03 8904.
      9.64960938e+01 4.05626726e+00 3.68148565e-01</_>
    <_>
      4.78886642e+01 6.73142776e+01 8325. 4.53688281e+03 8316.
      9.50883255e+01 2.87053990e+00 2.88141459e-01</_>
    <_>
      3.50674858e+01 4.69838104e+01 8337. 2.21024121e+03 8319.
      9.29823837e+01 6.73808622e+00 8.28905046e-01</_>
    <_>
      2.57750435e+01 3.30570107e+01 7308. 1.09413367e+03 7308.
      8.74033661e+01 1.46895657e+01 1.42249286e+00</_>
    <_>
      6.96997375e+01 1.13516708e+02 15045. 1.29021699e+04 15042.
      9.64017487e+01 3.89793444e+00 3.73740196e-01</_>
    <_>
      1.01177582e+02 1.40693268e+02 19932. 1.98193672e+04 19926.
      9.72047424e+01 3.32913446e+00 3.50109756e-01</_>
    <_>
      7.59652481e+01 1.05418411e+02 14733. 1.11269502e+04 14730.
      9.71912918e+01 3.02733326e+00 3.46374780e-01</_>
    <_>
      5.99126434e+01 7.96728058e+01 13359. 6.35570068e+03 13338.
      9.29374542e+01 4.36547661e+00 5.09350300e-01</_>
    <_>
      6.15004883e+01 8.07417679e+01 13665. 6.52739258e+03 13656.
      9.48999710e+01 4.87617779e+00 7.95706153e-01</_>
    <_>
      6.48798828e+01 8.50588531e+01 12864. 7.24406396e+03 12858.
      9.66494675e+01 3.50769329e+00 4.35619473e-01</_>
    <_>
      6.04509392e+01 8.00861359e+01 12849. 6.42181592e+03 12840.
      9.52518311e+01 4.78385687e+00 5.78681529e-01</_>
    <_>
      5.70471764e+01 7.59242401e+01 13293. 5.77170459e+03 13290.
      9.34473572e+01 6.17023039e+00 6.36504114e-01</_>
    <_>
      5.13345757e+01 6.82421188e+01 12531. 4.66281494e+03 12501.
      9.27095795e+01 8.80209827e+00 9.40538824e-01</_>
    <_>
      5.51365128e+01 7.47690048e+01 12870. 5.59740039e+03 12858.
      9.39662018e+01 5.84128189e+00 7.63960302e-01</_>
    <_>
      5.53453026e+01 7.62882614e+01 11967. 5.82718311e+03 11967.
      9.69074020e+01 4.07569122e+00 4.87248212e-01</_>
    <_>
      4.16323204e+01 5.79679375e+01 10275. 3.36448730e+03 10275.
      9.35533447e+01 6.11045599e+00 7.15725601e-01</_>
    <_>
      3.79971085e+01 5.06173859e+01 10161. 2.56532642e+03 10140.
      9.00226898e+01 7.66256428e+00 7.64068663e-01</_>
    <_>
      6.06712494e+01 9.66946030e+01 13188. 9.36154883e+03 13188.
      9.59403076e+01 5.76818943e+00 3.05345386e-01</_>
    <_>
      5.12152405e+01 8.21676636e+01 11700. 6.75997510e+03 11694.
      9.42914581e+01 7.51474047e+00 5.13802648e-01</_>
    <_>
      2.89826241e+01 3.83753700e+01 7731. 1.47451221e+03 7719.
      9.19960403e+01 8.78871727e+00 7.29749382e-01</_>
    <_>
      3.01167755e+01 3.98489647e+01 8547. 1.58992737e+03 8532.
      9.19835892e+01 9.18984890e+00 7.65572786e-01</_>
    <_>
      2.69326687e+01 3.50139275e+01 7986. 1.22750940e+03 7983.
      8.97145157e+01 1.02268562e+01 1.04083884e+00</_>
    <_>
      2.48444538e+01 3.07632999e+01 7254. 9.47565063e+02 7233.
      8.80210037e+01 1.10388727e+01 1.18979394e+00</_>
    <_>
      2.84779682e+01 3.54171371e+01 7569. 1.25594348e+03 7536.
      8.36838760e+01 1.09713545e+01 1.09408307e+00</_>
    <_>
      5.55292397e+01 9.56223755e+01 11970. 9.15508301e+03 11946.
      9.60683594e+01 4.66317368e+00 5.88683188e-01</_>
    <_>
      5.93112755e+01 9.82318802e+01 13398. 9.66157910e+03 13398.
      9.66901779e+01 5.28340244e+00 6.54650569e-01</_>
    <_>
      3.32234077e+01 4.56222649e+01 8757. 2.08399609e+03 8754.
      9.26743240e+01 8.11779976e+00 8.49405706e-01</_>
    <_>
      3.03643494e+01 4.10072136e+01 8301. 1.68369604e+03 8295.
      9.36974030e+01 8.71512890e+00 6.59034729e-01</_>
    <_>
      3.11441994e+01 4.06266785e+01 8421. 1.65259290e+03 8382.
      9.15677872e+01 8.57166100e+00 1.07480764e+00</_>
    <_>
      3.05794868e+01 3.88087959e+01 8520. 1.50800781e+03 8496.
      9.18073883e+01 1.15434361e+01 1.47207224e+00</_>
    <_>
      4.98845520e+01 8.48758469e+01 11175. 7.21292578e+03 11172.
      8.52827225e+01 6.88824224e+00 6.14623070e-01</_>
    <_>
      7.14494781e+01 1.05494438e+02 14403. 1.11430049e+04 14394.
      9.55907364e+01 5.51547098e+00 4.46466714e-01</_>
    <_>
      4.88163376e+01 7.17195129e+01 10260. 5.15012646e+03 10248.
      9.61790466e+01 4.85957384e+00 5.36303639e-01</_>
    <_>
      3.20889740e+01 4.04181595e+01 8706. 1.63567236e+03 8700.
      9.09351807e+01 9.54425335e+00 8.46261621e-01</_>
    <_>
      3.52826996e+01 4.66198540e+01 8562. 2.17613110e+03 8550.
      9.24227829e+01 7.08062649e+00 9.71961617e-01</_>
    <_>
      3.47777901e+01 4.64202118e+01 7599. 2.15753320e+03 7584.
      9.19817581e+01 6.42596722e+00 9.30742025e-01</_>
    <_>
      2.93228436e+01 3.92771721e+01 7497. 1.54462708e+03 7476.
      9.27531738e+01 6.76019907e+00 7.50414431e-01</_>
    <_>
      2.59395008e+01 3.52592888e+01 7398. 1.24477344e+03 7392.
      9.12366180e+01 8.39716434e+00 9.76488769e-01</_>
    <_>
      2.91411743e+01 3.83785172e+01 8085. 1.47475415e+03 8085.
      8.84377747e+01 1.00775881e+01 1.10520625e+00</_>
    <_>
      6.23784828e+01 1.03352341e+02 13581. 1.06950752e+04 13572.
      9.67180252e+01 5.11676550e+00 4.21930611e-01</_>
    <_>
      5.74891891e+01 9.32302094e+01 12159. 8.70275098e+03 12156.
      9.65731735e+01 6.18807030e+00 5.56393623e-01</_>
    <_>
      3.32701492e+01 4.22048302e+01 7317. 1.78347693e+03 7305.
      9.47471008e+01 6.23667145e+00 7.89903283e-01</_>
    <_>
      3.00420742e+01 3.90482292e+01 6852. 1.52667249e+03 6840.
      9.41225662e+01 8.25942612e+00 9.35225546e-01</_>
    <_>
      2.58004684e+01 3.35982170e+01 6843. 1.13025305e+03 6843.
      9.16547318e+01 1.10021830e+01 1.10192192e+00</_>
    <_>
      2.55153751e+01 3.22373505e+01 6810. 1.04054761e+03 6807.
      9.25978851e+01 1.04301367e+01 1.03730273e+00</_>
    <_>
      2.65812759e+01 3.52445030e+01 7050. 1.24372961e+03 7041.
      9.14198074e+01 8.74116421e+00 7.35225022e-01</_>
    <_>
      4.51945305e+01 8.19820709e+01 11409. 6.72947217e+03 11358.
      8.75900269e+01 3.99244142e+00 5.68471730e-01</_>
    <_>
      6.82919540e+01 1.40713303e+02 13899. 1.98250137e+04 13899.
      9.78126221e+01 2.64786434e+00 1.97473407e-01</_>
    <_>
      7.17813263e+01 1.41870804e+02 14712. 2.01525176e+04 14712.
      9.77815628e+01 2.80271411e+00 2.36390740e-01</_>
    <_>
      3.35899048e+01 4.28870964e+01 7878. 1.84160498e+03 7872.
      9.40163498e+01 7.08268738e+00 9.56791162e-01</_>
    <_>
      3.26220741e+01 4.25457344e+01 7143. 1.81240491e+03 7140.
      9.42343445e+01 6.25996971e+00 9.77597833e-01</_>
    <_>
      2.70642090e+01 3.79900513e+01 6807. 1.44505029e+03 6807.
      9.33021851e+01 6.80998611e+00 1.21898746e+00</_>
    <_>
      2.35352993e+01 3.21569214e+01 6639. 1.03536182e+03 6618.
      9.19846039e+01 7.99468613e+00 9.46748316e-01</_>
    <_>
      2.36400375e+01 2.96221676e+01 6801. 8.78570984e+02 6771.
      8.85575027e+01 9.77596092e+00 1.30184960e+00</_>
    <_>
      6.55242386e+01 1.11840332e+02 12765. 1.25239150e+04 12741.
      9.75023727e+01 2.46251845e+00 2.16725931e-01</_>
    <_>
      8.68149033e+01 1.25969780e+02 18327. 1.58882451e+04 18312.
      9.70896530e+01 3.91364789e+00 3.63169611e-01</_>
    <_>
      8.86438599e+01 1.21917709e+02 19380. 1.48825303e+04 19374.
      9.61289062e+01 4.54751110e+00 4.17823195e-01</_>
    <_>
      8.83544998e+01 1.21294205e+02 18078. 1.47306982e+04 18072.
      9.58501968e+01 3.65597248e+00 3.29737306e-01</_>
    <_>
      6.58352280e+01 8.72781372e+01 14556. 7.62700732e+03 14541.
      9.64492035e+01 3.77939653e+00 4.34786767e-01</_>
    <_>
      5.84378624e+01 7.91802216e+01 12633. 6.27735400e+03 12627.
      9.56810760e+01 3.96155119e+00 3.74895453e-01</_>
    <_>
      5.09696999e+01 6.56175156e+01 11589. 4.31104688e+03 11577.
      9.48517227e+01 5.10590506e+00 5.47586620e-01</_>
    <_>
      4.50656700e+01 5.63177795e+01 10950. 3.17566211e+03 10935.
      9.20835876e+01 8.20146656e+00 1.06653953e+00</_>
    <_>
      4.05418129e+01 5.20004654e+01 10191. 2.70743286e+03 10182.
      8.82573700e+01 9.18328190e+00 1.16744089e+00</_>
    <_>
      4.06145172e+01 5.63868828e+01 10413. 3.18345996e+03 10407.
      9.37158203e+01 6.94601154e+00 8.86794448e-01</_>
    <_>
      4.18920555e+01 5.81300964e+01 10668. 3.38333716e+03 10665.
      9.44208908e+01 6.62856436e+00 8.72864842e-01</_>
    <_>
      4.40305862e+01 5.67847366e+01 10737. 3.22854224e+03 10716.
      9.43028870e+01 6.22022772e+00 8.44635189e-01</_>
    <_>
      4.25601578e+01 5.74656448e+01 10770. 3.30643311e+03 10764.
      9.42953873e+01 5.73081112e+00 8.26764882e-01</_>
    <_>
      3.98853455e+01 5.41965179e+01 10611. 2.94093872e+03 10587.
      9.26892853e+01 6.08979082e+00 7.65233636e-01</_>
    <_>
      3.84783745e+01 4.90711975e+01 10482. 2.41099609e+03 10470.
      9.17358932e+01 1.00118933e+01 1.17928243e+00</_>
    <_>
      3.70293732e+01 4.79024086e+01 10506. 2.29751270e+03 10494.
      8.95646667e+01 1.15335054e+01 1.26096988e+00</_>
    <_>
      6.63689804e+01 1.16832283e+02 13242. 1.36668652e+04 13206.
      9.74746552e+01 3.02100325e+00 2.31904224e-01</_>
    <_>
      8.47262878e+01 1.24821899e+02 17262. 1.56000059e+04 17238.
      9.70261002e+01 3.33285308e+00 2.67096698e-01</_>
    <_>
      3.99225464e+01 5.34542694e+01 9816. 2.86093530e+03 9807.
      9.39868927e+01 6.08126736e+00 5.49263000e-01</_>
    <_>
      2.78605499e+01 3.54533577e+01 7476. 1.25851367e+03 7473.
      9.16191788e+01 9.20762730e+00 9.61737514e-01</_>
    <_>
      2.80771217e+01 3.55258293e+01 7941. 1.26366406e+03 7932.
      8.47916107e+01 1.16147728e+01 1.38155520e+00</_>
    <_>
      3.39574966e+01 4.89528618e+01 9165. 2.39938184e+03 9162.
      9.27769547e+01 8.71321487e+00 7.83241928e-01</_>
    <_>
      3.24127502e+01 4.32660942e+01 8940. 1.87429785e+03 8937.
      8.25995407e+01 8.77612972e+00 7.02213287e-01</_>
    <_>
      8.20162506e+01 1.25051979e+02 18630. 1.56575703e+04 18615.
      9.66150742e+01 5.14847803e+00 3.02075565e-01</_>
    <_>
      8.38647537e+01 1.25818741e+02 19755. 1.58501670e+04 19749.
      9.57435074e+01 5.25618649e+00 3.88505310e-01</_>
    <_>
      4.62630577e+01 6.10479393e+01 13293. 3.73151538e+03 13290.
      9.10357056e+01 1.09324293e+01 8.87021244e-01</_>
    <_>
      3.88142624e+01 5.34416275e+01 11202. 2.85958203e+03 11199.
      9.16645355e+01 1.11627197e+01 1.20255339e+00</_>
    <_>
      3.76808434e+01 4.92813225e+01 10056. 2.43168848e+03 10056.
      9.15643463e+01 6.13525486e+00 9.79190946e-01</_>
    <_>
      3.91449280e+01 4.96006126e+01 10668. 2.46330005e+03 10659.
      8.92077866e+01 8.53011036e+00 1.27471900e+00</_>
    <_>
      3.15322495e+01 3.97358780e+01 9075. 1.58091614e+03 9063.
      9.00056152e+01 1.21691198e+01 1.63415253e+00</_>
    <_>
      8.53014832e+01 1.60136902e+02 15654. 2.56759238e+04 15651.
      9.83931427e+01 9.38782990e-01 1.00161277e-01</_>
    <_>
      1.00542603e+02 1.65821579e+02 19236. 2.75312090e+04 19227.
      9.82946014e+01 1.51478982e+00 1.41753510e-01</_>
    <_>
      5.01997108e+01 6.98274689e+01 12183. 4.88197803e+03 12171.
      9.34433975e+01 6.67731571e+00 5.21132112e-01</_>
    <_>
      3.82613983e+01 5.79677391e+01 9840. 3.36446460e+03 9819.
      9.39553757e+01 6.53716087e+00 4.93211299e-01</_>
    <_>
      2.95886993e+01 3.78659286e+01 8379. 1.43562305e+03 8370.
      9.27356644e+01 1.05114393e+01 1.13429534e+00</_>
    <_>
      3.88146935e+01 4.96433601e+01 9432. 2.46754761e+03 9417.
      9.52116241e+01 6.25237608e+00 5.53813517e-01</_>
    <_>
      7.79880295e+01 1.28496368e+02 16662. 1.65319805e+04 16617.
      9.65698700e+01 3.84256411e+00 2.33489558e-01</_>
    <_>
      8.35644913e+01 1.31717209e+02 18621. 1.73711348e+04 18618.
      9.69288330e+01 4.25584364e+00 2.61211038e-01</_>
    <_>
      3.98077126e+01 5.13215256e+01 11196. 2.63719556e+03 11190.
      9.16346054e+01 1.30501747e+01 1.35645366e+00</_>
    <_>
      4.07821884e+01 5.55089073e+01 10299. 3.08509497e+03 10296.
      9.32403259e+01 8.92796612e+00 1.37119412e+00</_>
    <_>
      4.48592339e+01 6.16633606e+01 9900. 3.80712915e+03 9897.
      9.20110550e+01 7.59528303e+00 9.64263976e-01</_>
    <_>
      3.88326759e+01 5.13725357e+01 9030. 2.64244043e+03 9021.
      8.93271561e+01 9.60708332e+00 5.59589028e-01</_>
    <_>
      3.67758751e+01 4.63022804e+01 8901. 2.14658447e+03 8901.
      9.26064072e+01 9.55526733e+00 8.29631746e-01</_>
    <_>
      3.45050430e+01 4.48034706e+01 8895. 2.00986328e+03 8895.
      9.27998505e+01 9.49905777e+00 8.45962465e-01</_>
    <_>
      3.31796989e+01 4.27182999e+01 8826. 1.82713696e+03 8814.
      8.99719162e+01 9.97495270e+00 8.47867608e-01</_>
    <_>
      6.12684288e+01 1.11826424e+02 12549. 1.25207998e+04 12540.
      9.72685776e+01 2.21538711e+00 1.47773936e-01</_>
    <_>
      8.33423996e+01 1.26922623e+02 16467. 1.61295146e+04 16461.
      9.76264572e+01 2.39734197e+00 2.29037181e-01</_>
    <_>
      5.04639359e+01 7.02843246e+01 12228. 4.94606885e+03 12210.
      9.38594437e+01 5.94266939e+00 6.86125159e-01</_>
    <_>
      3.71629677e+01 4.79793663e+01 9321. 2.30490088e+03 9309.
      9.03580856e+01 9.04311848e+00 9.35284317e-01</_>
    <_>
      3.72688141e+01 4.97630615e+01 8793. 2.47946167e+03 8787.
      9.49469986e+01 6.42955494e+00 6.63449943e-01</_>
    <_>
      3.41719513e+01 4.52835655e+01 8373. 2.05316797e+03 8364.
      9.31971741e+01 8.66405201e+00 6.30735219e-01</_>
    <_>
      3.09625874e+01 3.99808960e+01 7746. 1.60047253e+03 7746.
      9.15071259e+01 1.03571835e+01 8.45691204e-01</_>
    <_>
      2.76344070e+01 3.51064072e+01 7719. 1.23400244e+03 7701.
      8.97010422e+01 1.09057541e+01 1.00105608e+00</_>
    <_>
      7.49140701e+01 1.29877655e+02 15987. 1.68893184e+04 15909.
      6.65381927e+01 2.85754704e+00 2.18361899e-01</_>
    <_>
      1.03773468e+02 1.50209579e+02 20469. 2.25911582e+04 20466.
      9.79093704e+01 3.13889766e+00 2.34663293e-01</_>
    <_>
      6.54662476e+01 9.00273056e+01 14082. 8.11505908e+03 14064.
      9.65855103e+01 3.87531757e+00 5.56526124e-01</_>
    <_>
      4.48551559e+01 5.75684357e+01 11823. 3.31827271e+03 11814.
      8.92578964e+01 9.18668938e+00 1.02617240e+00</_>
    <_>
      4.46115189e+01 5.86612816e+01 12315. 3.44545264e+03 12300.
      9.15385132e+01 8.61920738e+00 9.69795465e-01</_>
    <_>
      4.99876137e+01 6.53005676e+01 12402. 4.26950049e+03 12399.
      8.84590149e+01 5.38876152e+00 5.30946255e-01</_>
    <_>
      4.90043640e+01 6.18999863e+01 11253. 3.83640405e+03 11247.
      9.38158340e+01 5.50580978e+00 6.93713963e-01</_>
    <_>
      3.85565643e+01 5.08882446e+01 10251. 2.59285474e+03 10242.
      9.17153244e+01 9.61220360e+00 1.40728438e+00</_>
    <_>
      3.86517296e+01 5.48127174e+01 10005. 3.00819434e+03 9996.
      9.32774506e+01 7.08805037e+00 9.08148766e-01</_>
    <_>
      4.32783852e+01 6.01891899e+01 10557. 3.62727246e+03 10551.
      9.56306992e+01 3.94859743e+00 6.27672672e-01</_>
    <_>
      5.06290207e+01 7.82517929e+01 11925. 6.13100732e+03 11910.
      9.66456299e+01 3.55854869e+00 4.50631112e-01</_>
    <_>
      4.99779358e+01 7.67212219e+01 11457. 5.89351270e+03 11451.
      9.59355927e+01 4.14071321e+00 3.98420393e-01</_>
    <_>
      3.81233330e+01 5.05745506e+01 10236. 2.56098657e+03 10236.
      9.13919678e+01 9.24865627e+00 1.08753562e+00</_>
    <_>
      3.40373421e+01 4.37755775e+01 9525. 1.91869946e+03 9501.
      8.85991364e+01 1.16642694e+01 1.33704817e+00</_>
    <_>
      3.27062988e+01 4.17616920e+01 8889. 1.74622168e+03 8883.
      9.27059937e+01 9.61451244e+00 1.13577688e+00</_>
    <_>
      5.27634544e+01 9.31234741e+01 10983. 8.68283496e+03 10953.
      9.70242996e+01 4.18575668e+00 2.60320306e-01</_>
    <_>
      6.15279846e+01 9.62886963e+01 13512. 9.28311719e+03 13503.
      9.70353394e+01 5.09973431e+00 3.84037703e-01</_>
    <_>
      2.88189087e+01 3.60090370e+01 8733. 1.29827368e+03 8724.
      8.90575333e+01 1.86097851e+01 1.52669728e+00</_>
    <_>
      2.38612499e+01 2.98048744e+01 7650. 8.89442383e+02 7644.
      8.61851578e+01 1.94784431e+01 1.30716753e+00</_>
    <_>
      2.41271992e+01 3.07924080e+01 7521. 9.49359131e+02 7515.
      8.80086517e+01 1.59726877e+01 1.32655060e+00</_>
    <_>
      2.15629692e+01 2.80284462e+01 6906. 7.86576965e+02 6897.
      8.98673248e+01 1.42174578e+01 1.48315573e+00</_>
    <_>
      2.11873131e+01 2.72377853e+01 6411. 7.42825500e+02 6381.
      8.81867752e+01 1.14458227e+01 1.39068925e+00</_>
    <_>
      2.41538067e+01 3.23510628e+01 6726. 1.04790125e+03 6720.
      9.30769043e+01 9.96310520e+00 8.74925911e-01</_>
    <_>
      5.65083733e+01 9.66925507e+01 11004. 9.36115137e+03 10986.
      9.71706161e+01 2.69533801e+00 2.16337547e-01</_>
    <_>
      6.88047409e+01 1.03224182e+02 12735. 1.06685674e+04 12711.
      9.86098709e+01 3.16321611e+00 2.28753805e-01</_>
    <_>
      4.11826859e+01 5.29975166e+01 8805. 2.81225220e+03 8769.
      9.36646576e+01 6.98334742e+00 6.04998708e-01</_>
    <_>
      3.43861580e+01 4.35949860e+01 8190. 1.90290125e+03 8187.
      9.44373550e+01 6.02060890e+00 7.31091142e-01</_>
    <_>
      2.95647182e+01 3.70625572e+01 8016. 1.37535229e+03 8004.
      9.03565292e+01 9.34185314e+00 1.09759521e+00</_>
    <_>
      2.86612492e+01 3.62109451e+01 8253. 1.31287354e+03 8250.
      8.87070160e+01 1.34813757e+01 1.25127637e+00</_>
    <_>
      2.92574253e+01 3.81889801e+01 7800. 1.46022351e+03 7797.
      9.28992157e+01 9.06562614e+00 7.94368804e-01</_>
    <_>
      3.14777527e+01 4.10054207e+01 8193. 1.68354907e+03 8178.
      9.18073959e+01 6.83303499e+00 7.66574502e-01</_>
    <_>
      5.94538879e+01 9.75649414e+01 12168. 9.53083105e+03 12159.
      9.79383087e+01 2.02782965e+00 2.04366446e-01</_>
    <_>
      6.43333130e+01 1.00014656e+02 14016. 1.00154512e+04 14007.
      9.77234421e+01 2.77428675e+00 2.72376329e-01</_>
    <_>
      3.70479546e+01 4.83722420e+01 9771. 2.34280249e+03 9753.
      9.33605881e+01 8.63531780e+00 1.08373272e+00</_>
    <_>
      3.73942490e+01 4.88644295e+01 9498. 2.39072070e+03 9498.
      9.23152237e+01 7.07391930e+00 8.21841538e-01</_>
    <_>
      3.44064941e+01 4.60615959e+01 8496. 2.12432617e+03 8493.
      9.52448654e+01 6.80875969e+00 5.39810479e-01</_>
    <_>
      3.14854870e+01 4.54558601e+01 7542. 2.06882129e+03 7536.
      9.53667984e+01 6.80156803e+00 6.00690842e-01</_>
    <_>
      2.92969780e+01 4.08421021e+01 7854. 1.67016516e+03 7854.
      9.17863617e+01 9.36809444e+00 8.20486665e-01</_>
    <_>
      3.29783897e+01 4.44083672e+01 9603. 1.97457117e+03 9543.
      8.27128372e+01 1.04643860e+01 1.26057971e+00</_>
    <_>
      4.27366142e+01 7.08110428e+01 10533. 5.02047949e+03 10527.
      9.36870651e+01 6.83855200e+00 1.33982217e+00</_>
    <_>
      4.78712616e+01 7.41964035e+01 11562. 5.51199609e+03 11544.
      9.41833725e+01 7.11787701e+00 1.26994109e+00</_>
    <_>
      2.94934788e+01 3.80531158e+01 7359. 1.44985205e+03 7350.
      9.40794525e+01 7.63595438e+00 8.10775340e-01</_>
    <_>
      3.30166893e+01 4.28489265e+01 7473. 1.83832849e+03 7458.
      9.03540726e+01 6.09255171e+00 5.90698898e-01</_>
    <_>
      3.86947784e+01 5.07773514e+01 7914. 2.58156641e+03 7905.
      9.56069946e+01 4.99639559e+00 4.20966804e-01</_>
    <_>
      3.93393097e+01 5.33996277e+01 7659. 2.85508887e+03 7632.
      9.61746826e+01 4.80278349e+00 5.80262363e-01</_>
    <_>
      3.46374741e+01 4.71168709e+01 7371. 2.22277808e+03 7365.
      9.24377289e+01 6.76860809e+00 5.55856109e-01</_>
    <_>
      2.77467384e+01 3.50338402e+01 7047. 1.22890613e+03 7047.
      9.07415009e+01 1.09439020e+01 1.05502176e+00</_>
    <_>
      2.78028755e+01 3.47438469e+01 7299. 1.20864563e+03 7287.
      9.15635300e+01 9.77525234e+00 7.95192301e-01</_>
    <_>
      2.90007935e+01 3.63064461e+01 7338. 1.31980774e+03 7332.
      9.34304352e+01 6.70201874e+00 8.43901098e-01</_>
    <_>
      5.02028809e+01 8.87471313e+01 11154. 7.88591016e+03 11136.
      9.02463226e+01 2.89002204e+00 2.67775536e-01</_>
    <_>
      8.53040619e+01 1.37281876e+02 17919. 1.88699004e+04 17910.
      9.47917175e+01 2.56933498e+00 2.40439728e-01</_>
    <_>
      6.70566025e+01 1.12513626e+02 14652. 1.26751592e+04 14646.
      9.64415512e+01 3.31422806e+00 3.80315274e-01</_>
    <_>
      3.18513756e+01 3.99537544e+01 8337. 1.59830042e+03 8331.
      9.12329712e+01 1.13867283e+01 1.34410763e+00</_>
    <_>
      3.27078018e+01 4.12680054e+01 7854. 1.70517993e+03 7848.
      9.40857544e+01 7.68189287e+00 8.03127110e-01</_>
    <_>
      3.32807808e+01 4.29436607e+01 8274. 1.84646606e+03 8271.
      9.17382202e+01 9.57611275e+00 8.38921666e-01</_>
    <_>
      3.14794693e+01 4.00470543e+01 8811. 1.60577393e+03 8799.
      9.09892120e+01 1.23816023e+01 1.05668283e+00</_>
    <_>
      5.89847984e+01 9.06659546e+01 13377. 8.23060352e+03 13344.
      8.63171844e+01 4.20054579e+00 6.25773132e-01</_>
    <_>
      7.89209213e+01 1.07088470e+02 18351. 1.14822930e+04 18330.
      9.32428741e+01 5.69634914e+00 1.01363158e+00</_>
    <_>
      6.03881989e+01 8.07291260e+01 15798. 6.52534814e+03 15774.
      9.28066483e+01 7.44084978e+00 6.20801866e-01</_>
    <_>
      5.54043388e+01 7.34390411e+01 14490. 5.40004346e+03 14481.
      9.36144409e+01 8.92437267e+00 8.00091743e-01</_>
    <_>
      5.17589989e+01 6.86953201e+01 12942. 4.72495361e+03 12939.
      9.47295761e+01 7.12405968e+00 6.22507095e-01</_>
    <_>
      4.93843498e+01 6.66281204e+01 12615. 4.44486279e+03 12603.
      9.44397736e+01 7.94092321e+00 4.93834049e-01</_>
    <_>
      4.82456703e+01 6.39496460e+01 13479. 4.09467554e+03 13464.
      9.31320419e+01 1.10386524e+01 1.01067722e+00</_>
    <_>
      4.58025169e+01 5.89582405e+01 12996. 3.48042456e+03 12981.
      9.12552109e+01 1.20104532e+01 1.06050217e+00</_>
    <_>
      4.46156921e+01 5.94399719e+01 12444. 3.53753198e+03 12423.
      9.09605103e+01 1.00528498e+01 7.06983984e-01</_>
    <_>
      4.01914864e+01 5.27691193e+01 11214. 2.78806494e+03 11214.
      9.16533127e+01 9.53283978e+00 8.91023219e-01</_>
    <_>
      3.76367264e+01 4.81186714e+01 10284. 2.31830444e+03 10266.
      9.33590546e+01 7.52829075e+00 1.13956356e+00</_>
    <_>
      3.86131516e+01 5.12366753e+01 10707. 2.62848242e+03 10689.
      9.35335159e+01 8.53462505e+00 1.05871773e+00</_>
    <_>
      3.57555275e+01 4.67742348e+01 10470. 2.19056738e+03 10443.
      9.14995956e+01 1.30198727e+01 1.06778729e+00</_>
    <_>
      3.70905571e+01 4.79276619e+01 10680. 2.29993579e+03 10662.
      8.99912186e+01 1.25902824e+01 7.74781764e-01</_>
    <_>
      4.13413696e+01 5.26307182e+01 11361. 2.77345923e+03 11349.
      9.20375519e+01 1.05664206e+01 8.59988272e-01</_>
    <_>
      3.84664497e+01 4.85339546e+01 11100. 2.35849292e+03 11091.
      9.12612762e+01 1.20185699e+01 1.04420376e+00</_>
    <_>
      7.23245239e+01 1.10180321e+02 9465. 1.21548965e+04 9462.
      9.88620605e+01 8.94646883e-01 7.95672238e-02</_>
    <_>
      8.32933655e+01 1.13930161e+02 10899. 1.29963271e+04 10887.
      9.92131348e+01 1.12978709e+00 1.27894297e-01</_>
    <_>
      3.12841587e+01 4.06583290e+01 5532. 1.65516858e+03 5532.
      9.65057373e+01 4.39841175e+00 5.27670085e-01</_>
    <_>
      2.04906006e+01 2.57032089e+01 4050. 6.61481750e+02 4047.
      9.67103195e+01 3.84046054e+00 4.22875106e-01</_>
    <_>
      1.78179379e+01 2.26329823e+01 3615. 5.12893005e+02 3609.
      9.66454391e+01 4.69089317e+00 3.97473663e-01</_>
    <_>
      1.51934996e+01 1.92023430e+01 3351. 3.69191498e+02 3345.
      9.57614059e+01 5.89192247e+00 5.03337264e-01</_>
    <_>
      1.51557655e+01 1.94147816e+01 3072. 3.77405457e+02 3063.
      9.52526245e+01 4.39702177e+00 5.61237693e-01</_>
    <_>
      9.42508850e+01 1.58102814e+02 13722. 2.50277832e+04 13716.
      9.95314407e+01 1.13269496e+00 1.71734378e-01</_>
    <_>
      8.06542816e+01 1.08088463e+02 12912. 1.16977383e+04 12897.
      9.74295273e+01 2.86896062e+00 5.83026826e-01</_>
    <_>
      4.09443016e+01 5.48842926e+01 6879. 3.01605566e+03 6876.
      9.83392487e+01 2.38001609e+00 1.69734806e-01</_>
    <_>
      2.09673367e+01 2.73388729e+01 4746. 7.48349365e+02 4746.
      9.40834122e+01 4.86269140e+00 6.41045690e-01</_>
    <_>
      1.70251503e+01 2.10652771e+01 4068. 4.44301270e+02 4065.
      9.11893539e+01 5.13036823e+00 9.27334905e-01</_>
    <_>
      1.57484999e+01 1.98312244e+01 3492. 3.93769714e+02 3489.
      9.37336197e+01 4.88515139e+00 6.29411578e-01</_>
    <_>
      1.56939936e+01 2.43221512e+01 3348. 5.92307434e+02 3255.
      4.86079979e+01 2.76716518e+00 2.75224507e-01</_>
    <_>
      8.16410599e+01 1.45660950e+02 12519. 2.12436660e+04 12480.
      9.61598282e+01 1.32718539e+00 6.42701462e-02</_>
    <_>
      1.05849396e+02 1.56054260e+02 16323. 2.43834121e+04 16317.
      9.87634583e+01 1.39368474e+00 9.70767587e-02</_>
    <_>
      4.82693443e+01 6.60753708e+01 9462. 4.37141895e+03 9462.
      9.65632553e+01 3.37516665e+00 4.82429057e-01</_>
    <_>
      3.05400085e+01 3.92401390e+01 6831. 1.54171570e+03 6828.
      9.38339081e+01 6.32282352e+00 8.98678362e-01</_>
    <_>
      3.46803017e+01 4.63483887e+01 6618. 2.15086157e+03 6612.
      8.48410568e+01 2.22130799e+00 2.48288393e-01</_>
    <_>
      1.03227371e+02 1.49585938e+02 15240. 2.24039551e+04 15216.
      9.69490967e+01 2.37805796e+00 5.57655334e-01</_>
    <_>
      8.12530518e+01 1.14985550e+02 12915. 1.32382236e+04 12912.
      9.76040802e+01 2.20011258e+00 4.63113248e-01</_>
    <_>
      3.56252899e+01 4.74073753e+01 7203. 2.25027197e+03 7188.
      9.58584671e+01 3.29201508e+00 3.12270463e-01</_>
    <_>
      3.13445625e+01 3.97405891e+01 6009. 1.58129102e+03 5997.
      9.65674057e+01 3.57526350e+00 3.88996035e-01</_>
    <_>
      3.00084743e+01 3.80094757e+01 5559. 1.44652844e+03 5550.
      9.44726334e+01 3.13537431e+00 3.35587621e-01</_>
    <_>
      1.02749779e+02 1.79161621e+02 14493. 3.21390586e+04 14481.
      9.86343765e+01 5.03492892e-01 1.14298910e-01</_>
    <_>
      1.33214417e+02 1.93883606e+02 19134. 3.76378984e+04 19113.
      9.86053314e+01 5.30973554e-01 1.08324923e-01</_>
    <_>
      7.22515717e+01 9.40938568e+01 12459. 8.86473438e+03 12456.
      9.79194183e+01 1.53416300e+00 1.87683403e-01</_>
    <_>
      4.19614410e+01 5.28020401e+01 7497. 2.79154468e+03 7488.
      9.69357071e+01 2.40071702e+00 3.18163276e-01</_>
    <_>
      3.72215347e+01 4.89982872e+01 6234. 2.40383691e+03 6234.
      9.65239105e+01 2.63292122e+00 2.92290211e-01</_>
    <_>
      1.16440598e+02 1.97049118e+02 17946. 3.88769531e+04 17931.
      9.65125046e+01 1.39953065e+00 2.61674613e-01</_>
    <_>
      2.27907120e+02 2.97119629e+02 34653. 8.83905625e+04 34605.
      9.76488876e+01 1.10722435e+00 1.49863899e-01</_>
    <_>
      2.95073151e+02 3.73737610e+02 47508. 1.39854625e+05 47463.
      9.60384827e+01 1.05040312e+00 2.04809263e-01</_>
    <_>
      2.72769592e+02 3.50108368e+02 44622. 1.22729273e+05 44616.
      9.75362015e+01 1.20036352e+00 2.61059463e-01</_>
    <_>
      2.33540253e+02 2.89110077e+02 37011. 8.36892578e+04 36987.
      9.59735870e+01 1.59130013e+00 1.74256697e-01</_>
    <_>
      3.21297668e+02 3.95774200e+02 51369. 1.56833250e+05 51342.
      9.64234848e+01 1.80636764e+00 2.78534412e-01</_>
    <_>
      3.09844879e+02 3.81950409e+02 51234. 1.46068703e+05 51222.
      9.68230133e+01 1.74884450e+00 2.89753288e-01</_>
    <_>
      2.23587906e+02 2.81052643e+02 37542. 7.90894531e+04 37485.
      9.43624878e+01 1.15514290e+00 1.47194892e-01</_>
    <_>
      2.16407837e+02 2.72390198e+02 36363. 7.42892734e+04 36318.
      9.28058090e+01 1.66551876e+00 2.39147812e-01</_>
    <_>
      2.16687225e+02 2.64023743e+02 36753. 6.97957812e+04 36717.
      9.30148163e+01 2.34337497e+00 4.28482860e-01</_>
    <_>
      1.86896393e+02 2.35234299e+02 32895. 5.54044297e+04 32856.
      9.64827576e+01 2.20777225e+00 4.36633676e-01</_>
    <_>
      1.64194809e+02 2.09556061e+02 29343. 4.39687031e+04 29340.
      9.53420181e+01 1.68979442e+00 1.98146477e-01</_>
    <_>
      1.96873489e+02 2.52266296e+02 33264. 6.37179297e+04 33255.
      9.74066391e+01 1.79114497e+00 2.36091062e-01</_>
    <_>
      2.27312622e+02 2.90254333e+02 39840. 8.43530156e+04 39726.
      9.04817657e+01 2.43095160e+00 4.38493997e-01</_>
    <_>
      2.34648621e+02 2.96181854e+02 41712. 8.78334844e+04 41628.
      9.26549683e+01 1.86185420e+00 3.27986479e-01</_>
    <_>
      3.09871948e+02 3.90642487e+02 53043. 1.52792531e+05 53016.
      9.75567398e+01 1.38729799e+00 2.27272600e-01</_>
    <_>
      3.17219055e+02 4.08007080e+02 58110. 1.66678125e+05 58014.
      9.57818146e+01 2.33383441e+00 4.68433857e-01</_>
    <_>
      2.39762177e+02 3.06506073e+02 45858. 9.40635469e+04 45816.
      9.68469925e+01 2.42296934e+00 3.89193475e-01</_>
    <_>
      2.19023666e+02 2.65468719e+02 37953. 7.05618438e+04 37938.
      9.74717026e+01 2.21942115e+00 3.43416363e-01</_>
    <_>
      8.38619080e+01 1.61117371e+02 13317. 2.59912969e+04 13314.
      9.74721375e+01 1.84302902e+00 4.92339939e-01</_>
    <_>
      9.95215912e+01 1.65585083e+02 16410. 2.74527363e+04 16407.
      9.77441711e+01 2.07158327e+00 4.90394890e-01</_>
    <_>
      3.65218582e+01 4.83272896e+01 7947. 2.33844995e+03 7941.
      9.64221115e+01 4.55467939e+00 4.55286831e-01</_>
    <_>
      3.07070904e+01 3.88867302e+01 6348. 1.51407031e+03 6348.
      9.56941910e+01 3.62412810e+00 4.94450450e-01</_>
    <_>
      2.61828003e+01 3.31512070e+01 5208. 1.10037805e+03 5205.
      9.65564880e+01 3.76350451e+00 4.07621682e-01</_>
    <_>
      2.18410492e+01 2.73172035e+01 4785. 7.47163574e+02 4776.
      9.39657898e+01 5.05256796e+00 6.76791787e-01</_>
    <_>
      2.41503849e+01 3.18357086e+01 5124. 1.01478082e+03 5121.
      9.65920334e+01 4.42536497e+00 5.09018242e-01</_>
    <_>
      9.42685852e+01 1.71792450e+02 15087. 2.95495820e+04 15078.
      9.59747009e+01 3.01432610e+00 9.01376128e-01</_>
    <_>
      1.35786713e+02 1.90718613e+02 21909. 3.64191094e+04 21906.
      9.60920029e+01 2.94305182e+00 8.25375438e-01</_>
    <_>
      7.96960754e+01 9.96629028e+01 14073. 9.94512598e+03 14055.
      9.72005997e+01 2.76917887e+00 4.25628453e-01</_>
    <_>
      4.85997391e+01 6.24638443e+01 9555. 3.90661499e+03 9549.
      9.67810211e+01 3.98340559e+00 4.59558904e-01</_>
    <_>
      3.81371231e+01 5.02065086e+01 7893. 2.52384839e+03 7866.
      9.25064926e+01 4.01560879e+00 5.20579159e-01</_>
    <_>
      4.65640411e+01 5.97245903e+01 7791. 3.57149121e+03 7782.
      9.79568634e+01 1.85024488e+00 2.51807779e-01</_>
    <_>
      5.33438454e+01 1.04492218e+02 9150. 1.09322891e+04 9123.
      9.16657791e+01 1.94480062e+00 3.27638835e-01</_>
    <_>
      9.51012726e+01 1.42765106e+02 15891. 2.04073848e+04 15885.
      9.75272903e+01 2.64674568e+00 4.75551903e-01</_>
    <_>
      8.15666275e+01 1.16283234e+02 14655. 1.35387129e+04 14649.
      9.67225342e+01 3.06428957e+00 6.40055478e-01</_>
    <_>
      5.00557137e+01 6.97697906e+01 9558. 4.87391602e+03 9549.
      9.66641846e+01 3.03910661e+00 4.26074564e-01</_>
    <_>
      3.53770790e+01 4.48945656e+01 7401. 2.01804443e+03 7392.
      9.32510376e+01 4.09705877e+00 4.72207874e-01</_>
    <_>
      2.93116131e+01 3.70984306e+01 6468. 1.37801599e+03 6456.
      9.01062698e+01 4.37030697e+00 4.92072791e-01</_>
    <_>
      6.31321106e+01 9.53040924e+01 10677. 9.09423730e+03 10653.
      9.27237778e+01 1.78448129e+00 2.56802946e-01</_>
    <_>
      1.03554413e+02 1.32582886e+02 16875. 1.76002227e+04 16665.
      9.80284958e+01 1.60092497e+00 2.42351040e-01</_>
    <_>
      8.55254822e+01 1.14376915e+02 14727. 1.30984521e+04 14697.
      9.78597336e+01 1.89875317e+00 2.43563354e-01</_>
    <_>
      5.81721001e+01 7.77691116e+01 10668. 6.05560449e+03 10668.
      9.71461716e+01 2.43132615e+00 4.30373967e-01</_>
    <_>
      4.87311668e+01 6.19142952e+01 9240. 3.83817773e+03 9228.
      8.86491623e+01 2.86256766e+00 4.92032051e-01</_>
    <_>
      5.93768425e+01 7.64353714e+01 10395. 5.84967871e+03 10392.
      9.70527115e+01 2.69133091e+00 4.98933613e-01</_>
    <_>
      8.05110397e+01 1.41312988e+02 10767. 1.99943535e+04 10713.
      9.31154861e+01 5.00209868e-01 5.53826801e-02</_>
    <_>
      1.47129196e+02 1.93769470e+02 19572. 3.75935977e+04 19557.
      9.93724136e+01 5.32761395e-01 6.59072250e-02</_>
    <_>
      1.12042503e+02 1.48073547e+02 18516. 2.19532188e+04 18513.
      9.71492081e+01 1.26368999e+00 1.72234014e-01</_>
    <_>
      6.96449738e+01 8.62241669e+01 13878. 7.44391260e+03 13857.
      9.65609207e+01 3.02837753e+00 4.93265808e-01</_>
    <_>
      6.31670609e+01 8.11545639e+01 11610. 6.59430566e+03 11607.
      9.69749146e+01 2.94515944e+00 4.87062752e-01</_>
    <_>
      1.17815926e+02 2.06981262e+02 16050. 4.28948633e+04 16014.
      9.79560776e+01 7.61537015e-01 6.25233650e-02</_>
    <_>
      2.25488663e+02 2.88945587e+02 32619. 8.35940469e+04 32526.
      9.85985413e+01 1.05511129e+00 8.23978633e-02</_>
    <_>
      2.80790863e+02 3.58576935e+02 45030. 1.28738336e+05 44844.
      9.23152237e+01 9.33952868e-01 1.09608620e-01</_>
    <_>
      3.33494843e+02 4.24728851e+02 53937. 1.80620359e+05 53898.
      9.84775772e+01 9.67860162e-01 9.12268683e-02</_>
    <_>
      2.86886810e+02 3.76083466e+02 45822. 1.41615781e+05 45801.
      9.83365173e+01 1.39007723e+00 1.46867841e-01</_>
    <_>
      1.96910843e+02 2.63047577e+02 33501. 6.92806328e+04 33471.
      9.69222717e+01 1.74194622e+00 1.79239422e-01</_>
    <_>
      1.86186157e+02 2.42370758e+02 33954. 5.88171055e+04 33948.
      9.75478745e+01 1.68117297e+00 1.33800387e-01</_>
    <_>
      1.92077118e+02 2.47289825e+02 34899. 6.12287930e+04 34857.
      9.61882248e+01 1.73410153e+00 1.84838861e-01</_>
    <_>
      1.82227875e+02 2.34330856e+02 34200. 5.49796758e+04 34086.
      8.43058243e+01 1.54598892e+00 2.08634734e-01</_>
    <_>
      1.69361191e+02 2.20467499e+02 31848. 4.86667539e+04 31788.
      9.68536148e+01 1.91704655e+00 2.04329163e-01</_>
    <_>
      1.48974762e+02 1.83096741e+02 27585. 3.35663750e+04 27579.
      9.70696335e+01 3.01877594e+00 3.13915133e-01</_>
    <_>
      1.87842209e+02 2.28785446e+02 32352. 5.24082891e+04 32247.
      9.47291946e+01 2.15243530e+00 3.92162204e-01</_>
    <_>
      1.98543747e+02 2.44225525e+02 33759. 5.97207539e+04 33753.
      9.71542282e+01 1.89669597e+00 3.09336066e-01</_>
    <_>
      1.86887527e+02 2.39775879e+02 31716. 5.75644258e+04 31650.
      9.67044296e+01 1.07384825e+00 1.01473540e-01</_>
    <_>
      1.74699448e+02 2.24126694e+02 29331. 5.02956445e+04 29328.
      9.59717255e+01 1.68795872e+00 4.35257584e-01</_>
    <_>
      1.47223007e+02 1.84484085e+02 25581. 3.40769766e+04 25485.
      9.36177597e+01 2.41419029e+00 6.62292242e-01</_>
    <_>
      1.98501568e+01 4.84715004e+01 3144. 2.35242676e+03 3141.
      9.95994797e+01 5.96247792e-01 6.77593574e-02</_>
    <_>
      1.12819443e+02 1.85261887e+02 18123. 3.43649219e+04 18090.
      9.63390198e+01 1.54100323e+00 1.10968038e-01</_>
    <_>
      1.63588577e+02 2.17923798e+02 26916. 4.75502188e+04 26910.
      9.83622131e+01 1.58351493e+00 1.17602356e-01</_>
    <_>
      8.32325592e+01 1.23431824e+02 15300. 1.52544834e+04 15294.
      9.78856583e+01 2.13346267e+00 2.16255441e-01</_>
    <_>
      4.63880806e+01 5.95273018e+01 8328. 3.54793457e+03 8319.
      9.09214325e+01 2.77822447e+00 2.43594572e-01</_>
    <_>
      4.08337517e+01 5.41586494e+01 6984. 2.93683032e+03 6969.
      9.53042068e+01 1.88522518e+00 2.08812192e-01</_>
    <_>
      3.09247131e+01 3.94547768e+01 6156. 1.55862769e+03 6153.
      9.47457733e+01 5.08047485e+00 9.87237751e-01</_>
    <_>
      3.11893501e+01 4.46516914e+01 5667. 1.99626892e+03 5658.
      9.65052185e+01 2.09520268e+00 2.64740258e-01</_>
    <_>
      9.20292358e+01 1.45778458e+02 14766. 2.12779551e+04 14727.
      9.67678299e+01 1.99858725e+00 2.55057335e-01</_>
    <_>
      1.27299072e+02 1.66119797e+02 19614. 2.76303262e+04 19605.
      9.78914413e+01 2.06956577e+00 3.58403772e-01</_>
    <_>
      8.45220032e+01 1.08714615e+02 13767. 1.18336592e+04 13764.
      9.75254822e+01 1.32150078e+00 1.87049508e-01</_>
    <_>
      6.66821060e+01 8.68691711e+01 11355. 7.55569727e+03 11316.
      9.19567337e+01 1.53111541e+00 2.27139741e-01</_>
    <_>
      5.05477982e+01 6.68032455e+01 9852. 4.46825879e+03 9834.
      9.32116623e+01 3.00032234e+00 4.30440187e-01</_>
    <_>
      5.90978432e+01 1.07113426e+02 8826. 1.14876445e+04 8787.
      8.69620590e+01 1.23339891e+00 8.58831182e-02</_>
    <_>
      1.02898987e+02 1.41337006e+02 16953. 2.00011523e+04 16935.
      9.83658524e+01 1.84832752e+00 1.24934055e-01</_>
    <_>
      8.21725769e+01 1.09357857e+02 15228. 1.19741084e+04 15225.
      9.73200989e+01 2.62446380e+00 2.62015402e-01</_>
    <_>
      5.58282738e+01 7.16459579e+01 10830. 5.13956787e+03 10830.
      9.52947006e+01 3.82854724e+00 5.80167949e-01</_>
    <_>
      4.65515060e+01 6.32406960e+01 9435. 4.00439111e+03 9411.
      9.57464523e+01 3.47754598e+00 5.25301933e-01</_>
    <_>
      4.29930382e+01 5.77661095e+01 7932. 3.34109961e+03 7929.
      9.65446320e+01 3.10278177e+00 4.21481103e-01</_>
    <_>
      3.78463516e+01 4.76363335e+01 6822. 2.27206055e+03 6819.
      9.55215225e+01 4.99886417e+00 6.90512121e-01</_>
    <_>
      4.13082657e+01 5.63305626e+01 8793. 3.17710376e+03 8784.
      9.40760727e+01 6.82106161e+00 1.07264888e+00</_>
    <_>
      3.58627510e+01 4.87086182e+01 8031. 2.37549878e+03 8028.
      9.29591980e+01 8.57042408e+00 1.44509292e+00</_>
    <_>
      2.25641251e+01 2.88482990e+01 4788. 8.33265930e+02 4788.
      9.42503281e+01 3.70797873e+00 4.95387554e-01</_>
    <_>
      1.93231125e+01 2.49446545e+01 4167. 6.23014587e+02 4161.
      9.55469894e+01 3.99848533e+00 5.41531503e-01</_>
    <_>
      1.75833931e+01 2.19123745e+01 4002. 4.80753143e+02 3996.
      8.92326736e+01 5.14000273e+00 8.92169178e-01</_>
    <_>
      1.84596004e+01 2.36526928e+01 3948. 5.60150085e+02 3945.
      9.62480164e+01 3.96598244e+00 5.28704166e-01</_>
    <_>
      4.84986076e+01 8.09083786e+01 7881. 6.55435938e+03 7881.
      9.79073792e+01 1.76022160e+00 1.18201949e-01</_>
    <_>
      7.67068558e+01 1.01383713e+02 11946. 1.02915225e+04 11838.
      9.78796387e+01 1.54681909e+00 1.20671153e-01</_>
    <_>
      5.42151642e+01 7.19797592e+01 9588. 5.18757031e+03 9588.
      9.78646317e+01 2.22331977e+00 2.13930801e-01</_>
    <_>
      2.97752438e+01 4.03865356e+01 6234. 1.63311353e+03 6228.
      9.51022110e+01 4.29585886e+00 4.78881478e-01</_>
    <_>
      2.14785843e+01 2.87089386e+01 5073. 8.25234680e+02 5073.
      9.32148285e+01 7.38032579e+00 1.14958560e+00</_>
    <_>
      2.04786568e+01 2.69544945e+01 4500. 7.27454041e+02 4500.
      9.41550369e+01 7.44461632e+00 9.89371657e-01</_>
    <_>
      1.97847748e+01 2.51687737e+01 3822. 6.34260010e+02 3819.
      9.53809280e+01 4.78664827e+00 5.76848269e-01</_>
    <_>
      2.26460342e+01 3.15146732e+01 4371. 9.94417664e+02 4359.
      8.21325226e+01 4.59172010e+00 3.41347635e-01</_>
    <_>
      1.45458908e+02 2.51884232e+02 23529. 6.35250703e+04 23499.
      8.81825943e+01 1.20971501e+00 8.08091238e-02</_>
    <_>
      3.08411682e+02 3.84642181e+02 53409. 1.48134766e+05 53301.
      9.25129700e+01 1.40284204e+00 1.74127787e-01</_>
    <_>
      2.78148834e+02 3.51661438e+02 51093. 1.23820547e+05 50976.
      8.94852524e+01 2.57449031e+00 5.22077739e-01</_>
    <_>
      2.42956268e+02 3.02320679e+02 41196. 9.15121875e+04 41172.
      9.60684586e+01 2.34964991e+00 3.78252774e-01</_>
    <_>
      2.30156860e+02 2.80781647e+02 37425. 7.89370156e+04 37407.
      9.73579025e+01 2.58887386e+00 3.42609078e-01</_>
    <_>
      2.04698624e+02 2.49785995e+02 33537. 6.24711289e+04 33459.
      9.60599976e+01 1.32759190e+00 1.16770454e-01</_>
    <_>
      2.19622971e+02 2.72951904e+02 37854. 7.45959844e+04 37812.
      9.73399277e+01 1.71243954e+00 2.52349317e-01</_>
    <_>
      1.89427353e+02 2.39369965e+02 34230. 5.73696914e+04 34221.
      9.64937515e+01 1.99608207e+00 3.57314855e-01</_>
    <_>
      1.67699020e+02 2.01457779e+02 29460. 4.06360352e+04 29451.
      9.67108917e+01 2.22087169e+00 2.85508960e-01</_>
    <_>
      1.59682709e+02 1.92691574e+02 27378. 3.71765156e+04 27333.
      9.71513977e+01 2.37275171e+00 3.03992242e-01</_>
    <_>
      1.18457291e+02 1.49487289e+02 23037. 2.23744199e+04 22995.
      9.71772308e+01 2.38979959e+00 2.18874201e-01</_>
    <_>
      9.96158981e+01 1.31908127e+02 19815. 1.74215293e+04 19764.
      9.25755920e+01 2.15324259e+00 2.01775953e-01</_>
    <_>
      1.44725220e+02 1.94324753e+02 23595. 3.78093711e+04 23550.
      9.41500015e+01 1.23225725e+00 1.06754653e-01</_>
    <_>
      1.75830185e+02 2.27022385e+02 27744. 5.16036680e+04 27720.
      9.75212097e+01 1.28706896e+00 1.62866965e-01</_>
    <_>
      1.75253677e+02 2.59555756e+02 29064. 6.74535000e+04 29028.
      9.79037018e+01 1.03049004e+00 1.40976906e-01</_>
    <_>
      2.29470749e+01 5.17648659e+01 3834. 2.68295508e+03 3798.
      9.43295364e+01 7.71459877e-01 7.05909804e-02</_>
    <_>
      5.07533607e+01 7.56884003e+01 9441. 5.73590332e+03 9441.
      9.71542053e+01 3.97982335e+00 3.01035821e-01</_>
    <_>
      4.32592506e+01 5.96235123e+01 9321. 3.55941235e+03 9315.
      9.61522064e+01 6.67952585e+00 6.20168626e-01</_>
    <_>
      2.13229408e+01 2.66907578e+01 5136. 7.13288147e+02 5127.
      9.28861084e+01 6.88788843e+00 9.24002290e-01</_>
    <_>
      1.68403969e+01 2.12430534e+01 4422. 4.51832092e+02 4422.
      9.22242584e+01 6.79262114e+00 1.09288585e+00</_>
    <_>
      1.62240009e+01 2.01399002e+01 3906. 4.06123260e+02 3894.
      9.02804947e+01 6.24971294e+00 1.07261109e+00</_>
    <_>
      1.47436876e+01 1.78979034e+01 3453. 3.20735870e+02 3453.
      9.29376373e+01 6.70172262e+00 1.12019598e+00</_>
    <_>
      1.81980648e+01 3.25215149e+01 3966. 1.05897278e+03 3957.
      3.33520966e+01 2.18972588e+00 3.05066854e-01</_>
    <_>
      7.16192627e+01 1.12462967e+02 11343. 1.26637480e+04 11334.
      9.84401321e+01 9.20052052e-01 9.79687497e-02</_>
    <_>
      8.83176956e+01 1.19726181e+02 14961. 1.43522998e+04 14952.
      9.84352570e+01 1.62079775e+00 1.72628820e-01</_>
    <_>
      4.21935463e+01 5.36435585e+01 8643. 2.88123315e+03 8616.
      9.57319870e+01 4.49825716e+00 6.00723207e-01</_>
    <_>
      3.46553993e+01 4.28510818e+01 7089. 1.83851318e+03 7080.
      9.45984879e+01 3.39647031e+00 4.10788745e-01</_>
    <_>
      3.40976448e+01 4.35732002e+01 6921. 1901. 6921. 9.54230194e+01
      3.86014104e+00 7.91062117e-01</_>
    <_>
      3.43452377e+01 4.45876389e+01 6678. 1.99054565e+03 6660.
      9.35861053e+01 4.06006575e+00 7.47429371e-01</_>
    <_>
      3.26569672e+01 4.46385765e+01 6198. 1.99509631e+03 6198.
      9.44972076e+01 3.88152838e+00 6.75866127e-01</_>
    <_>
      7.89191055e+01 1.45792603e+02 11808. 2.12820840e+04 11736.
      6.39794884e+01 6.85814619e-01 4.98386398e-02</_>
    <_>
      1.08993500e+02 1.65637558e+02 17211. 2.74701387e+04 17205.
      9.81399765e+01 1.16277635e+00 1.20497525e-01</_>
    <_>
      5.84490356e+01 8.73790131e+01 11073. 7.64464697e+03 11061.
      9.67894897e+01 3.32982850e+00 4.74901587e-01</_>
    <_>
      3.16019993e+01 4.13335762e+01 6300. 1.71060291e+03 6297.
      9.51274643e+01 4.21823931e+00 5.89304030e-01</_>
    <_>
      2.83715725e+01 3.56569214e+01 5214. 1.27300720e+03 5211.
      9.67952805e+01 2.85862088e+00 4.40358847e-01</_>
    <_>
      2.57598000e+01 3.44961395e+01 4887. 1.19147290e+03 4878.
      9.73459167e+01 3.12825823e+00 4.01771873e-01</_>
    <_>
      2.23894691e+01 3.29128494e+01 4335. 1.08461145e+03 4332.
      9.75538254e+01 2.45147014e+00 3.84505063e-01</_>
    <_>
      3.84241409e+01 5.80874596e+01 7785. 3.37837598e+03 7785.
      9.58476410e+01 4.02423239e+00 3.30074668e-01</_>
    <_>
      3.87201195e+01 5.15605888e+01 7968. 2.66182153e+03 7950.
      9.42965469e+01 5.92889166e+00 6.66980147e-01</_>
    <_>
      2.56965008e+01 3.29276466e+01 5037. 1.08558704e+03 5028.
      9.50012894e+01 4.37741280e+00 5.04874408e-01</_>
    <_>
      1.82388382e+01 2.35249157e+01 4056. 5.54114319e+02 4053.
      9.40168533e+01 5.20898247e+00 5.35991788e-01</_>
    <_>
      1.57979059e+01 2.05315304e+01 3693. 4.22071320e+02 3687.
      9.29588165e+01 7.00998306e+00 7.86986470e-01</_>
    <_>
      1.53056250e+01 1.94095535e+01 3471. 3.77202271e+02 3468.
      9.39829330e+01 7.67487478e+00 8.31187248e-01</_>
    <_>
      1.41434345e+01 1.80586815e+01 3243. 3.26524139e+02 3216.
      9.13832016e+01 5.07230186e+00 7.14413464e-01</_>
    <_>
      3.10020943e+01 4.14929276e+01 5757. 1.72381787e+03 5757.
      9.39295044e+01 3.90709996e+00 5.77197015e-01</_>
    <_>
      3.56043549e+01 4.47499809e+01 6555. 2.00506702e+03 6543.
      9.55964508e+01 3.75709629e+00 6.50066376e-01</_>
    <_>
      2.66473217e+01 3.32175903e+01 5253. 1.10478943e+03 5247.
      9.68444443e+01 4.42124319e+00 3.70548666e-01</_>
    <_>
      2.38456039e+01 3.05284367e+01 4875. 9.33151855e+02 4869.
      9.32896805e+01 5.06853104e+00 5.98282337e-01</_>
    <_>
      1.97520008e+01 2.59794636e+01 4473. 6.75777222e+02 4467.
      9.38674393e+01 5.14600658e+00 8.87089193e-01</_>
    <_>
      1.91818504e+01 2.51342182e+01 4023. 6.32519531e+02 4023.
      9.42034607e+01 4.31779432e+00 6.58022106e-01</_>
    <_>
      1.89792843e+01 2.57873707e+01 3795. 6.65820801e+02 3792.
      9.54048462e+01 4.84689140e+00 7.47321248e-01</_>
    <_>
      1.40239609e+02 2.14562851e+02 21606. 4.60948359e+04 21564.
      8.56603165e+01 2.17898440e+00 5.36267400e-01</_>
    <_>
      2.00134705e+02 2.65497437e+02 33876. 7.05771094e+04 33864.
      9.67181015e+01 2.44713187e+00 5.43905318e-01</_>
    <_>
      1.53037018e+02 2.03722229e+02 26292. 4.15546914e+04 26286.
      9.62868042e+01 2.69539046e+00 5.42008042e-01</_>
    <_>
      1.27416580e+02 1.59181839e+02 20850. 2.53705684e+04 20838.
      9.80309143e+01 1.45261371e+00 1.29622310e-01</_>
    <_>
      9.23458557e+01 1.18804008e+02 17703. 1.41320586e+04 17694.
      9.67398911e+01 2.68686175e+00 2.99631208e-01</_>
    <_>
      7.23114395e+01 9.02227173e+01 13710. 8.15032666e+03 13704.
      9.34750824e+01 3.28778028e+00 3.62223893e-01</_>
    <_>
      8.91766129e+01 1.07694000e+02 15510. 1.16125137e+04 15480.
      9.54309540e+01 2.54780579e+00 3.46499085e-01</_>
    <_>
      1.13774910e+02 1.35470291e+02 18639. 1.83751699e+04 18624.
      9.32617493e+01 2.36887431e+00 4.43886906e-01</_>
    <_>
      1.00622253e+02 1.25831490e+02 16752. 1.58533799e+04 16737.
      9.64230499e+01 2.21176004e+00 3.83451432e-01</_>
    <_>
      7.70715561e+01 9.64790344e+01 14166. 9.31985352e+03 14121.
      9.68082733e+01 2.09379792e+00 2.39808679e-01</_>
    <_>
      8.50351868e+01 1.07546883e+02 15912. 1.15808076e+04 15891.
      9.35705566e+01 3.12205029e+00 4.13920969e-01</_>
    <_>
      1.01157150e+02 1.33593124e+02 18021. 1.78694590e+04 18000.
      9.76759644e+01 2.56475377e+00 3.68179858e-01</_>
    <_>
      9.94507980e+01 1.27753197e+02 16830. 1.63413066e+04 16806.
      9.62335358e+01 2.30185676e+00 3.44604164e-01</_>
    <_>
      7.82377853e+01 9.29995499e+01 13833. 8.65974121e+03 13797.
      9.62324142e+01 2.91620088e+00 3.84185106e-01</_>
    <_>
      7.95103683e+01 9.98691940e+01 13806. 9.98633887e+03 13791.
      9.74373169e+01 3.00399494e+00 3.89885992e-01</_>
    <_>
      2.52122250e+01 5.49211349e+01 4503. 3.02010620e+03 4485.
      7.42084579e+01 8.50890577e-01 8.77579898e-02</_>
    <_>
      5.82985497e+01 8.68058853e+01 9072. 7.54469238e+03 9048.
      9.87364883e+01 1.62962365e+00 1.97829708e-01</_>
    <_>
      5.57753639e+01 7.63635483e+01 9234. 5.83869043e+03 9228.
      9.83543472e+01 2.43381071e+00 3.14565748e-01</_>
    <_>
      3.25950012e+01 4.35446243e+01 6069. 1.89850757e+03 6060.
      9.62715836e+01 2.61461973e+00 4.12759513e-01</_>
    <_>
      2.26672306e+01 3.02392330e+01 4641. 9.15555664e+02 4638.
      9.32492447e+01 3.81623411e+00 4.24434781e-01</_>
    <_>
      1.94622002e+01 2.44614964e+01 4245. 5.99113647e+02 4242.
      9.48358231e+01 5.09532404e+00 6.83357596e-01</_>
    <_>
      1.96996403e+01 2.46928768e+01 4176. 6.10501282e+02 4173.
      9.52216797e+01 4.44867277e+00 5.20656705e-01</_>
    <_>
      3.82968674e+01 7.15902939e+01 6459. 5.13158447e+03 6441.
      9.86199570e+01 1.15769935e+00 1.61272034e-01</_>
    <_>
      5.44312706e+01 8.21621628e+01 8613. 6.75906934e+03 8613.
      9.85268860e+01 1.14090192e+00 1.53981373e-01</_>
    <_>
      3.36329994e+01 4.76520996e+01 6681. 2.27356445e+03 6678.
      9.64170837e+01 2.96332455e+00 6.08813465e-01</_>
    <_>
      2.06259384e+01 2.70584526e+01 4638. 7.33076172e+02 4629.
      9.27685623e+01 5.55800152e+00 1.07759833e+00</_>
    <_>
      1.75824280e+01 2.26351566e+01 3966. 5.12991516e+02 3966.
      9.45815582e+01 4.98483372e+00 5.04656792e-01</_>
    <_>
      1.52040472e+01 1.98074474e+01 3720. 3.92825989e+02 3714.
      9.44995728e+01 5.94000626e+00 7.48302758e-01</_>
    <_>
      1.55268097e+01 2.01150360e+01 3495. 4.05121063e+02 3480.
      8.25870438e+01 5.24292517e+00 6.85747027e-01</_>
    <_>
      2.68317661e+01 4.83910675e+01 5094. 2.34462646e+03 5028.
      7.08112793e+01 2.59944034e+00 2.46053204e-01</_>
    <_>
      6.56216888e+01 1.03774002e+02 11025. 1.07825205e+04 11016.
      9.58039551e+01 3.28108001e+00 7.44634807e-01</_>
    <_>
      6.29608421e+01 9.71951065e+01 11577. 9.45871191e+03 11565.
      9.49319687e+01 3.94793177e+00 9.58096266e-01</_>
    <_>
      2.48727932e+01 3.21818962e+01 5817. 1.03697070e+03 5811.
      9.22417755e+01 7.12290668e+00 1.18215060e+00</_>
    <_>
      1.88614311e+01 2.37367020e+01 4257. 5.64136169e+02 4254.
      9.50173645e+01 4.61775017e+00 8.79323840e-01</_>
    <_>
      1.61080303e+01 2.05035114e+01 3768. 4.20920135e+02 3768.
      9.31435089e+01 6.26819468e+00 9.11147296e-01</_>
    <_>
      1.78696022e+01 2.39439659e+01 4029. 5.74031006e+02 4017.
      8.71473007e+01 4.02716732e+00 6.00391090e-01</_>
    <_>
      4.50385780e+01 6.98602142e+01 8121. 4.88655762e+03 8109.
      9.47468796e+01 4.23299599e+00 1.03556824e+00</_>
    <_>
      5.93997765e+01 8.01385803e+01 10620. 6.43022949e+03 10611.
      9.47452240e+01 4.03222227e+00 9.11409020e-01</_>
    <_>
      4.00079727e+01 5.33160210e+01 7851. 2.84615601e+03 7851.
      9.63825607e+01 3.92942381e+00 5.11973798e-01</_>
    <_>
      2.38188934e+01 3.16146393e+01 4992. 1.00073633e+03 4992.
      9.56750793e+01 4.76107168e+00 6.29194975e-01</_>
    <_>
      1.53355217e+01 2.01028938e+01 3882. 4.04632111e+02 3873.
      9.41319656e+01 6.72533989e+00 8.72692645e-01</_>
    <_>
      1.59791813e+01 2.07718735e+01 3669. 4.32010742e+02 3669.
      9.53847885e+01 4.94700336e+00 8.44874382e-01</_>
    <_>
      1.81890469e+01 2.31729965e+01 3864. 5.37659851e+02 3855.
      9.61540833e+01 4.12513733e+00 6.74775600e-01</_>
    <_>
      2.43353443e+01 3.99335213e+01 4446. 1.59668201e+03 4422.
      8.15469284e+01 2.88566995e+00 3.45753372e-01</_>
    <_>
      4.35380630e+01 6.12279205e+01 7635. 3.75355005e+03 7623.
      9.78260422e+01 2.10692573e+00 2.44326830e-01</_>
    <_>
      3.78513298e+01 5.38770180e+01 7614. 2.90636597e+03 7602.
      9.70694580e+01 2.48500061e+00 3.04445356e-01</_>
    <_>
      2.42414055e+01 3.16950874e+01 5190. 1.00583588e+03 5187.
      9.55282974e+01 4.46442032e+00 6.17928982e-01</_>
    <_>
      2.23800755e+01 2.80855560e+01 4569. 7.89785706e+02 4569.
      9.20661545e+01 3.56019568e+00 6.31558955e-01</_>
    <_>
      2.16169872e+01 2.68716850e+01 4362. 7.22991211e+02 4353.
      8.96672592e+01 3.31780267e+00 5.89741468e-01</_>
    <_>
      2.09989681e+01 2.61262188e+01 4068. 6.83433655e+02 4068.
      9.62004547e+01 3.75608468e+00 5.79002380e-01</_>
    <_>
      3.27550888e+01 4.56791992e+01 5919. 2.08920068e+03 5913.
      8.40749512e+01 2.82884645e+00 2.11546570e-01</_>
    <_>
      5.17646255e+01 6.55102997e+01 8769. 4.29697070e+03 8748.
      9.61223755e+01 2.41053486e+00 3.34211618e-01</_>
    <_>
      4.60759506e+01 5.99319229e+01 8424. 3.59633081e+03 8406.
      9.61149292e+01 3.61420417e+00 5.73705733e-01</_>
    <_>
      7.98000412e+01 1.23756775e+02 12768. 1.53349072e+04 12714.
      8.84436798e+01 9.80361700e-01 2.03213245e-01</_>
    <_>
      1.54604340e+02 1.98759354e+02 24909. 3.95547227e+04 24903.
      9.57536774e+01 1.32047033e+00 1.81250617e-01</_>
    <_>
      2.11720200e+02 2.67746735e+02 34722. 7.17780391e+04 34689.
      9.68508987e+01 1.40739417e+00 1.19968131e-01</_>
    <_>
      2.24341171e+02 2.90331726e+02 38418. 84398. 38397. 9.75808487e+01
      1.69829321e+00 1.92495316e-01</_>
    <_>
      1.81477814e+02 2.38065552e+02 33651. 5.67461445e+04 33390.
      9.71469193e+01 2.47759342e+00 2.86708683e-01</_>
    <_>
      1.42844711e+02 1.78503860e+02 25998. 3.19035059e+04 25974.
      9.74022369e+01 2.82544494e+00 2.57897407e-01</_>
    <_>
      1.36252838e+02 1.65797867e+02 24357. 2.75233379e+04 24354.
      9.40638275e+01 2.34441876e+00 4.39537585e-01</_>
    <_>
      1.63952866e+02 2.04061646e+02 28020. 4.16932734e+04 27981.
      8.70172348e+01 2.05234075e+00 3.62344027e-01</_>
    <_>
      1.52242020e+02 1.94648193e+02 26145. 3.79353398e+04 26106.
      9.64605103e+01 2.16765332e+00 3.30268741e-01</_>
    <_>
      1.14056168e+02 1.42099915e+02 20496. 2.02176582e+04 20493.
      9.45974503e+01 3.47009349e+00 6.59080088e-01</_>
    <_>
      1.12661888e+02 1.40098969e+02 18669. 1.96522891e+04 18663.
      9.56030884e+01 2.07403731e+00 2.96419561e-01</_>
    <_>
      1.01625687e+02 1.27192581e+02 16845. 1.61982012e+04 16827.
      9.66476288e+01 1.72059715e+00 2.05013394e-01</_>
    <_>
      1.40565750e+02 1.92129181e+02 21180. 3.69598203e+04 21174.
      9.62660141e+01 2.33295345e+00 6.13850713e-01</_>
    <_>
      1.72453598e+02 2.19403442e+02 25881. 4.81981211e+04 25881.
      9.63624115e+01 2.09654212e+00 5.45578480e-01</_>
    <_>
      1.43161964e+01 1.96018353e+01 4395. 3.84712830e+02 4392.
      8.63756104e+01 1.44494209e+01 1.18127108e+00</_>
    <_>
      1.42576876e+01 1.86374245e+01 4194. 3.47788330e+02 4188.
      8.73669968e+01 1.53982115e+01 8.80100965e-01</_>
    <_>
      1.46478186e+01 1.89862194e+01 4224. 3.60927643e+02 4212.
      8.15210419e+01 1.47230291e+01 8.19971561e-01</_>
    <_>
      1.33048496e+01 1.77614002e+01 4077. 3.15862152e+02 4074.
      8.92893906e+01 1.71027851e+01 1.03906786e+00</_>
    <_>
      1.39455748e+01 1.93633442e+01 4077. 3.75408356e+02 4074.
      9.08839264e+01 1.30512247e+01 6.38202429e-01</_>
    <_>
      1.44375000e+01 2.01396999e+01 4032. 4.06115143e+02 4032.
